[-0.7599613022301642, -0.3848760222953268, -0.40204670733076087, 0.18074159241205737, -0.3844168034990712, 0.849577643258896, -0.6008750356784999, 0.22573482198631997, -0.6080507151507027, -0.4812696822579598, 0.3244279652497135, -0.26636272619152696, -0.13323017795185013, -0.11253292890167076, 0.8648754860562851, -0.25333503914095046, 0.2937783856213614, -0.0332288160144027, 0.5767238206637519, 0.3609192862232355, 0.6054349150423792, 0.11594455940580614, -0.35113328774637154, 0.5576798997535124, 0.03694683027836056, 0.3189577971275235, 0.22770917683902958, -0.2870756251817174, 0.18730895056644398, -0.17348252730313574, 0.4509097375310253, -0.577466159889216, -0.5411505641827361, -0.2585480306391193, -0.007461642490342575, 0.5974046039280815, 0.7682995880855016, 0.2612574901207467, 0.7240790639088021, -0.49681451845811087, 0.4926701305892608, 0.025766392039064293, 0.4984824704170494, 0.3605063893660033, -0.15733461088236853, 0.07788585402529988, 0.17257638444733187, -0.4824741343373218, -0.5078472795437109, -0.32475762317841916, -0.17465202320825288, -0.31380164293991425, -0.035589987398069914, -0.47087952612507566, -0.1865204813526165, -0.405685441759564, 0.06622450572491412, -0.8138898732591945, -0.5654224106503178, 0.30911691069438096, -0.2854499969086049, -0.03286241713321217, 0.5016606871364657, 0.4956584077119053, 0.5930700267000246, 0.24363032125198178, -0.4623792865048143, -0.06898443704374617, 0.327391159584932, 0.1037188734603592]
[-0.32946791421308924, -0.3866350545160125, -0.014841838013712132, -0.19813555920296244, -0.21602304511640033, 0.21972440715065542, 0.48522687389341473, 0.31263785293285384, 0.5775128475843052, 0.5407215331060343, 0.21197253788114223, -0.49678322837935024, 0.06666644800800944, 0.16460444159893733, 0.5137289697294731, -0.16170899336990885, 0.5144622212810003, 0.1064148001615881, 0.6101103349992907, -0.6194325785758408, 0.4037691127047281, -0.0755653299905464, -0.10874640156348186, 0.6626020252390551, 0.05288387620248551, -0.20461693186883476, 0.2890411147322363, 0.678086753466548, 0.42415373895389746, 0.2885587888325956, 0.42646807443108414, 0.1168124647400608, 0.553609238532542, -0.8356246685146737, -0.037811370225035335]
[-1.8292660461488888, -1.1586015931977003, -0.49207162064406096, 0.1430175328682303, -0.4075603236876131, -0.16029852972173883, -1.0311208563299372, -0.8905296018145447, -2.1673098804043693, -1.3684087213171652]
