[-0.3415730797157608, -0.36650405770239747, -0.7178210339829367, -0.8478951708453257, -0.2435766974623872, 0.5116621300798072, 0.7262261760449598, -0.7172888420775951, 0.8434697262315065, 0.2410610789346963, -0.5502731036098989, 0.44411347186439665, -0.4551844811388799, -0.9201074921023855, -0.05152949361356285, 0.4130611585552926, -0.1328848604627324, 0.758078586675146, -0.2704543390146341, -0.45651847781665267, -0.19514364906780046, 0.48406822102962765, 0.31976613598111037, 0.09679809111302595, -0.4864442812400096, 0.3850003341179118, 0.17622140472493397, 0.733787936578205, 0.9845958001005723, 0.8234028681730292, 0.5637095769655551, -0.2511501765412478, 0.24447090796781268, -0.7378810544213088, -0.5420476682558399, -0.9876801217681743, 0.5015981247309984, 0.390054212375779, -0.160491251695816, 0.7813758226754693, 0.37362341889257583, 0.06994437236267788, -0.6362130600181507, -0.4410483790980939, -0.6199154619296633, -0.6214341437024109, 0.3358618682081456, -0.985531301931925, -0.8769277182375146, -0.6669256432485537, 0.09598159617750168, -0.5266812864893824, -0.5516048468566759, 0.5014603388384111, 0.6383429431530958, -0.6882047884901461, -0.4653904601609855, -0.5930816662432477, -0.06480827929260835, 0.30139866823540484, -0.580473341700178, 0.8630404788883252, 0.8061273225589471, 0.5006653669243207, 0.8861948540571228, 0.9450576690719209, -0.43995629512352946, 0.920139820192269, 0.6054650916230181, -0.06575580071562184, 0.5552172397390459, 1.0121761958638893, 0.5522954132877352, -0.24516393826806845, -0.3768300881943812, 0.16373926114354512, -0.5171315138144733, -0.9500358655966772, 0.4399605252141545, -0.032598678830544195, -0.19546350985914462, 0.9056818924467289, 0.64060611174652, -0.36311817068318497, -0.7396436885578879, 0.06542817231150466, 0.5535711691478791, 0.08131066971927492, 0.9404252657910598, 0.5242149744432917, -0.8844770415888634, -0.6712875669570775, 0.06230346690354704, -0.12151951677086799, -0.5137041851589544, 0.8486602192034106, 0.6115288872969481, 0.02838680265637737, -0.2723179386742052, -0.5418947857474493, -0.6522035997839286, -0.6813065986378731, -0.9690303260369025, -0.10227805044690769, 0.1578171255110772, 0.004066496780323752, 0.9131097559807675, -0.6886081487935142, 0.635839851988134, 0.0014222383577169317, 0.7957630884470275, 0.9777250483157263, 0.8508428504076011, 0.05364136088889704, -0.5217062280134594, 0.11172898075685081, 0.7433800404324205, 0.7589394617373627, 0.5675048280071742, -0.39466219499580296, -0.5384408904037107, -0.9655311903993077, 0.21702297167765125, -0.12983236800740677, 0.04716301369843516, 0.3423164585064273, 0.14169590082725889, -0.7777714804018393, -0.301130307893697, -0.21734933257870478, 0.5677261565970148, 0.6137900104937102, 0.4679332033329824, 0.991062911078476, 0.6524352879645255, -0.33181267010309007, -0.6657050980689182, 0.4359114587955313, 0.5601038921103293, -0.528594507977431, -0.5261520545759193, -0.16850931795486335, -0.1888908071083486, 0.8701358931553418, -0.7669077592811541, 0.6841153030316863, 0.8817126429631917, -0.6212406571177456, 0.184484456358975, -0.6521220190281463, 0.08164468155693339, 0.05383726657617311, 0.5575241078388443, -1.1782906649972225, -1.0057395795246975, -0.5398162073440368, 0.15206650720865458, -0.47578913254344823, 0.3570153697309818, -0.2688069746195519, -0.9275665609715351, -0.7048260030962682, 0.5982917141075059, 0.7549064566808741, 0.7931638196686458, 0.11412078297067728, -0.8951603386896319, 0.7647519966275256, 0.08461767833303901, -0.13864365869133732, -0.5808201938680708, 0.9596541405313994, 0.10681634466982173, -0.8444678411018999, 0.44943743396014596, 0.216862722608905, 0.18988427259788662, 0.7010498153958247, 0.23445861837314394, -0.036561862894027686, 0.4961932223134147, 0.3173711200522509, 0.011612954877784248, -0.723987659570148, -0.2545945706730551, 0.5658010473633914, -0.9473372260107223, 0.5885210397031231, -1.2142898748863937, -0.5150512083272876, -0.505408609027969, -0.9838647877783642, -0.7396644025385611, 0.1271150264349792, -0.7457715487885737, 0.18718126418727196, 0.3545164509027245, 0.6014269081330049, 0.14063003274587849, 0.31579636759543767, -0.3068050400967447, 0.7714633366021509, -0.5337903801101628, 1.0422931857440678, 0.13418831366104264, -0.5309891351258097, 0.05031767490643644, -0.5039813592249195, -0.9611082866552366, -0.6076790370296542, 0.053423471745162834, -0.927872393891174, -0.10398434256497552, -0.4015841617904376, 0.18485538425627202, 1.0051183309093725, -1.0295580985846027, -6.651997872115757E-4, -0.4205801560217921, 0.6327648231332526, -0.6156805036340226, -0.41457321607571057, 0.16465794664901998, 0.11729778287908867, -0.2645496811431867, 0.30261150753821997, 0.5014025527016893, -0.035315171945085294, -0.9786495718778684, -0.10021285904683223, -0.42707809628650634, -0.43386834053644663, 0.5282745052322213, 0.43418057576106317, -0.3005174339698064, 1.1807952429148862, 0.2547080766064834, 0.1794541911748661, 0.5010356182056378, 0.8621222457450022, 0.6269726392335814, -1.1204638329283938, 0.010760462784715466, -0.4432235569992101, 0.9661878037789046, -0.4958254709011574, -0.0860167686922636, 0.5798548132612933, -1.0521147919908314, -0.5574114050061054, -0.46172890736231714, -0.12262342709202137, -0.17371848105550217, 0.525019975493296, 0.07251868325411921, 0.4290834083743422, 0.19280565692991558, 0.10923609786003834, 0.5233642382959857, -0.6968609498414697, 0.427542193722844, 0.005698066870711319, 0.2851726044294832, 0.09090858523810773, 0.8467255129019614, 0.6217359805673576, -0.4958453941742061, 0.20908503136894885, -0.29393559264337216, -0.3267926343924249, -1.0268778347511183, 0.8651358226477501, 0.19895467357819888, 0.48364737153845244, -0.7957016329361867, -0.39075514764174624, -1.0187159197353022, -0.4552487162921476, 0.38417268210090005, -0.3925030347924004, 0.045191574625474074, 0.41062882382277033, 0.7213842277642413, 0.4717130908302715, -0.17488969389908618, -0.7774022023381176, -0.08566978613706332, -0.5391790946214291, 0.8008464201486827, 0.36122632597335674, 0.25725825711073136, 0.38670867074211, 0.3254130746484704, 1.0540727871337938, -0.7202584699094132, 0.9742566119256914, -0.7688629753788059, 0.7733532837658136, 0.40831241946235286, -0.01938114805277559, -0.973363409621194, -0.8481453136937983, 0.5175650414774274, -0.7584703349196901, -0.0476832826077553, 0.6985952423969074, 0.02374304042421319, -0.8077983801267395, -0.3622586365846612, 0.9847279095015479, -0.7873871588366934, 0.7579347038575467, -0.9441131697125311, 0.46066276833122205, 0.5657668507000574, 0.4107388055109249, 0.49631761663181273, -0.22044425540713877, 0.3910224949828767, 0.4649636606730882, -0.39955763325877436, -0.729959742935393, 0.736270728793248, 0.1879809147969811, 0.027705275456937448, 0.6157412361441534, 0.30597482798396863, -0.5632653524342217, 0.910026931274433, 0.13581072192802146, 0.6128659957803695, -0.7869485793111414, -0.3869082583903906, 0.26191225916951166, 0.10662295308562424, -0.11799588652932293, 0.26271707083761675, -0.32772560656611854, -0.1729802014317823, 0.2438052182269657, -0.0020799796997006013, -0.14762742557854233, -0.5433649736229698, 0.11879140887205183, 0.3459421211356575, 0.7897535562472681, -0.32140615470331424, 0.5669738428747945, 0.11615376184213369, 0.5216175288633352, -0.7860145309496948, -0.4847818588305424, 0.21387972792141707, -0.19701685813258824, -0.3735175668852541, 1.0724345514145524, 0.18005541910301673, -0.23013010321836344, -0.03988818844969418, 0.7946801288488876, 0.7085180815854819, -0.8776319444797613, 0.13256988541454956, -0.012679783796679485, 0.7986814662318209, 0.8906879773898901, 0.8794710697580931, 0.7873802105903424, -0.45105362840756313, -0.2157308083918927, 0.5690693804075286, -0.561584646217835, -1.0086497595422135, -0.43843432332042576, -0.31224439922806535, -1.0063439974435384, -0.27141199023996815, 0.5103934261293812, 0.6220060838463315, -0.6098279719821779, 0.025416692868115223, 0.34304317100626563, 0.5408421677579055, -0.330525522490885, -0.3572430201733371, 1.1344196290599693, -0.5866830754905665, -0.43795849866340464, 0.9945633164604617, 0.6907252301153969, 0.16242979067416738, 0.03514012995899307, -0.39815612761761177, 0.38780997572447384, -0.5227592659784276, 0.15168971264599523, -0.25546287958474895, -0.7132429762345223, -0.953848678547769, -0.30212041832752146, -0.07197667849747323, 0.3143058265972778, -0.40914874070603857, -0.9529117050285688, -0.5788571560780138, -0.08631609157164521, -0.22096079528643667, 0.881465147298709, 0.28420253741766865, 0.7469920487387547, 0.7893416814487659, 0.5199151523027686, -0.7212361825995137, -1.0434393592383926, -0.48559058267042715, -0.8250119604005623, 1.011482673018386, -0.3024812167029506, -0.09159206990470112, -0.9156857976801711, -0.7787105851576452, 0.45323182454744143, 0.5663239055164239, 0.6448147787289354, -0.14381574759963184, -0.5118807939810963, -0.2366548479892699, -0.5559362470844874, -0.10506442674052954, 0.15484773642250327, -0.7442969234700341, -0.6336171407759856, 0.06945759324244281, 0.4672434764462146, 0.8568693951496927, -0.5845671118525421, 0.9244122265258247, 0.8191993249931214, 0.31586744808719047, -0.4723041405526452, 0.5708310337563574, 0.459429825964882, -0.10867616587458231, 0.08518250943217638, 0.1769105082740917, 0.12278287807789778, -0.6759382975995827, 0.12252608073243554, 0.5405024963543688, 0.2029729444443109, -0.794425890292284, 0.510710636338707, -0.7988192538170916, 0.7602501513764522, -0.899686132142316, -1.8060956518157667E-4, -0.7809395706399688, -1.4379182795222423, -0.45293635990523373, -0.9540669421028496, 0.6832350072701012, 0.41140672655987404, 0.180047117636578, 0.02297383024125661, -0.07692028322567768, 0.550823378920261, -1.1416731369019906, -0.4265754721961055, -0.14953720837744494, -0.21020518595909016, 0.5074482185773032, -0.10095884263272586, 0.1329305613296557, 0.12586962794650303, 0.6625047893643365, -0.2618174016226211, -0.5354915081072593, -0.06317270929082519, -0.9541651683585807, 0.03955664839900341, -0.7421553932021172, -0.45413787905079683, -1.026253434697304, 0.30409129140970587, -0.5142460777533422, -0.08259110067242394, -0.30505220215369927, -0.36558302891414957, 0.34548250729679886, -0.002092080239661071, -0.04904213892002231, 0.7243405604385289, -0.6501103171701265, -0.9815469492086923, 0.27570448125192937, -0.6267009430889661, -0.3979363446515431, -0.8987013985472072, -0.8454072057276217, -0.4753242014342111, 0.45114650524463357, -0.600076416480641, 0.030814204235067262, 0.9715946048414159, -0.3901524031352164, -0.9557797130065866, -0.7584853420106927, 0.14086205219700737, -0.7943132812842523, 0.6741977644037938, 0.05452650590749199, -0.6129116431488822, 0.5824835672834218, -0.4471721168080299, -0.3702450435417329, -0.9808392128523737, 0.9780065700142853, 0.9601253624559895, 0.12582635394124456, 0.6934919955230984, 0.5650320387193294, -0.32408687382469353, 0.7431937347573703, -0.3140689008447332, -0.09803953577177853, -1.0493274357867335, 0.4742415067224915, -0.3459218304259376, 0.3371505307297589, -0.5776906581659412, 0.586400471496084, 0.8206488577125599, 0.9799863436712346, -0.899440211602371, 0.4535998912656859, -0.6487865754638755, 0.4334332731837028, 0.09002075343109038, -0.789929966825306, -1.0242240000317375, 0.3989803004004802, 0.3256881411835755, 0.4364685096823562, 0.23596828265829498, -0.47882484501262734, 0.716391631089143, 0.23473597790983985, 0.41822229958619656, 0.5400786070716379, -0.0035170866573160007, -0.6849238872965902, -0.16466772140775665, 0.02099214368835797, -0.4462554829164084, -0.8063305517069242, 0.8985612547067184, 0.14385667624390291, 0.5154824060072551, 0.08431038776818398, -0.9417117699153437, -0.6783379269353129, -0.34993523191797493, 0.22653240797007754, 0.18245993478651945, 0.11281500138941032, 0.5668901429392376, 0.8252183729922289, -0.7478591822865244, -1.332705875822908, 0.5883262848182995, -0.19998129155390096, -0.6766005244908878, 0.2658044333598755, 0.16871457527982298, -0.5743722544331663, -0.8409548097847501, -0.14066073129486764, -0.28501334685577717, -0.3816618327369193, 0.37179086999317995, -0.42011441830167356, 0.577901607819387, -0.7706486903663472, 0.2726163660261903, 0.9916627654525272, 0.08917543947081476, -0.20731890178127396, 0.8993094033501605, -0.24195362182233082, -0.2881582523807895, 0.798510550542497, -0.35834526354329577, -0.1502735632881526, 0.12367468328165336, -0.25755802740697137, -0.7311354782169555, -0.5502395834279645, -0.09299154654687354, 0.44570208686090035, -0.3478567718146956, -0.2571437878268208, 0.7715641628942502, -0.11172100385379204, -0.47501551131240777, 0.6851597774669768, -0.36903913016800954, -1.1113134427438274, -0.5458850553308784, 0.4241875353148903, 0.6922753952009163, -0.9706391931200484, 0.8720941813566816, -0.3656251990237246, -0.9443021892373783, -0.5672728790790456, 0.6337038367242753, -0.6174950673049426, -0.7254733428011066, 0.4469103718010342, -0.9777730460180377, 0.3745404661965518, 0.09641565288796469, 0.6448715896805797, 0.3274709069445068, -0.43614354990388754, -0.7886884702272579, 0.059614197810722164, -0.8285888903856945, -0.5478653635516889, -0.7037620681157978, 1.102076432654318, 0.576504430919871, -0.08722878490606358, -0.8981907347464249, 0.6516914924168101, 0.282339680500032, -0.9276328162562465, 0.2286909675428174, 0.5754027564568138, 0.37264632194309516, -0.6621962202287274, -0.7114493376391053, -0.8567811787510495, 0.5992012304114243, 0.7721207862331434, -0.03917218970591496, 0.6265133787044224, 0.9606783751316238, 0.37469113835595685, 0.060057875113686765, -0.5582046393095702, -1.0149646315943814, 0.7423533478854865, 0.4432146659913927, -0.45349218505244143, -1.1324603732148186, 0.02006226327277122, 0.7804130284103066, 0.47149583613562696, -0.7717427232478739, -0.2397015170662759, 1.0028275056368672, -0.4502756279454225, -0.0977738413954802, 0.34561452773316964, -0.36213166793719725, -0.6058760656942339, -0.15936147006252657, 0.956385548302088, 0.9789527621540759, 0.6020756314795506, -0.18625094084496885, -0.15696068139398922, 0.6468207180226231, -0.4928439108370233, -0.11158634567309694, 0.5676947223704404, 0.0646537737946059, 0.5543729783958831, -0.31697269959087787, -0.8844025797744258, 0.10442401151816917, -0.8827297673134761, -0.3598585687426926, 0.5471472249054132, 0.4297756989213928, -0.44424703237468494, 1.0873943166566677, 1.1217820308778121, 0.40746107493964884, 0.047472273634141145, 0.6341423881733785, -0.5888163669308379, 1.068360243374484, -0.715586743404852, 0.7595815748245823, -0.08204857100073884, 0.14041565370639614, -0.519117227669561, -0.7760278275652577, -0.8799165554582411, 0.11186143200268295, 0.12711934703217054, 0.14088050534033073, -0.795142052646614, 0.615624974804693, 0.48995759983865145, 0.47935590968446756, -0.8866604292737171, -0.6480117098124484, 0.47402207185388073, 0.40092908920178155, -0.7345989554991376, 0.04514779883143221, -1.1447139073349981, 0.43417700862006664, -0.510363383337141, -0.1441022860268108, 0.5825948499112832, 0.04593582001012312, -0.8805474704689659, 0.9571684247161852, -0.5309295470809687, 0.5336482862445685, -0.6934737664468106, -0.36548578925068376, 0.9437609835895373, -0.15243729588511767, -0.669021068920415, 0.7735013055530637, 0.05983588000178619, -0.8246392249845624, 0.8100413039873531, 0.8147165869777604, -0.5739312596182823, -0.36934032232362035, -0.6625518341489026, -0.330872876229141, -0.5012557974262765, 0.2937452497488999, 0.3099226576722873, 0.791683167428546, 0.5510648340507321, -0.6465327934279792, -0.14454672871607488, 0.2772088139859637, 0.009107502493692474, 0.6488528881079815, -0.06766112028797644, -0.7827052562651182, -0.33828840483729905, -0.41784123267271384, -0.5491718389778946, 0.05773383086105133, 0.4962214388011563, 0.09738117097242949, 0.2609192087294512, -0.7721999123597072, -0.5252118837392774, -0.6727811466331657, -0.21221163745311067, 0.895056444816495, 0.7604987864759558, -0.4832542741416509, 0.6822781831270572, 0.5304847872276987, 0.8433411028368962, -0.30771158540844185, -0.4400030815600286, -0.4505549364386123, -0.5188141431450171, 0.9602778355563024, -0.32471735531516044, 0.9292686821958599, -0.2270513990247396, 0.6531486889352394, -0.28214997075679, 0.20407090201880107, -0.8472323069727872, -0.02221337150593805, 0.02509147253564814, -0.7305765194263698, 0.2982484620479229, -0.727684720536943]
[0.01609028157841852, 0.6689521618964411, -0.4340127039185673, -0.10605808507406667, 0.05301840763381249, 0.4675370689003704, -0.604617499830393, -0.8931024273342936, 0.023374473198308987, -0.22535453156701446, -0.6015684542235236, 0.6519419660319679, -0.6777277063214677, -0.8534749676365334, 0.3530521704402865, 0.5371501666512251, 0.17363474414830993, -0.5568044532264511, 0.9606672555813416, -0.12340937054194634, -0.41745311409591945, 0.7237187764028712, 0.6162045746381362, 0.8147978964849789, 0.9298145340341901, -0.3790291892780442, 0.050191776168685864, -0.41529177344630064, 0.2451679297771987, -0.696846009140226, -0.3657329218084917, 0.5689919578467848, 0.5334373468428966, 0.6078044669292009, 0.3855675590105885, 0.869482768318953, 0.17842133272215754, 0.22529129497969444, -0.7374442498783409, 0.33717696670130576, 0.41234104463987364, -0.08953816003919839, 0.2094185615366996, -0.729011457803732, 0.09402481954392766, -0.37896194581527637, -0.3921807730970076, -0.9201508987146456, -0.2222550160907082, -0.7819329069454855, -0.7617716366093885, 0.05936081487335465, 0.438862049634676, -0.15427837676131362, -0.2583101320237855, -0.8335656940520821, -0.5443124346578596, -0.39984166578062963, 0.6042027960598448, -0.8425873301348052, -0.2941270449224025, 0.07866554815115312, -0.8201715464188142, 0.7908836377173093, -0.5150645044091439, -0.46380311436818883, 0.993493471598449, -0.07682796684288852, -0.5034216386862925, -0.016594397672290692, 0.5426517646408877, -0.7034760607007438, -0.5203450941348419, 0.8444753325408325, 0.5655042929231288, 0.5630695760689733, 0.5707346179780399, -0.8919637021327355, 0.4063115595885936, -0.5129436113377013, -0.43845715878646285, 0.17610778377382896, 0.9229877574436718, -0.7445351043623976, -0.6624195381671212, -0.358024364666478, -0.562246249634218, -0.9429513803312317, -0.8301276630541236, 0.1404614652578729, -0.2320292079637902, 0.9655481876306844, 0.7689783129302784, 0.02899116951143038, 0.3373382510236554, 0.6989869310441408, -0.6876174867130984, 0.5088000339633466, -0.8967559350519808, -0.35560585840146625, 0.7172405570315877, -0.7807272398252304, -0.9047749838721365, -0.08751566872287443, -0.8656905910463527, -0.5419358806835024, 0.11117563460491571, 0.9146307741432168, 0.22188166498047715, 0.5451050228231793, -0.28534787570580966, 0.21203389654739202, -0.030941144947500332, -0.06830211574396206, 0.7758656658220897, -0.7445211824136443, -0.3971164956823753, -0.4457241215395243, 0.4449628425398596, -0.49666658137624586, 0.14901808460982247, -0.19913691192885152, -0.020378078212191283, -0.0112791742077749, 0.2655507774261842, 0.1753872826740678, 0.3848755640772423, 0.7707122438917776, -1.016085710827222, 0.8817659359698131, -0.7590996715948969, 0.7328068930143693, -0.9302935352027284, -0.13643972947603122, 0.7217893713842762, 0.2395012179283517, -0.30298335435864493, 0.7045676054720661, 0.5158388797933392, -0.8517228962055707, 0.9304237878250001, 0.816438009758202, -0.8040874119686479, -0.4646077631638391, -0.14261325927418236, -0.13476854601063373, -0.9608055127484348, -0.27545660344665845, 0.7571557061856226, -0.07179125379334841, -0.7839562620492374, -0.35463752881074223, -0.30379034679087724, -0.45799296918114163, -0.16694236346472716, -0.2788424709269115, 0.370114796277872, -0.6869870236885983, -0.27375979233543357, 0.06793172941003219, -0.9028806373969216, -0.8420153059964774, -0.8279635294237785, -0.6357698331865592, 0.8133344983097494, -0.20993526613145272, 0.31120655557408766, 0.7774831282851954, 0.6892600304600214, -0.8431093510290804, -0.2785448650333602, 0.23226421743701509, -0.22786764156101133, -0.5961834720310085, -0.7315064553951265, -0.3650679211048704, 0.21927279195284963, 0.925765018578349, -0.887341190937131, 0.7877206021098558, 1.4922401467210806, -0.4116801839761355, 1.1685659677823965, 0.18386169162830787, 0.062374944867939236, 0.7052034815431707, -1.1951432558721566, -0.33600172610725626, -1.0524210033219856, 0.21315349901047215, -0.7748824005357949, -0.23589931483840948, 0.46061589008218423, -0.9253082437783503, -0.43753158797657904, 0.6313337186140509, 0.14589452938953687, 0.04211591308995752, -0.3808488272077007, -0.8492509636825487, 0.744466627078387, 0.5223595199535547, 0.6084461057707405, -0.5074679378552139, 0.40529100401371476, -0.7715627268636359, -0.38012552718033704, 1.1337850780686174, 0.6418725622405334, 0.7534071718732195, 0.2789914510573096, 0.6054937219739083, 0.30997095125109164, -0.6884368340031908, 0.618946279420007, 0.7204351523894602, -0.0441731468118262, -0.029090827599960727, 0.3678662180800487, -0.3832341693255928, 0.766222971465282, 0.04643699123520571, 0.9568791993525602, -0.25034870147060234, -0.05919891260703958, 0.20115578309651239, -0.7572787587538798, 0.3876673910830821, 0.6402086457302821, 0.4042755374715514, -0.37451058392363684, -0.6282425088227724, 0.6054931095163484, 0.0371699616048007, -0.1591338399174484, -0.6491196958235138, 1.0443102271105678, 0.6567883200090452, -0.9062959110187252, -1.08584900494713, -0.5538457246899725, 0.07351371459654313, -0.4897061804343284, -0.9119529762696861, -0.3745914285375665, 0.5798040967668633, -0.5573231330119164, -0.5225424112390409, 0.22718933599642321, -0.8404872647593385, 0.1361029478457196, -0.4046936539613028, -0.9740567888208189, 0.3065062347583096, -0.6919764437803212, 0.3910757203106507, -0.5696669095830628, 0.28357207028201453, 1.0248100462673393, 0.6007549304216028, -0.17962807213432302, -1.1234520165887731, 0.13866392416143458, 1.000502339278855, 0.14233968266370325, -0.41503104384742806, 0.273242273234863, -0.12441968402991482, -0.6259774514303557, -0.4613650147771676, 0.21729407937041184, -0.5490100017776638, -0.5050290552305069, -0.884052780612172, 0.7816760406620058, -0.6618526727832661, 0.5332737486817979, 0.5013482720831248, -0.6726586298316677, 0.1951714704956336, 0.09105613596907292, -0.41530309449699715, -0.8515353092864673, -0.2008282069868781, 0.3287356078360989, -0.5753379806646183, -0.12009236701112583, 0.4298627082009124, -0.46787175988365665, 0.8741336607826106, -0.7110558933827337, 0.6933754105063968, 0.2104160046219339, -0.010345193130939297, -0.6452258002579446, 0.5441753298083516, -0.45298988566958676, 0.05992166963467294, 0.8776716645860413, 1.1554311984509817, -0.08209624641549579, -0.0036560580145283367, -0.015009087138769604, 0.5276609601966781, 0.47790783111949975, 0.33109075847968134, 0.7040649543286948, 0.09851424266752257, -0.2917045249556718, 0.0813112504647852, 0.6241703718155378, 0.4255652603324258, 0.598561290711929, 0.9836265402098692, -0.4926125328631879, -0.6412930844266019, 0.8270646757792877, -0.2356070548069223, 0.16120799097886615, 0.7429816686007221, 0.2591214087027625, -0.39709524350594766, -0.4845352966229492, 0.24498610370513704, -0.25197057081828594, -0.24662787393350502, 0.9049117115393593, 1.060317877421984, 0.7149725221454375, -0.9422172423346042, 0.13583198938703672, -0.303734548923469, 0.264141931708279, 0.5866895480389364, -0.21957292122958788, 0.9622385105818562, -0.4743473299300345, -0.48089424760403726, -0.31818850237952084, 0.14434081079571837, 0.8728498597365901, 0.22715782982222973, -0.7467634973651793, -0.5258791701890824, -0.7764262982398554, -0.04882245069013071, -1.0486862512189792, -0.6207847256749026, 0.8705807585709701, -0.4889144785435133, 0.4006598043936092, 0.017404723431050446, 0.9169824595640788, -0.6536132506443078, 0.8440695573689754, -0.26535788665934834, 0.7188286591046017, 0.3509089977615155, -0.6482370265139296, -0.015204037517710068, 0.4455376225863835, 0.8726935214893052, 0.48849846208122666, -0.6399214329270623, -0.5133425863421628, 0.968985492864376, 0.16680397050960044, -0.4362863459445688, 0.47430398484423447, 0.3053336041644106, -0.7238942114463834, 0.06744906175582471, 0.47271903557142214, -0.29654176011947303, -0.2510629925428287, 0.7976983875209934, 0.13798291507562926, -0.2993454640449968, -0.11068594770185515, 0.15286255078990332, -0.49955528919783826, -0.4545295816782024, 1.2015967742002422, 0.38816714528507734, -0.2440352974284622, -0.33403612835026664, -0.3131849112066584, 0.3148347861219879, -0.6173635160797644, 0.1576661786235101, -0.1015310803171816, 0.7526293855024826, 0.8932475554412245, 0.5605500371914016, 0.24145206616217066, -0.9999228492637735, 0.5999950091498355, -0.3078214084987802, 0.6618421463206032, 0.486185302840331, -0.3097879094473879, -0.5100034000145245, 0.6737134116301713, 0.1779778635361448, -0.7136964565959848, -0.2520751889785432, 1.180716920019308, 0.516587840661367, 0.38286709095832494, -0.5917177266268477, 0.2739131482072527, 0.9399701982320126, -0.6821118136822943, 0.9261554837713648, -0.6944771353010482, -0.11467043463989195, -0.5773782918140329, -0.11734346568667128, 0.5335638406893467, -0.4259715439184917, 0.15379666797368086, -0.8973608896719776, 0.6638365917937726, -0.045856300865111776, -0.7759631684059752, -0.7483203705934326, 0.06447681517179127, 0.7459202592672727, -0.6011579256398129, -0.95478657211711, -0.442153477293357, 0.8806137424876083, 0.9159865097155416, -0.7358943960774692, -0.09330643607940656, 0.8991252118756498, -0.4441229791946851, 0.34227640289451283, 0.3762715392832631, 0.07490688358809239, -0.11709518255037661, 0.6464267497490905, 0.5007672872609689, -0.7589306040213427, 0.4751329382070348, -0.591023082670574, 0.6394151935552224, -0.9233833502679389, -0.7288426683368681, -0.1570625877415901, 0.281351984679409, 0.8280436145795207, -0.20865737093923206, -0.6908365125736107, -0.8062990841695715, 0.12675764530959185, 0.7051127933421446, 0.16590680501117133, -0.8457184353556118, -1.128880569932625E-5, 0.028352084287603288, -0.6348137475141952, 0.297148362376995, -0.2658904128636942, 0.7648035242536673, 1.3519577162616725, 0.10875199228166194, 0.6608700810135792, -0.08569595505032784, -0.11715488469031601, -0.13697619517484994, 0.7319230079054881, 0.8099656737489471, -0.01611272592577661, 0.9880318117759457, 0.9566750891448912, 0.5259803321595578, 0.6387880906845027, -0.4927105327477093, 0.0238272454087599, 0.9362826459049497, 0.1493860515785388, 0.29834362397810676, 0.5310931612707139, -1.009632275013691, -0.045872148452785755, -0.4683315425947, -1.078353933993166, 0.5477335743359126, 0.045546713717613006, 0.6478390223148978, -0.376630011800411, -0.10407476349652989, 0.6262476930353306, 1.1329193162712243, 0.4246741408866158, 0.600948585466574, 0.42993434753706344, -1.0163561833471082, 0.2524226562102897, -0.2432026073689547, 0.3544796660909615, -0.16287832041956604, -0.14229688848549296, 0.39846207992395644, 0.5388223067766171, 0.918198292103554, -0.39827525587554197, 0.15155816475394715, -0.008280260498612682, -1.031233839002919, -0.43053533133199645, 0.7884896729937684, 0.7971819721145259, 0.6935858233743337, 0.2725077667405803, 0.5653126345705072, -0.6309526270906755, 0.4682447051047515, 0.16225380186582306, -0.6410090870257312, 0.9427332212201044, 0.7220802226474563, -0.48527165378425213, 0.7983594357272197, 0.16833237216367092, 0.5048531655522361, -0.29376906730294733, -0.48169853841917165, -0.33447334506301474, 0.23041326825937825, -0.3744419605071261, -0.45293755063924834, 0.19142438319228017, -0.19986726216319875, -0.7439395027805156, 0.7916240190799504, -0.5739863908615492, 0.15389132942100114, 0.5939623333516719, 0.9653336162059291, 0.3568965520570325, -0.5175425845143685, -0.41375787522649415, -0.3582802959571978, 0.2764283029658338, -0.12712209465875515, 0.3887455327521855, 0.35633823753493726, -0.813419053739667, 0.24548781650926702, -0.6561810982492298, 0.04133535596787494, -0.17862709990498493, 0.526125402433196, 0.19208037945594533, 0.24053265042145533, -0.10596924826801359, -0.8504980173169725, 0.5761996118785717, -0.37437335101204594, 0.5990237367871172, 0.468344357008962, 1.039181386582656, 0.849809719646846, -0.2868452170408712, -0.8869031016397227, 0.8051201912103498, -0.6201180055873663, 1.2071601469511508, -0.6649984131677918, -0.39475803524724756, -0.3155403002722092, -1.1005416813324207, 0.4882817298306549, -0.3829847149886524, -0.7550902010329658, -0.5262960869198994, 0.2661959107851986, -0.723106198219038, -0.43367967893452, 0.25350170260383853, 0.559596403446036, -0.46519170693033574, -1.0015038169322306, -0.5569875564057466, 0.9523005435891068, 0.281140270069977, -0.1292657824201533, -0.4715087651502661, 0.08748733172410406, 0.30584033759919577, -0.3471935766745869, -0.9204494829086344, -0.9712547618607051, -0.8681916266217847, -0.07853552490335453, -0.3491574265998084, -0.3544825869825587, -0.8662941447311424, -0.9949047157509585, 0.0385067344409052, 0.06870523563717108, -0.6201361894892183, 0.6584548455286318, 0.9679322897435099, -0.34726544825467437, -0.2906975607857477, 0.7832737395517811, -0.21323073667093553, -0.3827254119902565, 0.679446869973266, 0.72672749981381, -0.0670977757287028, -0.621134707374142, 0.082083695275883, 0.7289900259755071, -0.6336002858815026, -0.9205715995325782, -0.20617452796305102, 0.8451598685529034, -0.8434652538863556, 0.4710434892357044, -0.70403096610105, 0.4961482727299946, 0.542525880957886, 0.8249637803544103, 0.5505657628443701, 0.09037599946064062, -0.5573687263662795, -0.5069237337543548, 0.7600612640594023, -0.3516694060079476, 1.130008061929117, -0.11592663481455429, -0.79866253433579, -1.0085479826424917, 0.8605170348519028, 0.6659171747821319, -0.7427155318766753, -0.3088505198780305, -0.9190160490838075, -0.4820460334185577, 0.12338294460114319, 0.3193618097570614, 0.37392170271841985, -0.452268673975015, 0.4435908009513031, -0.7975048400252698, 0.8176467977741164, -0.2086125212834926, -0.4536501148780455, 0.9670555767914821, 0.6940944761093999, 0.5141377964817042, 0.7661812735777237, 0.4878286568413907, 0.97456693493606, 0.7484980968946675, 0.08222593183841538, 0.2385557122200367, 0.7061408940464836, 0.07897373654854681, -0.11451786080551875, 0.16683018017761478, -0.7021562761824188, 0.4446900018043664, -0.6835392483519938, -0.40221054606888745, -0.7100920782789352, -0.5174883647905066, 0.8756270852096326, 0.23856040678701174, -0.8503469744477199, 0.8223381037672304, 0.4483737845661556, 0.11403466615880138, 0.7322082790312457, -0.46705303061091796, 1.1376206835915632, 0.5972756891718707, -0.7702198772167015, -0.7272473451038018, -0.5150817986564928, 0.4442170684037007, 0.2788448300871616, 0.120142782087456, -1.2987881897771603, 0.01759705864690619, 0.3873582390802773, 0.9914257590905223, -0.1479045986694558, 0.4196604206769839, 0.4618323112931888, -1.0247560415167865, 0.43392788396297827, 0.17420617048307618, -0.45843918714022386, -0.9900493691326355, 0.9999685495579169, 0.11784817451521024, -0.35033356566921503, 0.02986820414684077, -0.36180086922808735, -0.8494329241409717, 0.8806939179350355, -0.4018185120929586, -0.6149691275323405, 1.0732427632905845, -0.2047879869343981, 0.9228246020133382, -0.03188008119080637, 0.12262972185845145, 0.04772723132957915, -0.868671238684709, -0.7280826875287383, 0.2718559718348352, 0.3732564806726003, 0.6029543626742583, 0.575655578925698, -0.3502530982676613, 0.8258725490689535, -0.367554931111342, 0.21598317214355908, -0.48339360065434556, -0.7126334730324244, 0.881165139668523, -0.01935205139284757, -0.5724466801635393, -0.6573851368540806, -0.42993583775456035, 0.8091761025876965, 0.9402075607212821, -0.40594541051943517, 0.3202526167539507, 0.3534587110104535, 0.4144286076887618, -0.7537661008820312, 0.07933318867331042, 1.003847985336261, -0.7480099555747413, 0.7416111342374581, 0.6155280137330869, 0.07656967775127005, -0.668324825598535, -0.23627285629235573, -0.5294669359376899, -0.17531034841191231, 0.8137420388474256, -0.5622988930844303, -0.5497030442994173, 0.16085538877405295, -0.32029711710729125, -0.5322748763472269, 0.9287641101878132, -0.7880642280743717, 0.3009568306116146, -0.006279736650668388, 0.5699162909721904, -0.16723643937025834, 0.6626844733466903, 0.6182578914999095, -0.6009042256384629, -0.2127378235330751, -0.23166951693016236, -0.29806276613822946, 0.6749657115739289, 0.12354071343019934, -0.6254314822920773, -0.522373752382408, 0.8498122517976829, -0.8763747568217366, 0.3966696844562614, -0.9129141201862389, 0.37747382357936565, -0.07665274684446303, -0.7310491502869985, -0.4620505478780103, 0.23676645642810887, 0.5019192394298815, -0.6717648650516568, 0.18717375415864734, -0.5400205456768088, -0.8270260985172984]
[0.6121105516414274, -0.8250016137269833, -0.2417274910772551, -0.39205607954536137, -0.20207111266557454, 0.0564073064804087, 0.20308674997046627, -0.8655461087546472, 0.4515879710346642, -0.01593482553349368, 0.011629732684035998, 0.2374044672337816, -0.6619231443714384, 0.8412411030338345, 0.45853658455503754, -0.9638015563907472, -0.896024869412855, -0.02274330467572061, -0.28099659057669, 0.10990701979588069, 0.22123794928277296, 0.2695422454299361, -0.8760064072864542, 0.4973424351524536, 0.05487650743748862, -0.6324127845111602, -0.8362399197275974, 0.9587667752578122, 0.1925351391480683, 0.8900869783826706, 0.7575666397932812, -0.34176560418390234, 0.76185509459139, 0.07510089813766085, -0.19836768210515898, 0.310329865572877, 0.3619076575916005, 0.9239557339400427, 0.8142205415055279, -0.46582775970933193, 0.44248418249779065, -0.7748247191034341, 0.6205055440083601, 0.6547211412917523, -0.4576746910003739, 0.0794891245526008, -0.5943012461732822, -0.45185687042623845, -0.5861300728475625, -0.7257208689991943, 0.37999343925333795, 0.2195732533528414, 0.7612262744702925, 0.170391194617888, 0.0032120947695464253, -0.2421625002327581, 0.909637064022623, -0.3194409124470712, -0.4659508672940109, 0.11832150179322287, 0.41964691960712086, 0.9216499080117426, -0.011419198328868507, -0.31114446970836424, -0.8999676122139563, 0.038560900168725425, -0.1748553143452277, -0.9582064545658794, 0.5988108828125202, -0.2641645234175122, 0.4604848968891995, 0.2698572253131597, -0.924837484360156, 0.3468541318978486, 0.04508954343209954, -0.8237660826689601, -0.013588025763195784, -0.9940044742355346, -0.6874953559677925, 0.12796037273158561, 0.12959572023290644, -0.22637485254001222, 0.2136848028688063, -0.12317046145152011, -0.6449253655524987, 0.24661994551862243, -0.3204449402043392, 0.7708445486158659, -0.7602119850723886, -0.4691179025305047, -0.20302947954991707, -0.7068829046697253, -0.48656783814999666, 0.36468768767883253, -0.6693201130940514, 0.30186375539058746, -0.14293665989208965, -0.5015481091970374, 0.08567123304462079, -0.46358729787506414, 0.6121884030847304, -0.3959110124034174, 0.8909182510085236, 0.03315117018956837, 0.3335154972281768, -0.715836668216719, -0.7457747471000823, -0.43959843123500875, -0.8730015474477905, 0.6349466872888803, 0.33344397932280523, -0.39039966702070616, -0.8958061548251655, -0.0313995781844032, 0.3169847678951905, 0.27561318687664943, -0.7682903150018965, 0.9878513785109468, 0.26363370168963873, 0.6457956024554842, 0.14704469987037583, -0.4491993687432163, -0.847960216930072, -0.8020639545458811, -0.29150678728644935, -0.29349244300939475, -0.755644259089281, 0.5815450232870999, -0.6970262345195478, -0.8815869477896352, 0.9031338034384458, -0.06960427426442628, 0.9123204904467452, 0.5869301670527921, 0.7582257558514355, 0.8372673538638878, -0.42879528868118566, -0.3994287942161252, 0.18807936868086197, -0.3668813429075495, -0.09195471329916294, 0.7566767494222746, -0.27168722475919416, -0.0572880605326067, 0.626507961124508, -0.885789288792992, 0.0417464520276097, 0.34127159813202984, 0.6956460201252698, -0.1656108286976326, -0.536944225614555, -0.22840636912810403, 0.2723607588006956, 0.6957379509697015, -0.7450221307216476, 0.1523512928871146, -0.9909267649784474, -0.626168746320248, -0.20204159051785733, 0.742328687372046, 1.0979842998552984, 0.09945452011101055, 0.8436087111281667, -0.05639705404440854, -0.9655541090557117, 0.11711449338410036, 0.9320997792390137, 0.6847322568222082, -0.23261642856197962, -0.615238772452932, -0.7161804342102921, 0.23449509975173505, -0.2486684379370477, -0.3400325471598251, -1.005533644198842, -0.6514038313606254, 0.021664661004855906, 0.48795340800560444, 0.30093669037355575, 0.6498108563019952, -0.8839237795604116, -0.2480396023553586, 0.6613465696221738, 1.1068897196115917, 0.29849183692617864, -0.20786406475816782, 0.41210998647139924, -0.8621870426446636, -1.0111734480043357, -0.7133888301103263, -0.5438171524007973, -0.39446361352404324, 0.9362085721696148, 0.5121486848753379, -0.38305493239509325, -0.9646991109081231, 0.6140370711880845, -0.1168476860232576, -0.9421770884351838, -0.9857669857285998, 0.7504619968804416, -0.04353615990496304, -0.6585601707368202, 0.9538994858800695, -0.2652208687333688, -0.2413011570414758, 1.000598979037692, 1.3059901682861983, 1.0508042668525248, 0.7413573368927368, 0.9535696716510572, 0.023149573378189837, 0.794048908840304, 0.58785705245848, -0.906123707470762, 0.3986476021838924, -1.011529693962765, -0.6091419563527506, -0.08769128357020672, 0.9088309112217817, -0.8986361419850033, 0.265015997637794, 0.2811359617815877, -0.279972264270309, -0.7144156067104988, -0.34922354762835406, -0.07787199606996335, -0.9487638059871839, -0.6375704199200732, -0.9178193411512943, -0.07737325030131312, 0.35643731738054163, 0.7547169675063361, 0.9632494289235093, 1.1478212508986638, -0.2912987796044844, -0.013784449656554664, 0.8076180350689468, 0.03871298924685472, 0.9597056459351708, 0.11961462554295693, 0.3800716507571973, -0.5323430807515261, 0.014280182132189208, -0.8690509147660771, -0.7370211487010649, -0.8982288044063554, -0.031074064421004015, -0.8164050522293405, -0.029902719091642507, -0.45169098233905297, -0.3712946846141831, 0.6273741475667539, 0.7834769688729859, 0.8928679650293462, -0.4879025812706286, -0.1981941413035345, 0.7563598309679118, -0.3751534589873742, 0.1370261903870406, 0.4031225324128132, 0.4803742937861787, 0.8588770800417097, -0.5167859725938101, 0.9919514084414512, 0.21384883112785139, -0.05702220668993198, 0.04216522850464614, -1.0948256207020413, -0.01740793710185546, -0.40269399290734426, -0.8217240763812323, -0.7294444241583325, 0.3337316045078522, -0.8734149506510089, 0.37740808629816763, 0.17929493992218185, -0.09029209701944606, 0.8964894231007658, -0.680199863045316, 0.9250488521068647, -0.4571254048344258, -0.2817071499390972, -0.24412675011418117, 1.0377074299028914, 0.9357500447311454, 1.0873499495709325, 0.8090095156056715, 0.07939766730596465, -0.40207089061344503, 0.8470433250171795, 0.8778369257859745, 0.12638738332909896, 1.0708309854542257, 0.24792764450962942, -0.6653662670288255, -0.08162827317766377, 0.09463386529666934, 0.09593383403690103, 6.80614246470819E-4, 0.7396365556093057, -0.6387772239772355, 0.6060438385064318, -0.0010193175443830482, 0.30353472330780296, 0.21936199384934874, -0.8415150212551065, 0.1711875589369521, -0.6866160985426322, 0.05912519425135609, 0.6293874126618672, 0.887189426687724, 0.47526558906095473, 0.9935596422631892, -0.03979680032846985, 0.4258752134672369, 0.17047912684802716, -0.688141822631218, -0.11626890528439487, -0.2547338252547611, -0.39511198086932725, -0.07104775617317557, -0.7089799981635071, -0.2552264708956036, 0.049112243607936104, -0.6472267902248713, 0.7203496597149177, 0.591713103811036, -0.5828446543618896, 0.3986188555345177, -0.2432730841435975, -0.8276898296789194, -0.2997287649116954, 0.6895022868909682, 0.8272320580195057, -0.8350769583925671, 0.6340656745159627, -0.7291619135312237, -0.032303832836493435, 0.2999272806486678, -0.3998306107642178, -0.4519272440415333, -0.5784835356956541, -1.1458521866242215, -0.9854300759460658, -0.03782218837168536, -1.0812530602535524, -0.4684627896388861, -0.26426420603682205, -0.8518223308533049, 0.7073625798131753, -0.32221431602401895, 1.0444512196258562, 1.069346409565234, -0.1893035060149146, -0.6663463025543527, -0.9748312470796883, -0.01668062049008166, 0.20865511787279284, 0.6733878722040936, 0.6919116216242068, -0.20141197791021886, 0.8940642025567312, -0.8412819488119391, -0.9758204087157893, 0.5919797414739737, -0.18363085856113115, 0.37846251347230914, -0.88798964403657, -0.5544447994230325, -0.8060531989872036, 0.4971256215190633, -1.5837983973139769, -0.5364737244647345, -0.3293570738899942, -0.19510370294595789, -0.6962530401618607, -0.5174173940654468, -0.658281672488923, 0.5719710138783556, 0.7884153153619681, -0.06752571298199038, 0.897388575234135, -0.8681035618638664, 0.8416117567358036, -0.9946154733553328, 0.440527153610951, -0.2352817382754097, -0.31870312880670043, 0.5921076919018183, 0.9377978836976122, -0.4826463680629829, -0.35397825376042324, 0.028832769075197252, 0.9886930717799958, 0.6035183569129814, 0.8365187409491134, 0.7582865567638006, -0.4775639614043444, 0.10038540680031294, -0.15029189682731509, -0.08983754400490132, -1.4509888070853285, -1.5778171684642903, -0.6031597043725534, 0.20456939890194334, 0.6342484718981218, 0.049152693938159873, -0.6236431961741148, 0.5079899660097156, -0.20759728324447174, 0.3067043683302689, -0.47279282248588017, -0.07535617773486335, 0.19555884932073553, -0.7796324085920237, -0.7954565523825072, -0.20483307850832036, 0.8963230885697551, 0.5098400140364647, 0.23648019762516181, 0.39112677669158147, 0.8159463012817766, 0.6378299173868582, -0.7080584909900636, 0.7528854427794565, 1.138509389211603, -0.6873548440446003, 0.4092149764384294, -0.411850260744257, -1.0154135010518939, 0.5142969607099603, -0.7301193843131478, -0.03761358755050002, 0.10675933191933276, -0.09046275603629639, -0.697396536852564, -0.7203945535021227, 0.9910351870952134, 0.47165635992283933, 0.8706879306930716, -0.9451623383871174, -0.9549426351220782, -0.9319192144598217, -0.7478519057023421, -0.5267271140036421, 0.36746440972810995, -0.23133570587909702, 0.6164021849531192, 0.8960749671210109, 0.7120786816718895, -0.6806101046455896, -0.03892797392651525, -0.6010669276347181, -0.44353820650395026, -1.1288331478023108, 0.6395883972002447, -1.0360579898309148, 0.4595672563211587, -0.46550569830769845, 1.0109659336864172, 0.18566397070903662, 0.3230149227321187, -0.4753628230716684, -0.8087792488070535, 0.46391111710646615, -0.46089109947609797, 0.61521946453492, -0.2067755430229287, -0.3610302334945133, -0.9167293048612845, -1.0488021498380473, -0.8007684288565211, 0.9261259193052223, -0.2713907387975986, 0.716934600590398, 0.9511458267030792, 0.6637476488616372, 0.6618656557530215, -0.05324367995385203, -0.1681177656658608, -0.356073762197254, -0.6219309992375337, 0.25244097291463585, -0.7134212619212367, -0.7417499181633251, -0.31316775399872687, -0.640890572654577, 0.29900991321599074, 0.2874501622767206, -0.1399584770619952, 0.23312026369915473, 0.43591069660611875, -1.3545932628104307, 0.029100586671505894, 0.7531827457474317, 0.5183085950994664, -0.5796728451169111, 0.2809622172341472, 0.07569372366017074, 0.9237026442756786, 0.6869441721757719, -0.13946076545764394, -0.7779762626234968, 0.3914054205108066, -0.36436622586427037, -0.03141492677267913, 0.4729021023997124, 0.09394354038503104, 0.8745226157388792, 0.9432192206700116, -0.6691446891938457, -0.6756531469151855, -0.6590701350842795, -0.5630657840537976, 0.5354933548483989, -0.8238794685020504, 0.29971009267311893, -0.7637266144916216, -0.750273889744378, 0.1407060492092886, -0.4503804551889409, -0.4375549185827116, 0.37023538884800755, 0.7767175154183669, 0.07748329943041804, -1.0274410008790171, 0.7881782194182567, 0.16577182392396247, 0.20830542142997682, -0.7729326620449068, -0.27140211113795376, 0.7487908198358633, -0.8797068115242508, 0.4438772076142378, -0.3765159868580621, -0.5980397497444966, 0.17275086719790447, 0.7333671875677964, -0.9483070845596661, -0.4510786610181975, -0.42984744273282366, 0.6234235264135645, -0.7758528241688393, 0.3308131528274801, 0.3168935964658174, 0.7942074895664124, 0.30647780115965256, 0.07892009388949527, -0.8473504734214294, 1.0407214555990185, 0.24644690215976683, 0.20842707073259092, 0.7219995199069313, 0.2085610300009283, 0.43313250557975697, 0.9094838111164076, -0.7250914816244332, -0.4908736522848291, -0.1759913791020502, -0.9264689198178861, 0.49872547336503925, -0.1109356094654878, 0.07483372582431894, -0.8428082080847469, 0.7137941182937324, 1.0120996865719107, -1.0341502197379058, -0.08154444087827328, -0.7691934460067558, -0.04859017430073469, 0.2783836313076765, 0.5122959126374655, -0.6309098961760998, 1.1383989792780187, -0.4488177190020335, -0.07026047519511787, 0.5037110076326362, 0.369726301461351, -0.09566731215989084, 0.7411408179166348, -0.6963384348180389, 0.3091189022438246, 0.13071073681372222, -0.7510647905262483, 0.27140868274169677, 0.9418612182651357, 0.576707057155273, 0.4020636644560689, 0.6748279881303418, -0.19080302058465154, -0.843858393372607, -0.7243449331475547, 0.026675663050524517, 0.07641683824161609, 0.26755362692796086, -0.48928049479441804, 1.029694463072538, -0.6464626365854227, -0.9314885985790359, 0.32650553970283147, 0.5423607182249311, 0.1829251133955696, 0.008009719778453505, 0.18912614810792427, 0.6617028185038302, 0.6029718197948124, -0.33865167661371376, 0.3859540313976981, 0.21404751792155557, -0.43872463225203345, 0.842614472201471, 0.6204449012130989, 0.1667983627973135, 0.2868993414497271, -0.9431352970313645, -0.4698386681424209, 0.5832674189594897, 0.9593588452612059, -0.15319889385874558, -0.371977126045483, 0.28591951934731796, -0.9740220680291287, 0.5989702758898827, -0.5915576144630414, -0.5437358258734981, 0.18350428113315606, -0.7662842319287636, -0.10363060633052458, -0.7018007828857097, 0.669430936290734, 0.6979134375484695, 0.32880526849538727, 0.21847963201905968, -0.37183686621571865, 0.6633037786351942, 1.156863781849988, -0.18837972928590896, -0.4549451220744179, 0.3640041363073571, 0.8608288973467532, -0.5736550516169971, -0.02063395426403236, -0.7896737560840799, 0.4426388713634535, 0.4829744111472023, 0.5923398693042842, 0.5480504924440048, -0.20532048649337672, 0.7030688098906376, -0.33158802629674866, 0.11039127049615674, 0.5754542052737535, 0.34874686088277845, -0.31731298810469505, -0.7158574432975874, 0.5588475963051259, -0.19852318628440868, -0.4065429044594722, -0.5244627965946818, -0.45791532512553484, 0.7013720695649058, -0.20920101706974037, -0.27196834436324896, -0.7487975106514978, -0.16425089507358726, 0.8108938004253606, -0.7848555883838291, -0.9715830321902205, 0.29720388733113784, -0.9945130132404223, -0.29612155021200626, -0.006427281485065883, 0.8679883525371139, 0.03598882078594756, -0.020707379519741206, 0.10536102315289958, 0.3392832367482385, -0.3024653474319178, 0.5299664036406191, 0.12809082472524372, 0.5075325354086491, -0.35765889195896977, -0.3600614678168478, -0.33560049556139404, 0.3764616681357743, 0.46924808579371213, 0.17681460173637936, 1.0948375747270835, -0.6460750169779443, -0.607537724995299, -0.250531798452325, 0.7518342537355744, 0.25649747084237745, -0.07314570730378307, 0.7701887210677075, -0.9246228076177773, -0.9913286887469667, 0.6774995128765784, 0.4943121473126928, 0.5813580340406588, 0.6183929927601417, -0.9515844361715073, -0.3751186879902598, 0.9989031601484482, -0.4133884243986693, 0.9976680956260009, 0.8061303188992659, 0.18909928005605992, -0.7399545543449998, 0.41829858032204853, -1.0668179367802881, -0.34156624092815435, -0.0036427520597634745, 0.6500416076642526, -0.2757468980783736, 1.1649099100608513, 0.9141595564819905, 1.170900224171658, 1.1349027326484593, -0.847388263940463, 0.20374665071632922, -0.9459148227822631, 0.3569263437200948, -0.2541334016205468, -0.3461125325760219, 0.41226946178035084, -0.30380032843237137, 0.900816001524273, 0.49260086425559546, 0.8795390209647913, 0.08594689058969585, -0.023631105446460632, -0.19511141261373552, -0.1932799068653065, 0.31492425671389934, 0.42660261622873674, -0.970988584713027, -0.6203104275702769, -0.8572151407835193, -0.15280117010208033, -0.5288119539799171, 0.5542650594704754, 1.0270048418480533, 0.9754127742518522, 0.028234772599276762, 0.038142537476272324, -0.6234212599621508, -0.10994110548542188, -0.3405060264882137, -0.047513401181254966, -0.2661311459013711, -0.7141367905366041, -0.8989147911978119, -0.25445587247662305, 0.8330437926239083, 0.3799581575801574, 0.22825966535384956, 0.3115225570269291, 0.0583163295850917, 0.3217684960089737, 0.14311150630505898, -0.1756406365423009, 0.15898270517224658, 0.48758306984733346, -0.607853236311328, -0.3916224288690037, -0.13318640930183948, -0.19838154672909036, 0.5381894343652179, 0.3167645019129213, 0.20934949825492483, -0.02583967508490191, 0.33341144433063163, -0.5832088886566573, 0.5560128795790964, -0.25767646273313183, -0.2948779252506298, -0.49695522498088956, -0.3967754752723027, 0.2652238740341444, -0.6417879353069893, -0.88238490244984, -0.24628062608647583]
[-0.3780981045505749, -0.6274318157998942, 0.576620542537887, -0.7221718369871084, -0.5973646284060081, 0.366323967246478, 0.48512676860241477, -0.3929673497149304, 0.6868091699426038, 0.04426488726415778, -0.053239653075473514, -0.6076619690607032, -0.8574739791222652, -0.3029531360935971, 0.9060811237815625, 0.46188397260186953, 0.9346690397308381, -0.9378296190249378, -0.480353159997408, -0.4172052583795398, 0.9306265118455863, 0.4561434841410119, -0.754941246334033, 0.6432963545450638, 0.917852426203501, 0.4471814241670897, -0.5392057898083491, 0.3808946801638453, 0.07282407072130948, -0.4961929618763794, -0.13872902862871617, -0.8953273265429125, 0.7588525363521363, -0.9667685978204861, 0.6157310512178467, -0.0054675792487712815, -0.11941192198048012, -0.9836986813136623, -0.6611984475658684, 0.5064172927647271, -0.5110067509603019, 0.03394836828870095, 0.263350912957515, -0.8497753042051908, 0.08787444074820461, 0.9334323805436947, 0.7924422104828379, 0.6940712289215876, 0.21621060971831718, -0.36134850158462983, -0.601099674822223, -0.562342297065956, 0.2850330047128433, -0.6944378034633745, -0.6992002605071983, -0.9696149229252176, -0.7752702202094339, 0.7344036216716134, 0.09881724470806241, 0.24188265008885446, -0.2106058264174293, -0.541728869089241, 0.041590192692268824, 0.5946840334969531, -0.5577111306750109, 0.32719292148067797, 0.2711833333467566, -0.5015921320423106, -0.48764955849424435, 0.4842880280266733, -0.038062421988066614, -0.4340673538863396, -0.6464402227100532, -0.031450229962200704, -0.42725969246021445, 0.3396793815379711, 0.4027388235272146, 0.8994328886141053, 0.021504191352143726, 0.6498148501611728, -0.7789535547557486, 0.3280692597614545, -0.04670909215511809, 0.3001577032161684, 0.9372029042375314, 0.30186629412903043, -0.06516817974993172, 0.4477994243615091, -0.40093883566687527, 0.386941382704343, 0.5915493984233378, 0.5332223130313086, -0.737822803580156, 0.9051317847901683, 0.16975956851358773, 0.06520337313233907, 0.45852071567165675, 0.090631360815007, -0.4455886805776623, -0.6843126985421922, -0.6874157547266455, -0.12892686142703194, 0.26339765759114964, -0.3593247630295993, -0.2665863973215162, 0.6490325542426457, 0.15294907390000556, 0.33595390245183687, 0.5538567809754454, 0.9518559072259389, 0.45342847100780137, -0.5250299730237298, -0.07480250615734652, -0.34256027428648905, 0.11815429421281753, 0.7778482224293625, 0.962225962360933, -0.5437490589773892, -0.38922718761624264, 0.8312668610653688, 0.11393783844228053, 0.5957625360055487, 0.07990330642952691, 0.04494951742017347, -0.41700689676334735, -0.7024530913205842, -0.07198694632782564, 0.7454115393396553, 0.5365685527135629, -0.21204124849964806, 0.10528674567236831, 0.5910599697228908, -0.945762330148861, -0.35448210312560907, -0.5593561001686466, 0.30573185502628103, 0.9930816285903102, -0.8340762489909841, 0.10047445024121127, -0.9726068462034367, -0.8896819100776447, 0.7533474672581069, -0.8726024045022753, -0.6534321153165192, 0.3632863430622211, 0.5782067310646893, -0.37005634930282266, 0.023947754062755212, 0.13104321242816486, 0.6793795005843233, 0.3432701903366954, -0.6120188361568616, 0.3111398993391541, -0.4411285587176775, 0.10322033284861426, 0.5842541661867853, -0.532279133253687, 0.9106563445732941, -0.36575877182800565, -0.6574976751410259, 0.777566530657719, 0.0882532582784606, -0.48676242019104277, 0.8056583911512919, 0.9393837551282832, -0.9940526383415259, -0.06951737401163428, 0.11818470660561436, 0.37092859976014636, 0.20800430726963048, -0.41335649287432324, 0.7437510506225932, 0.21874163452540515, -0.601468587821076, 0.8282168444373392, 0.13506566803693948, 0.7123911650766424, 0.6281226741075848, -1.039337350445761, -0.20462015690058827, 0.2636602931799009, 0.6369042306189452, -0.203567363590699, 0.5271104961795211, 1.048076854556275, -0.24379209783577585, 0.7271623013972157, -0.6201426638328366, -0.7349702059805509, 0.6614142207089587, 0.5242637327544598, -0.5667828333117811, 0.2019255876169232, 0.912880359062684, -0.9514356529434095, 0.007381325927979452, -0.7481808342157531, -0.3053098985608821, -0.043413290542188204, -0.9467875029634679, -0.16384986363287868, -0.862506385966196, 0.6522643867507457, -0.7833733745567769, -0.8905272894633188, 0.5842162406644891, 0.6033247389751688, -0.22933279243403662, 0.193679538146581, -0.2514259637755176, -0.9725638251645395, -0.20135806975715895, -0.7148453118894569, -0.2103439400166976, -0.9165742277534784, -0.5287701910583643, 0.5274621425331194, 0.7039992504513896, 0.5294561335107554, -0.2536934929039693, 0.8352679933254704, 0.3859203839315944, -0.4027132752583918, 0.9927194806755358, 0.4070530489123849, 0.25224721108763526, -0.8956073845621755, 0.8964230536510324, -0.10472230883491564, -0.5198608860655, 0.9456537741761329, -0.6790440945260373, -1.2082374098476683, -0.08016247620125849, 0.32049667649656205, 0.39685105026828393, -0.2638694661555473, -0.2448549852345305, 0.05217304981279768, -0.4347476735939183, 0.18297825606861476, 0.45128784097205255, -0.044994631499697214, 0.9757170856453553, 0.27322450119760283, 0.7463369607168437, -0.46684709089107634, -0.8705541848224891, -0.2961768202339623, 0.7060911193934859, 0.945885061194532, -0.13637577171661, 0.9500103928433926, -0.7428520171684818, -0.3339115606595376, 0.2490761712878013, 0.345109657371762, -0.6273769248915174, -0.5612611020545784, -0.4998386172581616, -1.1041163376279983, -0.275845484755331, -0.04905325524964111, -0.8028318829348108, -0.5150685184226408, -0.5783056553466928, -1.15476691009061, -0.9834315266451602, -0.23669382946515094, 1.1086030313623931, 0.6483543478983882, -0.1399676110931109, 0.8838042955630251, 0.029315319777913414, 0.017101905521676068, -0.8961303919162426, 0.4648399242642454, -0.762647641164396, 0.27328197664149184, 0.922418418945352, -0.5275021291559945, -0.46948459839865914, -0.3957892553693172, 0.48428005877890645, 0.276208397010257, 0.7354652169132223, 0.009191337201328325, 0.2850714809261644, -1.2007326504114548, -0.5735656415143929, 0.3570820840257835, 0.7973326892989365, -0.5248851493321456, 0.0621208259167514, -0.57478911295966, -0.15221265777210816, 0.7821703054669041, 0.06318015303551121, 1.0372605449854613, -0.1553703063982257, -0.2702527448471993, -0.37796912706296293, 0.013068638757466371, -0.8735970481429034, -0.71476177691669, 0.21642523169995317, -0.3819639799257295, 0.45668352758941466, -0.7297171368096178, 0.45459419312625854, 0.04529610258657489, -0.20081468096848812, -0.586089024156315, 0.3476516921861002, -0.28130327550187567, -1.1785790063760848, -0.8558028052704786, -0.8077733141071761, -1.0678509002937242, -0.0693199160599229, 0.5001024172293831, -1.0816096282380196, -0.6867665925266534, 0.8746748656330439, 1.001666790638908, -0.42720587532763826, 0.7296095531945745, 0.6576576861758222, 0.2584698106932598, 0.2570195462174758, 0.27775496400008287, -0.08642966720456605, 0.28009143518335333, -0.6486876446164135, 0.2981506916358321, -0.15941305348291115, -0.7248341901161142, -0.906219477264878, -0.638343713952928, -0.6534738675473776, -0.13803510664426852, -1.0699810581620237, -1.0101811553599307, -0.9763174859680654, 0.5069459757762826, 0.5847203923173473, -0.18001999224435017, -0.6334162872284995, -0.4952337707692288, -0.8131227850571114, 0.3284793663378309, -0.09183048421706194, 0.7218706442317341, -0.9595923097013896, -0.45307085158338506, 0.8656981562730827, 0.7959235261286873, -0.4970023794073541, 0.7472635630391166, 0.04495822687187536, -0.07304248427709725, 0.6944263691721659, -0.5324687161497288, 0.7821168462517183, -0.6557963466992998, -0.9016669826356185, 0.5086834740786059, -0.492541505023273, -0.6531474455555367, -0.023824761082967806, -1.1238924267903385, -0.6817030705406826, -0.8209246338101753, 0.25406483289569615, -0.12478024998864357, 1.114980289867405, 0.13527753203858783, 0.6277224669159495, 0.1592808067589269, -0.44655025019867256, -0.6345180956701347, 0.7301643836822246, 0.8956770890170651, -0.16790848094180819, 0.9518928009005886, 0.9342103020965885, 0.8046865110985737, 0.854823318446933, -0.06961588823584727, 0.24008345419150917, -0.4545019157353099, 0.8732077738959945, -0.10546090691640608, 0.6472581078529941, 0.8660092417304298, 0.027009772284133305, -0.8027078813023737, 0.6173704289624553, -0.7548202379798165, -0.031201490519674007, -0.12145167018846535, 0.8368799209255023, -0.20220978112476087, -0.6319166003090678, -0.6327515316327532, -0.37930085361230387, -0.7860352543700605, -0.8346886603309763, -0.6081188478599361, -0.13553930335705125, -0.363041897740965, -0.9698458960332689, 0.19537253289487344, -0.2333003010040065, 0.312969076730872, 0.08768560878138543, 0.974951511139083, -0.6611038481680903, -0.4602539956262325, -0.8005123412895068, -0.6023097710847654, -0.13545502212762048, -0.7225221484978505, -0.2530143123746766, -0.6142938866308609, -0.15187360280434894, 0.947042372160946, 0.5011907848146895, 0.9002777455661024, 0.31938759024058877, 0.9027541342320041, 0.3725823538973046, -0.6293487062709553, -0.5234035955394855, 0.4575868708904797, 0.8320237117149234, 0.6362886226084455, 0.7248674851725327, -0.16886565217221045, 0.5517716444674051, 0.15766856434546087, -0.13097143917803653, 0.14344631908639235, -0.7742089215929115, -0.9193703223434235, -0.2740799353119374, 0.13354029381919427, -0.03572904522643161, 0.9600462778193448, 0.956005443172609, -0.40576523624097294, 0.5637347016367507, 0.4892018808393362, 1.024198242587742, 0.6555955348111124, 0.1803755288928611, 0.32117650035586526, 0.29858530165044456, 0.7701273072312587, -0.8316011725171137, -0.5587316028494689, 0.10796725402943666, 0.25376083631769936, 0.46684141689863196, 0.8880788736729999, 0.3294859866609642, -1.1482188831100661, 0.47456421878321137, -0.2951853641992612, 0.968416572152771, 0.08933438169684972, 0.1935617429461085, -0.9116321755523475, 0.3622799273496576, -0.025964569680990174, 0.9368117770114321, -0.8832933211346334, 0.914166107021936, -0.1485147962552056, 0.34800496402662495, 1.0559188279820584, -0.06324872001407267, -0.09242096678501084, 0.5113591124404931, -0.7090714493644974, -0.6150226924434211, -0.3837633958659934, -0.02274593764464651, -1.009459197255304, 0.4674308964951309, -0.48786661279361987, 0.7165771352216307, -0.7540030186254425, -0.7169264790040321, -0.3593802641488783, -0.7191574337429835, 0.8484991635148994, 0.42664246618008966, 0.01774227484694589, -0.0621554272320794, -0.16843801008513873, 0.44498952511987966, 0.964397472501781, -0.8583878084926271, 0.05368902840107048, 0.8323204599952441, -0.8410205758040411, -0.5804889277822113, -0.23126278557317148, -0.5946739293233483, 0.9509304710627571, 0.055160182751341845, -0.5554681117911076, 0.36330776493774564, 1.1410921753024674, 0.25833151371183594, 0.9430932912529356, -0.46490312174576576, 0.776091356708213, 0.44954688216808053, 0.4431499817355311, -0.4971031552024965, 0.21060468611772823, 0.06899064812935624, -0.4349713681798714, 0.7122292843148617, 0.713439930280539, 0.3232636285666408, -0.14840447925850508, 0.5652790351109099, -0.0789410427603103, 0.32031179699731455, 0.7489242238794622, -0.2195587260936278, 0.5966918483782776, 0.6175814173293099, -0.9334742539590113, 1.0220775761657488, -0.4970450660518782, 0.2851010867599777, 1.0680180096591265, -0.33109446602290654, 1.0413304656980829, 0.9729099239306775, 0.12555382595128844, -0.20087314832263603, 0.6420728719899639, -0.9468862075487654, -1.0660594588344605, -0.4910847373405496, 0.27527837853466486, -1.1172479384691711, 0.6411973685005399, 0.9568370428653903, 0.6911911329669608, -0.33850234010600333, -0.319848097280813, 0.5978887480845774, -0.890859434091161, 0.1080061869998723, 0.9853469767613385, 0.8157771683074679, -0.10478282481092907, -0.9477008618132513, -0.6665937598210949, -0.6703714142905914, -0.7367042936149334, 0.988312011981188, 0.1545324830016413, 0.5201024162955674, -0.09713372031993246, 0.9262465044769442, -0.6665512589811725, -0.5250999937181293, -0.049117819072672424, -0.2637402566506042, 0.5035872056959603, -0.3252739419781612, -0.47113838745459147, 0.20966784734935248, 0.7357128958249891, -0.20330629430651226, -0.9964646540341922, -0.4572622233616301, -0.31810637932938174, 0.8664610404677799, 0.3513890393256449, -0.3336213593469548, 0.8397799419323382, -0.01588514408873065, -0.19266986170931588, 0.8007181173873947, 0.3547083667108105, 0.33112610478250887, -0.7119654505103445, 0.6612225953296528, 0.4548642748471585, 0.62138062030822, 0.10661648052879143, -0.16021584541351566, -0.13765595276607626, -0.750356735389819, -1.001269286372269, -1.537543588513767, -0.8312661869649344, -0.3511555529064644, 0.19162139065409445, 0.595775531212676, -0.31558007736929367, 0.22425066584682968, 0.4508313947969715, 0.16130816233203293, 0.3818918504058871, 0.14579931776377028, -0.9330391216479976, -0.27957097878728066, -0.9107991225663195, 0.14725365880221508, 0.4838977873201612, 0.8643531665483807, 0.4802394608801479, 0.5654373895834964, 0.3300447181541411, -0.2672008809718743, 0.6734560339911615, -0.1760708069802602, -0.3537392427238416, 0.8055916345539023, 0.28536824427005303, 0.16596442987853066, 0.5681622038289906, 0.08344753708713132, -0.4908543823604287, -0.1217236323678918, 0.3749605476970514, -0.5239762968671272, -0.4578605197344518, -0.20612128157071338, -0.37659702151632585, 0.6684680853918591, 0.46787797089621475, -0.04506848164927824, -0.7689933172617811, -0.5575843235246187, -0.9986266682215774, 0.13833946548647647, 0.6324990193522428, 0.6938279082493309, 0.76123139903925, 0.0052794745000775654, 0.6119040212592329, -0.29710596238699344, 0.05015418792148173, 0.6950628883921012, -0.4092373730657649, 0.770749843002617, 1.075780745157449, 0.8694928755844346, 0.031932802170652044, -0.9229502927376318, -0.533401250128424, -1.0905944872661812, -0.4873774340481006, -0.8921510498329404, -0.22247241161374676, 0.2976333920817089, -0.8687836557489087, 0.3922055767750426, 0.05708020431634346, 0.8620522478520775, -0.5463513034195095, 0.41971402294833937, -0.8102890738014696, 0.10022246659595058, 0.3024474868224851, -0.585772441915355, 0.8753163136734475, 0.2592523753777893, -0.2001855466002146, -1.0080400196015775, 0.7479329713091302, 0.7070854672123726, -0.06506688194920134, 0.5639281486893095, 0.17356495822968468, -0.8585580840153654, 0.05186285707122297, 0.7427418206511287, -0.34991059446579664, -0.9645060142347618, 0.555676475318459, 0.47382011052696216, 0.39394687608033896, -0.5356535566209433, -1.0185589847927023, -0.5077872398222678, -0.8963225106456726, -0.41239016314367616, 0.3355250262056042, 0.392480458591248, 0.6126365744931428, -0.09698256791877857, -0.175509406289603, -0.8436594277269096, -0.5272916256248982, -0.807448612294999, -0.18000601604246202, 0.3976531125467812, 0.47901222990792, -0.7093997358003568, 0.19352332651858667, -0.9660921276803708, 0.3276033124641063, 0.07937714864919244, 0.40010824746856016, 0.6607922769284937, 0.5642031983443245, 0.6600344727207853, 0.08434191844354202, -0.204741016673651, 0.8932295281854252, 0.8523988380931171, -0.3125256580831753, -0.769960934020245, -0.09285457055950111, 0.6088259003085701, 0.4226707431593435, 0.47679957425702435, 0.38558875835328443, -0.7344385546481627, -0.3796717173699715, -0.41640381541854943, -0.6120223485440466, 0.5297098690686641, -0.6256480939120833, -0.4180393224772518, 0.12916778848521238, 0.7065073783214073, -0.19300410077004718, 0.39062341638294107, -0.5459705304827668, -0.17974054888541008, 0.5358240495369023, -0.36154386607845185, -0.8270776480467757, -0.6432226281382104, 0.6027450153145423, -0.8560628161176039, 0.1836760199310591, 0.31001057972756374, 0.8716416696414141, -0.5676765078302427, 0.8299252188541366, 0.741893732940571, 0.44854212197641874, -0.6435924888739972, 0.8492169829020204, -0.3785204047298505, -0.6072888249099155, 0.4939861053004746, 0.4602535968066708, 0.4548699498417399, 0.16449399127534114, -0.5852781317500396, 0.540534040544772, 0.374504528960187, 0.3215661641002783, 0.7044975697231439, -0.22874212305364908, -0.1254256209827086, 0.8291782089450984, 0.10810649457947907, -0.5458418174682903, 0.40357461292609537, 0.013222972769766094, 0.13689392961560976, -0.5579483278463084, -0.6513943934351012, -0.9071544407374991, 0.25551427140708927, 0.3491764500864367, -0.763930804554956, -0.8896357231077217, 0.3733509758122755]
[0.300199832071917, 0.8740845624099136, 0.058150203183025884, -0.5575860676173261, 0.6251060099209913, -0.12541546290089345, 0.919116284496474, -0.26752471502100206, -0.8188241349369492, 0.14463427351817004, 0.35672897195995956, -0.2726405673204282, 0.3342167982378712, 0.9671580622737113, -0.30457664752292213, 0.9818844813542844, -0.41855402719718726, 0.8595105354390595, 0.8869814808255303, 0.3955911469424105, -0.08533673226660698, -0.6959340890879373, -0.5929494262229111, -0.6916495014355675, 0.489448507569779, 0.034237451302134625, 0.37116813867032583, 0.5827057487926237, -0.05849105586535752, 0.9753522752271993, -0.1586970099828109, 0.41007041913831577, 0.7791928236312815, 0.1683237726494149, 0.28806011388213393, 0.9626691937838223, -0.31842419467070715, 0.04507858299917859, -0.5193788825226376, -0.7878759848720862, -0.7553613616889867, 0.27871793758366775, -0.306627673739747, 0.2325050974715145, -0.2661728911025631, 0.09037214181088539, -0.9422338617999434, 0.16775296238844062, 0.8081658870883417, 0.4113310735871163, -0.883932267645223, 0.6122198755244328, 0.5993007479398644, 0.47783738390265795, 0.21055316643909383, 0.6587454823541332, -0.05316604714856332, 0.7427299341312852, -0.8056334665475142, -0.8894704490911527, -0.695209825098984, -0.334126786182414, 0.14037053478852068, -0.5897126027726592, 0.868341678083495, 0.8825983427375789, 0.2721489285375742, -0.23562367673872292, -0.8382216327306675, 0.5018756413849689, -0.29320453677859254, 0.4633246456356017, 0.4411061529227928, -0.6895699674005367, -0.7632666495655749, 0.47517863763278373, -0.44537130333393005, 0.6756860919502958, 0.8098895611052842, -0.39064672723836874, 0.6937477417408905, 0.09227115763455007, -0.1336510451705457, -0.950284034029959, 0.05927257858428381, 0.4935506971539272, -0.3636138166330358, 0.8730143320029868, -0.9034478068249997, -0.9366904021871243, 0.614152473194791, 0.554027664030427, 0.5615923552084747, -0.08329207146647295, 0.4950585295394875, 0.9446451326860877, -0.4043898084173121, 0.009228330986183697, -0.39698473573573795, -0.1532220326520277, 0.8255777481499608, 0.02894534697872082, -0.41420206686172995, -0.1804258413274426, 0.7226251776594096, 0.3282204805103326, 0.5668766213510182, 0.2965035954747, -0.03080272407016333, 0.13022733960908606, 0.9159939983658281, 0.9756365784638894, 0.8572818217023546, 0.9303424281139197, -0.7734690164146003, 0.04623909739109829, 0.930896029962861, 0.6591536595830381, -0.8103475928896711, -0.6579354644941025, 1.0125068120570637, 0.19821046192093913, 0.15332188398222613, -0.7885960233149258, 0.5110246427711571, -0.7374929143301625, 0.4270476856534512, -0.1216502467260117, -0.014075111149911107, -0.33146973208645614, 0.7863235517265428, -0.10300334210886275, -0.3384027376352619, 1.0715436846904982, -0.3466600481480375, 0.3694593184516024, 0.7198975622323132, -0.7167761745401992, -0.9593607495939166, 0.7483160692541602, 0.7212769122486742, 0.2513353953824553, 0.19202641619274075, -0.4422384025226122, 0.20847635553312324, 0.5964103551788426, 0.12947935489556872, -0.4074099250067988, -0.30696113287974885, -0.4460191076570305, -0.3058365163675961, -0.017329063256649447, 0.5917584984383708, -0.1814377635079272, -0.34629584009594183, 0.22148848113922515, -0.2361886288323126, 0.20426392037349111, 0.4256172760926719, 0.29999222099296813, 0.9433983226697658, 0.0865506613743998, 0.3339221636275405, -0.5321784047039894, 0.543937490832596, -0.6065306328637868, 0.004662211999573837, 0.4650368259695675, 0.6221540964817478, 0.6889885836207219, 0.22710000104603603, -0.31259926569321467, -0.37464268288285735, -0.45242952342422826, 0.0158961299559505, 0.017771128166416753, 0.42990021418108704, -0.8115970568886811, -0.18224540429274558, -0.8468297857191606, 0.25377093037275433, -0.7141741567349728, -0.553547124881558, -0.5987012749655588, -0.36889498002669313, -0.19005641490728017, -0.1832291802279755, -0.4047113687825889, -0.24239136985099782, -0.03325191407951375, 0.3232625505156224, -0.10234634003615249, 0.8097070635807538, 0.9841668938657623, -0.7548376656529412, -0.5770718708534222, 0.1285898945837788, 0.5959370935549401, 0.148021301072653, 0.06250470672001518, -0.3750581006268174, 0.48386773734086247, -0.23152914266927546, -0.40188164478098615, 0.045358836954904114, 0.18409767180526124, 0.494290017561453, 0.3903648406969641, -0.48646321437795, -1.1303894059843964, -0.30441234971030323, -0.7279397730660631, -0.5471500025111694, -0.16073655773851553, 0.03404114087493092, -0.8510233141693893, 0.7324029120595027, -0.7771281733139996, -0.33162660441458225, -0.4281238326246793, 0.6212099426030031, 0.5128140719442303, -0.6591847299520074, 0.2806738549889559, -0.5078672945161425, 0.7981843255347245, -0.9960410773070023, 0.9642451854316371, 0.746667595854911, 0.6603823349635473, 0.5401479527449086, -0.150074786928996, -0.4550548976154335, 0.779941794343044, 0.7090253552994069, 0.3571093392645587, -0.6548238235794319, -1.1101007481618819, -0.45402805130072166, 0.43859366326375876, -0.5557452518512043, 0.24957387266528006, 0.17107280392183746, -0.7982237713102398, 1.0967460455960965, 0.3690732600162797, 0.17008553960564407, 0.8281865435665079, 0.636278059493032, 0.5160139005569705, 0.6354469235460715, -0.5184214930873493, 0.3187807434297041, 0.23495725134620082, -0.779393590958942, -0.2372153367153916, -0.8599378619390127, -0.10692800203082004, 0.1347353886154341, 0.4769442768334675, 0.7487789179290786, -0.869275012499154, -0.09638033422830937, 0.647360121045405, -0.035911118928735615, -1.1326391092621346, -1.3315929789150835, -1.0738343934972503, 0.37818275168907234, 0.7840188145793568, -1.056706944228039, 0.19774099606042891, -0.8619873556258568, 0.5178609933334284, 0.31372738681072737, 1.0919663590264637, 0.48027111681069495, 0.8825946971033057, 0.3562636245954091, -0.7074023121749159, -0.8166653869950466, -0.1377540937618294, -0.8522821941246027, 0.6399995131417222, -0.28385491831794313, -0.4780521609797679, 0.4377951190502281, -0.12134183713546985, 1.0866456856072668, 0.10035943526484567, 0.0731155928830189, 0.7275036146511541, 0.8549145471554167, 0.5259397092609588, -0.9232332217661313, -0.9218569338612468, -0.18958793639242316, 0.05512151282651016, 0.6387928093804536, -0.44934591064596136, 0.38245290445694136, -0.2067484751403132, 0.7164653685741587, 0.952623659865277, -0.7477004576024305, 0.18068683275825154, -0.5413508239951578, 0.28473780936619314, 0.5424997240415441, -0.49319452201605296, 0.36982175640088205, -0.016573788007141283, 1.097557792768791, 1.0036788225667963, -0.9479788360173926, -0.2514478901384675, 0.819979673899926, -0.4631092889696941, -0.6931612390509607, -0.648977940314067, -0.5207849494181296, 0.2749933059326786, -0.5376231098056831, -0.4074921337261964, -0.5156253251788396, -0.028072673599245607, -0.6503132358668409, -0.6431167138825721, 0.1484355387205359, -0.2700130143504266, 0.01820707274532409, 1.0243766896298527, -0.12380395642380747, -0.13730688998595403, -0.35851107320560754, -0.9193388589393903, -0.44900558394383294, -0.34350944108776416, 0.13291440351393746, 0.4175524987791808, -0.8601037469923063, 0.3906977957373508, 0.1986952968174816, 0.10840630680239932, 0.39433516394587426, 0.6871245444874753, 0.5031813974119705, 0.8341228921559273, -0.2897858430734634, 1.2721648740911533, -0.5701995143764201, -0.9957134930193183, 0.34854962291087155, -0.9458108609421592, -0.48672297746285426, 0.13711686371600892, 0.34444203403452056, 0.6999205911869752, 0.4360179311175462, 1.1114157096634814, -0.6271126230280069, -0.20787133236767624, 0.09391437824110457, -0.47094081336836946, -0.24303492460764908, -0.7696367129714629, -0.38729209465666087, 0.9511809312480977, 0.06605280862613001, 0.3297474932884199, 1.1360730772135548, -0.5972890130518705, -0.30403239427920636, 0.9463974734464298, -0.38325282875363453, 0.30369352683294065, 0.5511347246957244, 0.2430325946520596, 0.6972799364122871, 0.027814239470049056, 0.26997339839165385, -0.8405335456910408, 0.1411409243558739, -1.0129360175950355, -0.9890421824916342, 0.8746553814805006, 0.324439919036267, 0.6540637074546141, -0.19382937108804263, 0.6531503393041577, -0.23258362896147017, -0.21318159528425595, -0.7463771751296342, -0.8513047528694914, 0.2734831113445679, -0.6225310895810302, 0.07262035510340553, 0.33265305843262494, -0.23711060791070854, 0.8059913317619609, -0.7582464183589819, -0.06920016202366319, 0.05667066942653818, 0.9811979558069953, -0.22394089325450456, 0.3772461887469761, -0.012458061344507151, 0.09305808962287561, -0.605575597133301, 0.5045500953874117, 0.19175667595985993, -0.4727243435562594, -1.0916705276892766, 0.4883775536064963, -0.22309121927852107, 0.8820565815986962, 0.47063562503587847, -0.932395808954882, 0.005317447810478971, 0.4287856034834001, -0.3630041795513723, -0.13381905656155985, -0.7901431177689203, -0.44458030218367806, -0.9439937502859641, -0.17785740671914635, -0.6616493178132263, 0.8599991330197356, -0.4622256598548949, 0.6578027532703596, 0.9875262178931655, -0.2738171816294609, 0.8623642302692467, 0.7292524862495966, 0.5402977594690821, 0.019928313750836986, -0.9032651061265642, -0.5163005869867784, -0.85701026465157, 0.34671426636130404, -0.8267847560388388, 0.7065361815993059, 0.6122817188155152, -0.05778483051589846, -0.14401327801735297, -0.39607651953290185, -0.5055698206991746, 0.1680240945506961, -0.9176412212535765, -0.8176011148279929, 0.22674360435426766, 0.8173650659657564, -0.8961182394290418, 0.07146619599627073, 0.5619631941848702, 0.5567556587947683, 0.9384685078584283, 0.06000591277861443, -0.36003095017081205, 0.31661376673129793, 0.27735456463339103, 0.6636966057431105, 0.5263006780734379, 0.020141211249018087, -0.0398337825315505, -1.0079334571608898, 0.37148351718282363, 0.8128690639450707, 1.2173578956473237, 1.110282384168862, 0.8186595097781518, -0.015941746546851647, -0.6412531253820702, 0.7130589426107765, 0.7957857378978199, -0.08850573445012433, 0.0024135591226457365, 0.41755930437285516, 0.49132805742925717, -0.3155702827993727, -0.5140718793582012, -0.051456707636128765, -0.29100941528926544, -0.7119133218126723, 0.18600854711322204, -0.740264414539017, -0.39276337480885126, 1.1309492263583052, -0.5277900782318449, -0.38710453518859483, 0.8460501124463987, -0.6586893364187217, 0.802446161227241, 0.06331205079232623, -0.23218273055396765, -0.06792930177488002, 1.1359343627922736, 0.6149711917931202, 0.15217484378369747, 0.3925859707706492, -0.16436086832636781, -0.694836394650546, 0.7700609923895284, 0.6961275209636273, -0.9118154836837113, 0.5239885239104591, 0.8260367200487195, -0.5469127892860018, 0.8953446451295165, 0.5443677210255896, 0.16568519987619718, 0.5302157009528556, -0.9747987094334374, 0.81409741526605, 0.5249244883716148, -0.6472277309584857, 0.5360376137070718, 0.546708341624489, -0.6755025880870352, 0.6578071177812785, 0.3169669995277311, -0.5380759013023172, 0.7476628338020207, -0.8878419874984806, -0.6431395873467096, -0.02944890003215456, 0.6971494289490515, 1.0965026763377144, -0.324302731840877, 0.4798019028303998, -0.656954914830942, 0.5396099254924233, -0.9410153475270999, 0.8702226280636332, -0.8563389592399646, -0.012496558725883452, -0.14976189726318045, -0.49753690091518965, 1.0831807884636455, -0.7618347641972418, -0.8945678985445634, 0.2242259616982718, 0.6546613823353492, -0.6863684613782082, 0.14090833084965346, 0.2822496668023809, 0.1880144167858539, 0.7463279101452163, -0.5716186784157927, 0.9278322688591428, 1.0157488729621729, 0.22289850839144623, -0.2784422000899947, -0.5218097246080619, -0.43368611334352986, 0.5911818284496447, 0.2008024447990367, -0.386645031875819, 0.47213605100683903, -0.4897270232132629, -0.8393029575830315, 0.28663244918198627, -0.8591101577403194, 0.6371170478777721, -0.536177195731201, 0.4953171127083268, -0.21065509821468303, -0.16205575178258108, -0.4834682315595468, -0.3920177906100074, -0.8743446665250106, -0.671851145558563, -0.14783164348863767, -0.27663688680000503, 0.5588089150039649, -0.7018491373753285, -0.4958386274935269, -0.09530515311290313, -0.7538593687653652, 0.5619687933463274, -0.9569356935462917, -0.9309735891448053, -0.11008465555317495, 1.0632581920109996, -0.6589021169120254, -0.9550669757627774, -0.5851079113566453, -0.9268193068574391, -0.6479913402872703, 0.5032326071532602, 0.18893772160150946, -0.7059280200916305, 0.6157650890340197, 0.7906994592158666, 0.4616175016244888, 0.20304189375569784, 0.3415856769690449, -0.11931276643018107, 0.4035029504477603, -0.7210381432022746, 0.2492709401395861, -0.2159895390354705, 0.9462733675158234, -0.023910910310215434, 0.8098974506909272, -0.25597841738083715, -0.12345175227523877, -0.4290772635540743, 0.24679649057586678, 0.2619122384268113, -0.33524546079066286, 0.6145626155299486, -0.4203308548713939, -0.35778810227480834, 0.35778221662393606, -0.5185008654692094, -0.7938770360094418, 0.33875055560869116, -0.6754436095315072, 0.4421853931749373, -0.37740530931666705, 0.22473053986903846, 0.2949685649943726, 0.8181393458010519, 0.3896468370797262, -0.7831193765601465, -0.6400015454097676, 0.36278814923055536, 0.7162028472299565, -0.5878050846553035, 0.1608020391469439, -0.14867935094919707, 1.0026864795548251, 0.27208151957955645, 0.843095579815155, -0.2438561539903806, 0.9438717973178502, 0.15929641844349735, -0.37632555631014064, -0.3423887339586649, 0.6481240419176927, 0.006398879984210106, -0.8949575103648066, -0.839249075886991, 0.8308687866210156, 0.9160425297296972, 0.45637841958186776, 0.8189290184196537, -0.8202614592890252, -0.8559964545398162, 0.6333121888234315, 0.7110112507269314, -0.8244246443806618, 0.5668517425231588, 0.29479740438487784, 0.8069563507512111, -0.7617568551991623, 1.0184816717800342, 0.5392799650108993, -0.24677461752098023, 1.1238894381480087, -0.342976475926618, -0.5365916386571425, 0.0697744838592944, -0.8422015530140456, 0.06362062132340793, -0.10536190226329366, -0.09176649608770256, -0.5158279090155136, -0.5608950092507506, -0.2536390664260122, 0.9960010555893966, -0.42698606308045317, -0.2175436209087238, -0.7392526848687564, 0.3935465171390295, 0.8388248943095893, 0.5943344109427983, -0.9033071518139908, 0.9362379559049112, 1.0296430264263026, 0.40063985509558003, -0.0023151341830363534, 0.2942914924294739, 0.2728239668239713, 0.8660841530591086, 1.1736171295919435, -0.0311991943465602, 0.599943229248231, -0.38850790751573033, 0.01870915821380708, 0.7184199886529257, -0.33186361238803314, -1.0147016998252885, -0.46009835411182576, -0.3451122800082749, 0.7383290384888581, 0.8856239452983504, -0.6143723655517452, 0.0769900219188866, 0.9229817399990954, -0.8952415008589487, 0.7855876082874238, -0.6018557253361031, -0.43744008448107985, -0.8350893593248633, 0.548516045992897, 0.16431226410363142, 0.7171196246332097, -0.24513752232133323, 0.7787922597900294, -0.11845116948534878, 0.13329173972444497, -0.47576180889568104, -0.684553612186386, -0.4007286113027532, -0.6714973157380563, 0.02948162580008992, 0.680086413391465, -0.11838115216876945, -0.8687648656002598, 0.550562932190964, 0.09193109726643896, 0.90137423191874, -0.7910239949575606, 0.4391875230511135, -0.5378816517881733, -0.2282325253809212, 0.8740603605854023, 0.08675700936631636, 0.5411212718837244, 0.6763292138161483, -0.2632072094248412, 0.8484887812675989, -0.11144854315280216, -0.5789789341089193, -0.23794157290099752, 0.14568303948391934, -0.6340886001583342, 0.29731631849211343, -0.9703543887311497, 0.1516052567930334, -0.27194955826055084, -0.8930820965909951, -0.7633554226576493, -0.9967802155494588, -1.064649630613461, -0.9865068494223861, -0.44839052457309625, -0.4415086395229201, -0.7980920479777739, 0.5716154787702719, 0.1800368507037473, -0.2534329024565096, -0.18302563737562383, 0.010357914732015638, 0.015584390268603698, 0.4237693326071399, 0.7807244541170504, -0.7924179422138662, 0.3442209544462702, -0.09795327794990683, 0.6375922848182796, 0.888514231917352, -0.8933777146627853, 0.8556623071913722, 0.8353387947688635, 0.9359189958191126, -0.22729953015481724, -0.6369512246272026, 0.48056033552184235, -0.8778118600484207, -0.15892543069918091, 0.7624582905276795, 0.08001127463143534, 0.6674962697546828, 0.45643228328218305, 0.39117604823933994, -0.07786768259516472, -0.26678394750100587, -0.7657147671343731, -0.7643035922262778, 0.4631643800314327, -0.6427464551845772]
[0.8524602193309614, -0.03840261822636504, -0.2048300791293154, 0.22082987577551694, -0.2521639573509018, -0.07686411773028157, -0.526957652933149, 0.5635353183200611, 0.0774448701916084, 0.974176084759651, 0.8638459421462978, 0.8166041699662356, 0.2888672109612085, 0.9324342235747045, 0.4967094655982185, -0.5968683011082259, -0.42780608450162405, -0.06728338972005665, 0.3169016355128198, -0.27612278402032575, -0.09884558752831007, -0.09074351659157087, 0.988454211174637, -0.4771926154125721, 0.08070934921281747, -0.6953772278786394, 0.011262828372007538, 0.83629773252698, -0.7562051098258851, -0.23131007760357059, -0.6497630305916455, -0.44782376669514523, 0.577797995167409, -0.91032745157489, -0.48179036150219945, 0.2395590475414089, -0.28826903138707727, 0.890246393710764, 0.6099086915638207, 0.351373200379187, 0.15815936641065576, 0.7267444531619744, -0.339547047756912, 0.1937441080819252, 0.44954195031330435, 0.13116569342928927, -0.1357176385982208, -0.9039135019465738, 0.42785644490019936, 0.925995309945167, 0.7114538459821642, -0.050835333006783445, 0.24524847253758186, -0.47208038948790554, 0.8850177948373887, 0.5437856859428833, 0.4412820338179715, -0.4413131216116022, -0.10804533263981786, 0.7432977500388589, -0.9998513791681491, -0.01751169627745619, -0.17973998944766034, 0.6760358221815336, 0.6829476252181751, 0.08517585599748548, -0.7890177466324029, -0.23646708538931718, -0.582803270146594, -0.2532170916830028, 0.21787907859138617, -0.24177625459893376, -0.8068389466688006, 0.08409357935040279, 0.4195098227088122, -0.3120638795676029, -0.8528644354612915, 0.8732455183783012, -0.4545147384172176, 0.5049197145462029, -0.0765862998712979, 0.5405075089311755, -0.17017927870498162, -0.1546242002165228, -0.01661415459960125, -0.183444453586582, 0.8253258326055739, 0.9656258172923813, 0.7858825336614172, 0.7776790287297685, -0.6643143777070799, -0.828525244499389, -0.29524883191532036, -0.13426164408675284, -0.672166964807788, -1.0194010220836807, 0.6735314785423493, -0.5146670455300146, -1.1539808084547658, 0.3553855929425969, -0.09691297747701133, -0.2903036301777913, 0.4599455797590699, -0.9116571598889605, -0.7952382755702189, -0.7791819619969184, -0.30511546853307764, 0.4129864902379938, 0.9372741467961421, -0.4502493542701962, -0.22616858950744057, 0.39967102124345, -0.3357425047430369, 0.08504572908828045, 0.04151922448496537, 0.11299969246863693, 0.8585443450240572, 0.46352514323666383, -0.1108094696569348, 0.8568489805186843, 0.523801049561696, -1.2121012822648005, 0.36152998582555684, 0.33135770131946024, 0.7388790527859511, -0.6742316613746688, -0.11194962798886679, -0.4605320134956875, 0.30591595277591527, 0.7531486076423602, -0.2712121239026177, -0.675731170525117, -0.7673569990497441, -0.2019900902809351, -0.6485347442676366, -0.3245821373112194, 0.5795908753103065, 0.40847511369583017, -0.15434238797263447, 0.38609426572342165, 0.9467065741205527, -0.3407954073102064, 0.9251587447171554, 0.3512851308115108, -0.5683836934102278, 0.3473603454525242, 0.10676483659902643, 0.8393558418578145, 0.09991265886698006, 0.1417830845923854, -0.8819155982735827, 0.5935974480290751, -0.6427850028395129, -0.29287133246110264, -0.5861027173375053, -0.12992824428646027, 0.11669615166518686, 1.0326512828823358, -0.4158998077072534, -0.5659770487103666, 1.0222095267017732, 0.49954814210705306, 1.0359281309633959, 0.2608218378469881, -0.8097551542315455, 0.8264944952786623, 0.28509509087613494, 0.1369483893164918, 0.5264429392159002, -0.5847911702140591, 0.31593000283076444, -0.945195521883698, 0.6861560650608218, -0.6053434067529606, 0.3861042066066863, -0.3632570937394833, -0.21955976800714497, 0.434547215182518, 0.15709881233543935, -0.8037190811763664, 0.27874429153986663, 0.14260905912552047, 0.2737530003867407, -0.5433473714679092, 0.12804725122660462, 0.7299216973268485, -0.6538972456909345, 0.8125424678483645, -0.5035655417141645, 0.21386324081534683, -0.11382742285499522, 0.5625502696589143, 0.42306989261968847, 0.7264275631234416, 0.09799102422180243, -0.11474509510748984, -0.7197852955582843, -0.33404324145194203, -0.6561116557678505, 0.37588092439442683, 0.1370620790682233, -0.4219480508312234, -0.878808369933533, 0.5166093105716824, 0.40366373098085184, -0.16422883938653998, 0.4152949874919408, -0.6406691150892444, -0.4667754174902403, 0.32173285243734506, 0.03003943885303405, 0.679456736489434, -0.6755766097562301, -0.6652702833762302, 0.7720199298833724, 0.9970848726274676, 1.191581020806797, 0.7151993682089574, 0.8600119774011935, -0.2733642231979373, -0.3923697009363883, 0.6804558284195299, -0.35116811047997315, -0.47409323804017384, 0.5432751409867834, 0.7876967613263837, 0.6199650563228085, -0.3621787733203714, -0.8565631756908468, -0.5354547896181878, -0.06483162769396185, -0.6350753906025581, 0.5842594104977874, -0.27798353129590386, -0.38648034658194036, -0.20782816198917037, -0.4720597691431177, -0.2037572469695165, 0.37920846903118366, -0.7299382763270961, -0.40797683792670186, 0.9383207082429701, 0.7530850796019433, 0.4505300656526988, 1.3895141562490463, 0.8668614618565692, 0.4021385910245047, -0.35682226089640784, 0.32195772615303064, -0.06815335665969592, -0.2675262921518874, 0.2206086225910182, 0.5619146342205433, 0.9095717414908661, 0.23097436077876057, 0.7296781293075334, 0.7304706758115416, 0.2744226973484864, -0.049171031797767294, 0.15349659878636737, -0.07160114250065916, 0.33033409761262367, 1.3303951845793438, 0.5229581865381335, 0.3895556133450713, 1.3405945266896875, 0.9630201488822098, -0.5515731168261531, 0.8548821512892343, -0.03713613460777466, -0.1386330805187004, -0.040922526432837426, 0.5281597396288398, 1.0329549676134366, 0.10905789383611668, 0.041217723957636586, 0.06044336824863414, 0.7403570365890294, -0.5075095274072227, 0.04702604225182147, -0.9441634391816514, 0.1737162306819515, 0.6437880453151109, 0.49076078449573557, -0.7131648037849012, 0.4123978768006756, 0.48937350850894923, 0.7965831540557928, -0.1601736723105038, -0.194272930172168, 1.6756077992680127, 1.4410140636714777, -0.1653467639242417, 0.1063044598306072, 0.9882480740565446, 0.7446895373524888, 1.069889044081137, 0.2312123420828795, -0.6765289675695866, 0.5054222638393221, -0.26095121788157477, -0.4533048031700136, 0.8363160346757574, -0.755922875430292, 0.25576035462695884, 0.8678837198098687, -0.022266118107577993, -0.24092751610688723, -0.9024998916734166, 0.001248397813795448, 0.3341138856168809, -0.2704373063001776, -0.22778693469922867, 0.9050655353618283, 1.0807972576775482, 1.3146811311362308, 1.30384349216835, 1.4941965086395084, 0.5470801887764989, 0.6534776330312575, 1.7705364080815642, 1.1710066331378104, -0.44239443089127345, -0.12339702529746327, 0.9066855648573572, -0.5171642571477952, -1.3052487438533669, 0.19972061978337943, -0.023262189423606732, -0.2311788725236939, 0.12876120479124364, -0.015390193427383968, 0.6176544609709487, 0.046560658190653206, -0.7802120233747797, -0.4772007907250764, 0.9826358345418085, 0.40826211368799553, -0.26800841219639876, 0.18433506522262877, 0.47878317244410157, 0.2641828338320468, 1.2991526663650586, -0.3214685388882306, 1.1987273180635551, 0.9253159054893453, 0.5867859980357368, -0.14387860368364186, 0.17922928889454165, -1.0168236621730355, -0.14459525771550757, 0.6494239409118232, 0.7383411444906816, 0.36912404089347023, 0.5051767498119215, 0.44122454346390855, -0.49204885551610994, -0.7145401518087368, -0.7207959770127844, 0.771952699319861, 0.23675881969069007, 0.14914543105807904, -0.25320485121125863, -0.49485036706355195, 0.41317484312265895, 0.6605609511321184, -0.9141435578284658, 0.5120329802884818, 0.6295842905608312, -0.7672152436113567, 1.1135995749707615, -0.45787570189019233, -0.3702204123873902, -0.1097885749580882, 0.5946033670879716, 0.1477988442786077, 0.09881326609221308, -1.2565883374471631, 0.21399779082080134, -0.46054296885195256, 1.035033625348453, -0.8446971671860943, 0.033247595551335565, -0.7702581581460227, 0.996760017347728, -0.9285526508477437, -0.2791650230086201, 0.17223933853067513, -0.985865565684885, -0.1444746960184663, 0.8207946029083011, -0.5362327035189141, -0.8467732288645131, 0.6194543386613939, 0.3850293575166369, 0.857211355241793, 0.6497407942751069, -0.4089617309361688, 0.20503513276018107, 1.1969639965494592, 2.1327735225568458E-4, -0.07282697529446584, 0.09411433501677861, 0.9323180447792556, -0.7883626665823171, -0.14000442555506876, -0.6472948894852532, -0.2255961171881614, -0.8379215661985987, -0.02655870592833104, 0.5074593769573611, 0.26870094694254226, 0.6830510079671396, 0.26202262468923365, -1.0163151094404983, -0.08853531076227097, 0.08978844982954699, -0.6246978051181304, 0.9739720948560162, -0.9975439406505942, 0.34384966399447836, -0.21960955750131475, -0.5911013944985156, -0.3444411665762082, -0.813038394689565, -0.3510546716365914, 0.9918966838201158, -0.882008628581135, 0.13995824705359405, -0.8087644531863699, -0.7244618426924484, -0.41380020947481383, 0.21671934434578208, 0.2284245838216027, -0.32349862711145044, -0.7965203389913534, 0.5846387332254301, 0.2625750078488074, 0.819146319976056, -0.6266412838299011, 0.5317521932978798, 0.8418096761150369, 0.35110946403267185, 0.6503349117714164, 0.5729855598097028, -0.9177235177324153, 0.3579202621674297, 0.7014386332781626, 0.8752179661160506, 0.17286252835125038, -0.7874940370984699, 0.5260662909671441, -0.7135272226546397, -0.7729483105449542, -0.2639476582099116, -0.5071243373088361, -0.04726136771124291, 0.17611203397444963, 0.24317248785851472, -0.22586583834523744, -0.8054953165218647, -0.8106124735997473, -0.18002790114942266, -0.7140380761571011, 0.7745880746850059, 0.9367571558823719, -0.19439135693308898, -0.6183807502399192, 1.178382336122491, 0.49481261045617425, -0.6803140644913184, -0.9931271419034268, 0.35167665858900526, 0.09405779569609399, -0.9859518738950793, -0.25894204673392696, -0.38480090408832823, 0.6417454799899318, 0.5271094793830841, -0.7281782608950228, -0.7318417396959446, -0.7040835677212433, 0.6511596859925737, -0.36643551671758734, -0.15348038939255565, 0.15430106170193092, 0.3538713758217682, -0.08091079560439378, 0.6339070966772746, -0.3539678733962942, -0.6294352741920332, 0.8112907118378841, -0.702826155194928, 0.9584734242543708, 0.47074578392487976, 0.6627470347696646, -0.2837821361114907, 0.11644198359847331, 0.08363824843021792, -0.8994096720456285, 0.07796610928748739, -0.0666609756621554, 0.11921760505344788, -0.2833243837393974, 0.8812414731746927, 0.5742905600482198, 0.04999845389156131, 0.8118643346184498, 0.7856229644345332, -1.045972293791042, -0.3661813365713505, 0.7118556166083149, -0.6040231378716515, -0.68979648096545, -1.2377192944174686, -0.9905230688229473, -1.2681975114527522, 0.7796052506554276, -0.7848909702645608, 0.6885512222659287, 0.14675920306411827, 0.1543053878203074, -0.624235834732455, -0.11633048529713887, 1.0355544896376676, -0.7845003806300485, -0.272225188212514, -0.10138863027035999, 0.29798565060001964, 0.4688256058186589, -0.43567704710239524, -0.8969184912624681, -0.6821345418297942, -0.4674645032550784, 0.5477466002178706, -0.5640369844310233, -0.9246777575057356, 0.7459576500798142, 0.07380761043838158, -0.030877829726733048, -0.7822016095144154, -1.0485485838298925, 0.21556196780584128, -0.020634724334369067, -0.37989531441749524, -0.2699695129882393, -0.07388279622921415, -1.1705845015967908, -1.0702514775904102, -0.9587011364073186, 0.4652222823598442, 0.5576956967414821, 0.18977244052537542, 0.5326953174598338, 0.26791744198317324, -0.033443665987915705, 0.11199275381516478, 0.11815725520302538, 0.21463913688557001, 0.24005873626811702, -0.6950588065838055, -0.5620838313616268, -0.03769228334813796, -0.24182922279052188, -0.9143909717153192, 0.4496298574664249, -0.747554899911771, -0.4126141796845378, -1.1026653659550787, 0.2406102992012392, 0.6601586211800738, -0.767552588752814, -0.6283943958877677, -0.9537611223354634, -1.304684085519786, -0.9979648409577314, 0.3100968382082169, -0.07882509551945611, -1.1150331821893482, 0.176719355507326, -0.43163763851439774, -0.7286178508754189, 0.5879640322835783, 0.12972772739508942, -0.5262628603583966, -0.7691961587178476, 0.13379399825212474, 0.9137844514267026, -0.8276734903196943, -0.2936362100048975, 0.8185276739641361, 0.8037180816157167, -0.6305445781299479, 0.7443234532644938, -0.14932225221100714, -0.08075810771230688, -0.24495997364638417, -1.1523176772343529, -0.3003213287739376, -0.006771752555981114, -0.6859366627310235, -0.863349549149461, 0.5658708891689669, -0.9257027783225661, 0.3284120488618573, -0.7788711247799219, -0.3996629393467922, -0.37666423897270446, -0.6777747843101142, 0.3545691816121779, 0.40228011489594157, 0.18796200985040068, -0.8528523839091635, 0.7349092179149942, 0.5844123912696525, -0.6417641420543896, -0.16567055985622914, -0.7840383874504493, 0.024250441021200428, -0.3834455451047683, 0.9396058273453262, 0.4445818926628825, -0.3616570264838205, 0.3702442025552645, -0.8100290240720923, -0.18043656739105754, 0.2636549854046204, 0.5260282430855077, -0.10397466126659859, 0.15448068042056143, -0.0917591776871153, 0.9377413729280535, 0.46056111641399416, -0.24339465029267895, 0.8169589040233318, -0.3929191834744442, 0.965065674783324, -0.7109663229596405, -0.09729710882850728, 0.41677395873986334, -0.44184666742086354, 0.3623035861709771, -0.13958832981331182, -0.94714571864061, 0.9828503219561244, 0.15568441057010518, -0.22020325479599104, -0.11207937971311072, 0.5683754779079617, 0.46026339413257394, 0.8645569622231305, -0.48168570406026795, 0.5565855659075525, -0.682696891706842, -0.2520660997962826, 0.8171083362591649, 0.12577002622965172, -0.5562231377662896, 1.0471451518964088, 0.24663329330457348, -0.7368897783220342, -0.7638410478937996, 0.6817964271003297, -0.3761985575065559, 0.5568004330010942, 0.9042288527803414, -0.39355491260458875, -0.04497332134805407, 0.7727878165909634, -0.648519763264404, -0.7094035901880695, -0.11791975728071269, -0.3090508851879814, -0.34274128223053135, 0.7858972590427014, 0.4352813914754879, -0.9438161557200978, 0.5874317811316349, 1.0118525602059858, -0.08281226096121727, -0.3952360536845845, 0.24553181542384675, -0.19036636215130692, -0.4237281984936717, -0.6761271790084467, 0.5778959886672884, -1.082818171366417, -0.2266815656012103, -0.7568511925234345, 0.733119966497848, -0.2630683384081609, 0.16684462459597924, 0.30024970080468716, -0.8110350930202886, 0.15339648119355934, -0.7080624914028159, 0.16413023705655796, 0.598635464604992, 0.4951382722795623, -0.8981772355339068, 0.17897422310832867, -0.34680127953698237, -0.05101783111679903, -0.7533257955043811, 0.4472346654776668, 0.13487316581595213, 0.9642049852213976, 0.9270217505753967, 0.829575807661143, 0.27184181717940614, 1.076776053370119, -0.19340564995168438, -0.8938327208056454, 0.4534057774880806, 1.0150506511060264, -0.40625755841160743, 0.3298259312793236, 0.7352600774423652, -0.46930196965687304, 0.051112237954411506, -0.3233061644460934, 0.490783819073142, 0.05047937104557857, 0.20173619426383835, -0.8451690067457507, 0.45244995614566985, 0.6383741339040869, -0.8663027486579371, -0.4167207647558928, -0.3674128272796524, 0.6764792538826008, -0.4128151612068369, 0.7260131898459912, 0.7783663436043136, -0.7127082384977603, 0.6332993005193418, 0.3329504006367512, 0.3743875252026908, 0.18881407730363042, 0.0217057798652688, 0.7144383201558326, 0.6779062871266638, 0.2596004805216033, 0.5886842924023137, 0.371443628234534, -0.5940010026358281, -0.11999432696325202, 0.2872727180904102, 0.6411276563195176, 0.09066614147250257, -0.030368849438925025, 0.329486094857961, -0.8432857238399929, -0.46706707204088227, -0.7086133280985265, -0.533000208459717, 0.8429459152888956, 0.8821866199792292, -0.4360725375046468, 0.05927414630969219, 0.8812374010708994, 0.39252203123005636, 0.17401038953648773, -0.9038392734337356, -0.4036280523955312, -0.76658870139445, 0.12571016507451502, -0.9359207721945259, 0.45278406309201863, 0.7134603323234257, -0.6544094608848111, -0.08035740592682215, 0.1696126782283636, -0.08878695458098092, -0.8022156747042507, -0.6674751260824725, -0.6865506777353372, -0.696346980872137, 0.1753498794496157, 0.031112055738674815, -0.6803628965119912, 0.9158996811728035, 0.5735099377640505, 0.8956520374976586]
