[0.5148003533299292, 0.2608456588479383, -0.5445751214500121, 0.5745274789321697, -1.1504448361538966, -0.495264323141006, -0.8883752337858587, 0.795298581732516, -0.9559905042848852, 0.09544323930160838, -0.9893296967313511, 0.07913178524454118, -0.4092521629397063, -0.7928924358116939, -0.4002772547692008, 0.32973741179268473, -1.2000296235378005, -0.006773135574125924, -0.14079405588130875, -0.27774952338347425, 0.23178500079963066, 0.27989642825740146, -0.19592126284512684, 0.053735687978029176, 0.43512662848863615, 0.02315631251938959, 0.13746411201165368, -0.34327865924133705, -0.5314257940997558, 0.3229281653054272, 0.3445389470633634, 1.443613391225954, 0.8235390059479495, 0.5604165065479041, -0.08806235738923378, 0.10630092355545273, 0.06355414375806753, -0.955144061254252, 0.14740983760490686, -0.2605945997007216, -0.45168628672010586, 0.39184872853584596, 0.12723358947322408, -0.2003236396581184, -2.012483101776159, 0.2309739689697438, -0.1557981798141531, -0.20771026337098053, 1.1384028105440438, 0.23312743512532663, -1.379441261594392, 0.3369260561824749, 0.25773947641974904, 0.040440725908383275, -1.1107383298743518, 0.07090147783206983, -0.4043734455394021, 0.7436811619848602, 0.6391462067627649, -0.08474005149056843, 0.9344058449904369, -0.3775149783909458, 0.11405601295440165, 0.3374488644548923, -0.11648035212182804, 0.3142803001954925, 0.031507024900335225, -0.511353621935791, -0.6140557332916481, 0.5344851509772373, -1.1531801832641495, 0.07335404733655985, -0.2980266687765341, 0.49503585137979556, 0.8994390893557093, 0.24310583796760937, 1.0507956549384243, -0.024501849402762878, -0.6747641745410868, -0.033669634489356004, -0.9857113808613708, -0.11828249995683017, 0.43528767881309066, 0.05612087824090447, -1.0187911829352443, 0.1852767727808847, -0.9318113190717234, -0.7046559258818428, 0.33873303510126995, -0.8710284497854827, -0.056727616540048015, -0.34617210636242784, 0.012394585049895357, -0.100859842636322, -0.2746724129542827, -0.3556766432753914, -0.26506205100257163, 0.13032804678894666, -1.2192556865474913, -0.5409910978651077, 0.1133262846532408, 0.6476055085059922, 0.002881706696012322, 0.16724500048731555, -0.8231116162826349, 0.5840607697691702, 0.1899316747030937, 0.0865211022564088, -0.7506878640693575, 0.3520459986288071, -0.2839620399501531, 0.08698518700742203, 0.15591457230518413, -0.4727274270934303, -0.07780880687621858, -0.24069087051788807, -0.3980484094115895, -0.5936051041463786, -0.5692237500985431, 0.32028762111420395, 0.30762910600739546, 1.4393180258224174, -0.5547422308152042, 0.23705419409090617, -0.4403358746927916, -0.7879153169036603, 0.1920335218726023, -0.17933974150642112, 0.11029672415031828, -0.38979626069898576, -0.6593261169238798, -0.07876630212373047, -0.9721567430627029, -0.9915574995089655, -0.5194917687941428, 0.27183162621994716, -1.2198133515034932, 0.20173112188133346, -0.06575292854675836, -0.1709527126012862, -1.6329593777514784, -0.3122303848321847, -0.19387355659281383, -1.0312557084877245, 1.153356260431513, -1.362230277172354, -0.620959009788381, -0.09026555524149371, -1.3458739020679775, 0.2195344891797326, 0.16773962397764522, -0.01115931108839463, -1.1252277945254607, 0.262289245056958, -0.6883946836725672, -0.9345690929268903, -0.11619874429004409, 0.6383643837140431, -0.5467946575886243, -0.36502236156209694, -0.907067541866472, -7.370707448688954E-4, 0.1981067506074753, -0.7977392529583408, 0.43330240967695144, 0.7644856435699946, 0.45785326950787336, 0.5509590305878013, -0.4624835970891225, 1.03601354415489, -0.36324044273010764, 0.4784198139808797, 0.4121386789090786, 0.24373645638523794, -0.07042905959704664, 0.7096936499556109, 0.34874546913959437, 0.7317225332946831, -0.3526983983861669, 0.20009023822098837, 0.25288914063371437, 0.23443605568476614, 0.6339535403773031, -0.05354175838629806, 0.6844159633102413, -0.030578851876967853, 0.11350191647553305, 0.10908856099131878, 0.19428089621654945, -0.11852755356969476, -0.2339531085446466, 0.35279511455011686, -0.3047162324863584, -0.2507992803214157, -1.5663450689361098, -0.01272712294936321]
[-0.42861975404527053, -0.39967914126529813, 0.2723651104308146, -0.7141680786649997, -0.3134649167324343, 0.8892693053077161, -0.0049309752479016564, -0.44875685315246977, -0.34290070050011967, 0.32670065055595654, -0.302052746854324, -0.003777521165852755, -0.37323616384417685, 0.16203161783496833, -0.12536693319851025, 0.12135329877799989, -0.41035442422982643, -0.09741768055939451, 0.3125618684833691, -0.30207486799209327, -0.3613288363678422, -0.08281879027325481, -0.19562813029911044, 0.07777705243085825, 0.16041002249813535, 0.5682344115857826, 0.07557256532390998, 0.49615982562683814, -0.1959312485107026, 0.5712123514697195, -0.19112101861546987, 0.4132911106884098, -0.6389318837414173, -0.21313352720091133, 0.5255685658374757, -0.37908813907156946, 0.07091087410582879, -0.2615318448911122, 0.0050072445225696335, -0.5354218296130021, -0.12331288085042523, 0.5060153213010125, 0.3012179290674733, 0.27595709932099605, -0.12683049853865658, 0.3206910157956075, -0.23317214566767389, 0.6940108430375332, -0.571779288323483, 0.7419417607870193, -0.16729300123505159, -0.3092527530355917, 0.16490870714856032, -0.17381348663112633, 0.42403691261586685, 0.7075730286955103, -0.043487387676108685, -0.06754388243227828, 0.6129689358527812, 0.48404078176275706, 0.29996773321472264, 0.2396093681668641, 0.7469560353503818, 0.27748685447212773, 0.3469844665807382, 0.27240602550221993, -0.22355865774942946, -0.118473331238557, 0.20665891302233483, 0.5685442579266221, 0.43874943014090767, 0.2538621155359255, 0.38621443065272293, 0.026224438179237274, 0.36254529417311715, -0.1397298955302737, 0.37200343248610945, -0.002278002793323636, 0.30005812219982775, 0.3677727374348097, -0.1746883796187104, 0.18120430333530135, 0.48409567158167066, 0.2527223782935992, 0.04590323914176385, 0.5960997454358787, 0.47439817612870755, 0.6466395805086892, -0.45641847886963527, -0.4126469741015548, -0.2004314886558513, 0.5030074070279718, -0.13461049536829167, 0.5790116437854822, -0.041727335868072944, -0.052533248598060286, 0.8061126029795594, -0.4284105055309089, -0.04945937830481899, -0.31854046639022476]
[-0.6633717533903748, -0.3757709951119873, -0.2334015989794254, 0.6059439952889715, 0.27076316462416994, -0.20734405595787664, -0.5870187036643744, 0.0975947079292617, 0.302593875904574, -0.23622008735967037, 0.1008297757171598, -0.5120231022317145, -0.0951525653167026, -0.3903395662180592, -0.1770618032008842, 0.16786049506732179, -0.4140634216702795, 0.06247289976721524, -0.20286058679214378, -0.3310560650333499, 0.5998567415098086, 0.49938423738010373, 0.3942886586975383, -0.38758377069342764, 0.3954447342051388, -0.5301732536510967, 0.07936901513675904, 0.293193427166281, 0.07280776258966315, -0.009085748079987554, -0.3206279708247548, -0.034618447169745784, 0.10844012108900679, 0.08433926810398278, 0.1307438673722061, -0.008118567939110683, 0.0635594337359093, 0.4519065171303015, -0.2860131383876586, 0.16697507278229048, -0.40493847086249185, -0.06265623286409872, 0.23281892156881062, 0.22567992900150766, 0.0123812725627382, 0.18052079429383255, 0.006236626310305435, -0.4866147533569238, 0.30904748093080464, 0.34130494881459533, 0.08268931369628522, 0.14485926562808474, -0.07305556810571166, -0.6996395325959146, -0.13072928791791322, 0.2990318313847008, 0.21366744602080648, -0.5308022497649142, -0.19742576861777997, 0.024458868066747724, -0.6239708227503385, -0.26641999069974726, 0.25168723363657314, -0.07599122099325217, 0.28485923975745264, 0.19988765874940234, -0.10990067904301133, -0.43696912005887273, 0.44956203997421335, 0.1055074651124935]
[-0.1233106673458707, 0.3087784052814917, -0.6593809407462985, -0.635687142437937, 0.30764944726951143, -0.08476326922711123, 0.573187906574217, 0.4422586766661978, -0.2946420014052222, -0.3010288452010912, 0.09096280436355278, -0.6003490082702121, -0.0324033526376229, -0.13752307697375762, 0.3541812441309614, 0.019999911346171642, 0.22744056564954362, 0.17217038771832496, 0.6143255458300089, 0.1090098517523844, 0.06897448215717723, 0.20966094075408326, -0.7500392131316499, -0.48840570778405756, -0.7457600903830118, 0.8755881772478274, 0.2526006128410525, -0.2913456131019892, -0.09668197552140236, -0.5991633943702374, 0.5590933286059817, 0.08663603317976737, -0.03138897204993555, 0.25872246327110326, -0.28076568356376336]
[-2.166548375704686, -1.434617158265971, -2.658073463084707, -0.9388368856736629, -2.435594850748776, -1.460724603746789, -3.754665668208657, -1.6176731916494276, -1.9858643020572926, -1.8558176530111967]
