[0.34203072170273263, 0.6189829002467931, 0.3043614230995349, -0.2617698348567108, 0.5040805573141095, -0.04198662678852757, -0.3979320426205125, -0.6154140743613362, -0.10221270136111774, 0.2305541907474542, 0.4040335758677597, 0.4266789041098723, 0.2833484906987162, 0.22340591733165496, -0.15367740878826114, -0.07639248350187204, -0.6848948150843371, 0.5680095129519717, 0.5998694662336786, 0.08452874190164919, -0.2693394263002788, 0.4432933909437526, -0.5022396254303716, -0.35492501796139625, 0.07957529328110738, 0.3934987311249984, 0.5732656449761336, -0.18812890499065213, -0.26739567479470766, -0.3523213032372179, 0.36307554008665605, 0.7313957179392652, -0.3202232875957252, 0.34069128045626346, 0.25159625950903003, 0.292271870857764, -0.4195730964123937, 0.23950098494211963, 0.04931342376491264, -0.3155528353670396, 0.38941179898709793, -0.21484413011249842, -0.33298102047901607, -0.12646840354891647, -0.5149693122404627, 0.008437978263793373, 0.43558567415955673, 0.24713489465249447, 0.20847227264771764, -0.012897922462218507, -0.25811541558791723, -0.09267445133485328, 0.23482461198579865, -0.5050566245994991, -0.0012848467383304943, 0.3530588995699815, -0.270135382620483, 0.3018818001577106, 0.22805433188913626, -0.359053718939214, 0.6677912834042871, 0.1530156848091111, -0.293934225655059, 0.6243719906608171, 0.5625732417601574, -0.39529979718592523, 0.23941218885204163, -0.4777209221735813, 0.33004970350941615, -0.08752887940194083, -0.04347135522422868, -0.5820767248839627, -0.3200049189353206, 0.13679937963437547, -0.6062518925286646, -0.3921785096741667, 0.15047943990121912, -0.3827557068381987, 0.621110427929062, -0.3138912504270545, -0.2794057841604068, -0.3327529005417619, 0.3139505481086317, 0.297931118929668, 0.13867555501928416, 0.47534910910124134, -0.17922826067580216, -0.12051117672523154, -0.5843552271985034, -0.2669304525146083, 0.6304675693776517, 0.21969843479002069, 0.03645310752299935, 0.06546276220026949, 0.45027174779058693, 0.3020063537444993, 0.2583934956100581, 0.16015911588117018, -0.1763480656242715, 0.5636160797125758, 0.495360180281194, 0.4016598090925584, 0.4402770215187933, -0.690676045097335, 0.4223294230337403, 0.4337656241568472, 0.14078162469893402, 0.5424412282336087, 0.5928771798905197, -0.06506053609940518, -0.44805014203003835, 0.5227174096821804, -0.46279291560202784, 0.2072162981392047, -0.3420309683846187, -0.1848626831444082, 0.08925162288943107, -0.41915110447686016, 0.4893222188115335, -0.40188963817982265, -0.42199722549094654, 0.544166328454848, 0.12620270191119398, 0.35853088156361457, 0.4401061016122476, -0.5014334619712855, 0.041489340103484526, 0.41256791157017764, -0.44201246999360044, 0.2780818815189125, 0.1013114818129799, 0.02334229581758738, 0.4409620412665527, 0.693602335563845, -0.3073811442825698, -0.31266582529177905, -0.5922249405770786, 0.46455150507620724, -0.7631439303672273, 0.08791059547480493, 0.36662929855559956, 0.5752036404837467, 0.010016381909209258, -0.34220167348436137, -0.14042357140790648, 0.07884544045118984, 0.42808084055411627, 0.3739203226955894, -0.5286373533396931, 0.6547983058756234, 0.22932943569168868, -0.43433064665043747, 0.20841069449125543, -0.03071409996270157, 0.5762923957455011, -0.22361733864603103, -0.28816796418802537, -0.34411983051754724, 0.44519867529700774, 0.21112102517482995, -0.01676000847295052, 0.7481983013788239, -0.06690554967426675, 0.2504335082009321, 0.5894031052894335, 0.609661708929598, 0.29399338089807375, 0.23173078477424458, 0.23964637108185027, 0.6444244699198535, -0.47175632352587166, 0.7752834337821205, 0.6292688287052712, -0.053315275437504146, 0.7233639880066174, -0.5672231322896564, 0.07784431017362771, 0.5149442941850728, 0.2203969413981301, -0.035122548617695086, 0.6217282282496606, 0.473651004005919, -0.19983795040151892, -0.401517852198339, 0.17251354713076553, 0.15547872129574183, -0.0073770626320654314, 0.6757155877107028, 0.019202007831324676, -0.33438978256229895, -0.3718343873151823, 0.3290577153336985, 0.7156647722969759, -0.3584379658039499, -0.3828447576019292, 0.44946946733878923]
[-0.4741079408490661, 0.4325530722537086, 0.6139729950495496, 0.5451424832502741, -0.5592346967457502, 0.006616963514612483, -0.24187869396172842, 0.5966719718378592, -0.22707628193334162, -0.2176284553706738, 0.29684342206550574, 0.2808322396750497, 0.6734497415501177, -0.27553819520752343, 0.39182341208290855, 0.6414695472481452, 0.19579269638292598, 0.5035219948812707, 0.3367460751333948, -0.2881593243479358, 0.019961826036585403, 0.3630635445747231, -0.19750257678313643, 0.26694500895126494, 0.17807849101438375, 0.04784109208331597, 0.5093613404682457, 0.46576133002962333, -0.06573035075519457, -0.28060990641513, -0.08064809152137026, 0.5077898754278204, -0.25691214252472994, 0.6392423099986521, -0.32416790253377453, -0.11494421516925704, 0.19924427877130796, 0.6786405931075276, 0.11756740712401813, -0.19916332959298363, 0.14503449028726748, 0.3991111651166038, 0.14626750637749436, 0.23333037592266362, -0.4935885255895795, -0.13913112899545807, 0.550159698761769, 0.2189630966128058, 0.1398067634580907, 0.6240366391284232, -0.18927108268210616, 0.6092153124915687, 0.43150376296798987, 0.08618582124389508, 0.09643041980591024, 0.5333833438019204, -0.2453838781331709, 0.01188647739874662, 0.03872640748386017, 0.6283528171303301, 0.6839871405445426, 0.400744710795386, -0.23089494746553796, 0.023328100721705734, -0.2426259619197789, 0.2522860245503526, 0.4724244253999537, 0.4277037825273487, -0.5159407593254938, 0.6227434771055572, -0.49465130188498013, 0.10984092454697775, 0.4794474870919826, 0.5205208693972373, -0.11617367687406258, -0.2977568442744805, 0.10504200023993805, -0.32677559335248857, -0.4073052735771361, 0.6518316138580253, 0.08749638545118012, -0.44151726579731854, -0.2812086113319389, 0.567131476891866, -0.19470187857631824, -0.19333229696581988, 0.0749948676278234, 0.21458447224923471, 0.6934137262124681, 0.2974843410102073, -0.0904527213401607, 0.307945199220139, -0.3543985923519659, 0.33521817262505593, 0.1321845031761002, -0.20055019716674996, -0.10636359415692462, -0.3908516011635644, 0.038087036139720795, 0.10647574238606161]
[0.19337270974985357, -0.3649797646493898, -0.591313864051106, -0.2959514640357798, -0.24007698062176663, 0.14398547625592498, 0.31230611734118735, 0.44404318586091834, -0.38985970629679445, -0.21836756271702695, 0.3677267174246203, -0.41617691787643285, 0.043730385074213236, -0.11957888494711798, -0.4991017056058314, -0.0436214064197369, 0.3618179237572511, -0.3962683832555915, 0.09798249000268854, -0.17360224242414138, 0.03927796760270391, 0.42120465656188827, 0.32541798418883816, 0.3381157254802563, 0.10628085704787436, -0.5725461640973333, -0.30284462588446814, -0.39938893630074707, 0.4670260967709162, 0.6865498107369674, 0.5400170425236164, 0.6566585257275795, 0.3625328086296559, -0.46901551863299035, -0.14278638477951466, 0.13868870782248421, 0.5398335873248494, -0.4082665466932464, 0.004251540619901782, -0.36950490783516743, -0.039176787101363686, -0.17079417406070233, -0.4779179119878389, -0.027046680604475796, -0.29713549201142864, -0.15033982135094162, 0.34156411265695863, 0.21496882994736038, 0.36130825615576134, -0.008846134530012817, 0.674978415505486, 0.2979669812471148, 0.17469184909605934, 0.3366364050473292, 0.3831314580890363, -0.13919228895864136, 0.5287637638247967, -0.32597319969762467, -0.5023964969211415, 0.4810976630632203, -0.06646120780886393, 0.2818461802569326, -0.23713584408713498, -0.22930163158148228, -0.07931907865276153, -0.09309171799637984, -0.006634921969401525, -0.0580248656082972, -0.23688693501232405, 0.568820791009153]
[-0.42042646068755407, -0.2607010934232695, 0.35673217794130396, -0.2231428886404792, 0.40749336335089825, 0.24480696257453619, -0.2812371521599378, -0.39626782417570733, -0.42082139253144085, -0.3908357085637241, 0.37800270830416793, 0.7007419632550218, 0.6840322421562272, -0.08076698265850805, -0.2660579333365853, -0.46364937720852933, 0.14730848953699066, 0.25852148566449396, -0.3051397249680335, 0.25506607088028443, 0.6946024704435066, 0.677237390354705, 0.14439438776361083, 0.24187201805015943, -0.20427266642418693, -0.4721843031057372, 0.3766147522007354, 0.0021850531688542563, -0.20554415291557138, -0.32122790862341993, 0.23986918835049326, -0.1203837480810575, 0.16142672189047727, 0.1666278016301716, -0.07085105682845118]
[-0.7656771103662555, -1.2919082538080662, -0.07343348407217236, -0.22341402782678657, -0.06451931496490773, -0.5359591465111208, -1.274525829880333, -0.4286629034433823, -1.0021842055618257, -0.7413277822282983]
