[-0.21666475280438813, 0.1458221383689342, 0.4256243988697965, 0.3514965113912003, -0.505229648693305, -0.9474956525683527, -0.9236014076141446, -0.7391744786552488, 0.5141980043600607, 0.4522967468007495, 0.7638028327542079, -0.18636388609502363, -0.29077949522673063, 0.11274826763357182, -0.5402435158987282, 0.030485777152724047, -0.6353984530808519, -0.4989363267337845, 0.0272690423679689, 0.0894436093630202, 0.7795362663717849, 0.3844791491104307, -0.9026521209599747, -0.8400313183143295, -0.5715768072364524, 0.16175793487286838, 0.37845604588560544, 0.9836850282522842, 0.6014578209804236, -0.07926180883750278, 0.8978496613962164, 0.912807877153619, -0.3144897087003158, 0.8516346307641791, -0.6754867949155545, 0.4079909691391017, -0.19761185655367197, 0.09338640413109807, 0.4869223793350366, -0.8980076046726827, -0.6079779659418898, 0.34761700135187146, -0.5306614820453553, -0.5573145259289908, -0.4998437018602974, 0.6754806762617293, 0.27526129874685024, 0.6885304581797718, -0.9455630181254111, 0.7602616851012849, -0.08655154012263111, -0.49143540881756165, 0.16819274477505086, -0.35981100200753335, -0.9839707239187732, -0.13005003747601074, 0.6784658722069008, 0.3990131436077904, 0.5915652614425648, -0.999688302651675, -0.4628954793718085, 0.6479243221604694, -0.6309047525980784, -0.7784466822714257, 0.4145253480263656, 0.7510623187680373, -0.671364675183518, -0.7759747776718044, -0.08244275496636576, -0.2946083104152468, 0.540382549086836, -0.9695747247318611, -0.7101212280826819, 0.2967344055474651, -0.04877882331426755, 0.051841995799575546, -0.09666378180290996, 0.9302551996176542, -0.5311680903031186, 0.3992252615989276, 0.2181949028331945, 0.43120661218961565, 0.11252385520254293, -0.03477227588987275, -0.20199006239843853, 0.03605608501066704, 0.7660411333481791, 0.23755957400914252, -0.12096032126206092, -0.9057938608982248, 0.31526242189813636, 0.13758718918500182, 0.7918061747109079, 0.28676690468542715, -0.3331235152474986, 0.7053340834912487, 0.6626867083386891, 0.5155203401771385, -0.2585060126071824, 0.0423902351347311, 0.10358654069650469, 0.5523418635281159, -0.6384299475215606, 0.34959681803555315, 0.5564428285230981, -0.2668817659017738, -0.6408768945923055, -0.5209668733512316, -0.6448491590187811, -0.4014175311513777, -0.07555286629654678, 0.178828918596581, 0.42309729901103044, 0.8623775065030401, 0.7590140928343345, 0.8895484172808126, -0.8673873178464632, 0.5497071229921928, -0.8204452364054615, -0.6383450705187784, 0.5469865200436795, -0.6214690430607633, 0.5077777541802351, 0.6373290928053847, -0.04814321482977473, -0.8774789876184483, -0.30025830900994555, 0.35841762031441643, 0.2625544579165068, 0.08788035237881885, -0.5247509558889181, 0.22048268893943207, 0.31759578893754636, 0.9758542933782229, -0.325149630987887, -0.08975228273872769, -0.4286979034597447, 0.12842514731530763, -0.5550430176315683, -0.6283980050222233, -0.5133855878116211, -0.6482709946921139, -0.2954185908177087, -0.8259872063791545, -0.29285028416540704, 0.9282389758737725, -0.5121610083923728, -0.5149330223487657, 0.7277363969843186, -0.9174705472552461, -0.2429562236395061, 0.11767983045747328, 0.4476147970727952, -0.9701813974399018, 0.48652083300778687, 0.874548978171954, 0.31440990028170424, 0.2174804671957564, 0.5890283217995465, 0.022060013783715818, 0.4444752212433125, 0.0066529555464916535, 0.5916815572526736, -0.9631034945502266, 0.5681260048085067, 0.16599053071439446, 0.6716949232365188, -0.604511361620285, 0.9336142786448729, 0.7410960682744991, -0.556552230537673, -0.18279660138755055, -0.8612145126981868, 0.8286617681859985, -0.3113497288613421, 0.5440080556357787, 0.35868949565405767, 0.23481676389360956, -0.23020012405543858, -0.1599635053087706, -0.19633534329697572, -0.7562562902567386, 0.11536438771263179, -0.2486563981472269, -0.9127741632966796, -0.6360306946656075, -0.25088857200098247, 0.244066246245054, -0.6616509580851513, 0.6136163791322495, -0.2504186682054107, -0.5549323744136148, -0.8978424442892334, 0.2415982635031665, -0.6514066459178469, 0.4004806071546169, -0.04595955133831226, 0.3303071056276877, 0.7543793752758561, -0.861600405451271, 0.1566050766753234, 0.7975326259836742, -0.6594249768105812, 0.3864261839571492, 0.7822883375201373, -0.8831289962637437, -0.18744957223446582, 0.05231184884978243, -0.7233756481286268, 0.30486150876540935, 0.1600624391715043, 0.7901583172829769, 0.6387117285902929, -0.5888713211316098, -0.3389243250791646, -0.4298863197090637, -0.0985633189038014, 0.7001809701178101, 0.8811804411355484, -0.9044245889806422, -0.5976330971593038, 0.700175089378912, -0.3345676881352161, -0.062305562119166345, 0.4636501623500268, -0.6999958236881578, -0.8167717443918177, -0.281171655946022, -0.14891687459226755, 0.866676847869261, 0.361611845961472, 0.4048993919578899, 0.8031267136386492, 0.23497194446056066, 0.01998991913125106, -0.029381838947388824, -0.08194364500276266, -0.7108488852096885, 0.017203174425514754, 1.2091991111290932, -0.6418054314022337, -0.4280129425196769, -0.5347012821707869, 0.18580339458331155, 0.7354395851108575, 0.2548342238656412, -0.10334379106299274, -0.7665080769594707, 0.28422914514275277, 0.3679909102060578, 0.31212173072856375, -0.07542206197314556, -0.8025146966828968, -0.7166715308508874, 0.7253506041527913, 0.7783098231952666, 0.9318433227192566, 0.06579320662095595, -1.0380490949248946, -0.6184897913112132, -0.20358862063912275, -0.5598584916201967, -0.15222583611978494, 0.2862939622665329, 0.6625815367146306, -0.7907599078394552, -0.6782682406752517, 1.0732985243642321, 0.10577897218422858, 0.5763498936208765, -0.1321991596001816, -1.0785195328678687, 0.6344797859416984, -1.0050267086379274, -0.9238038635109169, -0.23031290567552481, 0.46140878994652884, -0.8237217871392782, -0.7517590050723967, -0.2301879578383124, 0.7750855749480927, -0.6966496755885562, 0.2899410738046379, -0.14432248599992667, 0.9435118240252015, -0.36895671188365203, 0.9059063658364306, -0.4795831067880412, -0.43463907312372024, -0.9410726086158385, 0.4461735137671047, -1.0838355046249855, 0.4553642188881929, -0.4872284855704271, -0.8707515420861993, -0.7128420415384117, 0.9139114010982006, 0.6349291635512128, 0.24871000015676967, 0.6157000306802001, 0.37370042633632156, -0.20605590632021709, -0.8431200455338087, -0.8652762178255244, -0.08663373028071411, -0.6005323679668355, -0.911536227303464, -0.13608340340543768, 0.2764157626381325, 0.7844540913224265, 0.27695926615986605, -0.16423375847978536, 0.34886045827190354, 0.5804330651073999, 0.6618175228141467, -0.04452373242622628, -0.6447174274842457, -1.0292643785337594, -0.8969813074098645, 0.10136526217282849, 0.2808632800482033, 0.865056935833577, 0.147523217849416, -0.43527021521323456, -0.8088906728543941, -0.7552717765897168, 0.19171986237056962, -0.365505428401619, -0.3764101196523439, 0.20742148113906253, 0.38960195345396437, 0.7704439961701669, 0.2976940102760529, -0.1751842760823563, -0.7715986376377246, -0.7259515011726725, -0.7608161821560788, -0.9193149363171659, -0.589604869070065, -0.32388744110728124, -0.9188222250994075, -0.022171560917644297, -0.48618786829466953, 0.7371283631449048, 0.44591643341807924, -0.822691388551327, -0.12335212288736683, 0.6628410162467174, 0.5858006148788655, -0.8483480163228436, 0.6082182881887827, 0.7750980743272907, 0.9229718779990675, 0.09153396390507845, 0.7795685150749195, 0.2962574996536417, 0.8515928909287599, -0.47885692350386005, 0.6773636648412038, 0.19960637056445193, -0.6871000381765134, -0.06580003605785015, -0.4940307647448758, 0.7175167454720166, -0.457186506020387, -0.593786082594026, -0.9861622615414797, -0.4243612591631097, -0.9361809129117041, -0.05679511273994753, -0.7262026433532848, -0.719480151534723, 0.6396062551169042, -0.44856661429018674, 0.03423922155986371, 0.8188026609763253, 0.5394945245023497, 0.7716494548692325, -0.4298773443171715, 0.24527201916261432, -0.20480997831912875, 1.023509370726327, 0.40929315091462265, 0.1557045441071115, 0.2617862541783315, 0.1866414822608557, 0.8171195707091652, -0.9519590199648078, -0.840184134180567, 0.011742037471785604, -0.8132647417849095, 0.9242560590965845, -0.610602569008329, -0.7751972600607646, 0.9298001928863269, 0.9720004228816562, -0.20977213789803592, -0.21713771273162538, -0.08839184109841369, -0.3778170754944824, 0.5866039309284815, -1.0629913175614836, -0.394884994506731, -0.8889731330140471, -0.02847922657711466, -0.6658570353145397, -0.465525221429334, -0.7320271128956867, -0.18085100087347822, -0.14257721430984482, 0.6952681222754372, -0.923964433605118, -1.1133275878620166, 0.25569817110999266, -0.12517472872872915, 0.8034970597447953, 0.7995577438066332, 0.05854393590184798, -0.05728059934320905, -0.8697762971040355, 0.523422979060965, -0.049216084590266926, 0.7601067140463601, -0.6866379105243532, -0.592568345469757, -0.7638260485389041, 0.31466580123472543, -0.7624428044419205, -0.2824901426452642, 0.31939611066638746, -0.06651514406317394, -0.7043448763257361, 0.7056647256969268, -0.9131193270959277, 0.2995724994369189, -0.9209633963804897, -0.099494940655292, 0.4112885067693435, 0.31479307261010137, -0.6180023647024987, 0.602017885301326, -0.9591086180857458, 0.7614695478140249, -0.30596193442971276, 0.3610382008833987, 0.010189937963356129, 0.758782294296763, 0.8086560898194539, -0.048813029593608226, 0.3101246661584478, -0.4603740313191443, 0.5377316507066299, -0.261956832707545, -0.9284386624816968, 0.11548919349078099, -0.11712659027823255, -0.7423398920946462, 0.8300229694588999, -0.6980105512384263, 0.4460751715640284, 0.6065331946080706, -0.5779719170536296, 0.668089394740995, -0.861817315394542, 0.23655792091970754, -1.0700567770097895, 0.7085816829454104, -0.9344347095170581, 0.8529939010860216, -0.6682535223358311, -1.0443396115776633, -0.016094100737345803, 0.07423042066733179, 0.15122151985064977, 0.1167340849748744, -0.21490081528225913, 0.7274658957751703, -0.058762130755443565, 0.6777031805908057, -0.8370933926381432, 0.22550989366288204, 0.8293835383018602, 0.04287575566451454, 0.6951457243759419, -1.1058869531177862, -0.3737931989830504, 0.6758008377181198, -0.9739500342778105, -0.7547610011581828, -0.4198933251141629, 0.6405683581588264, 0.657573500104606, -0.7301025828047273, 0.39097096571228734, -0.8556568508296344, -0.6398791579191987, 0.7472335026790227, -0.4726326134995597, 0.4518441066458416, -0.4351524321940435, -0.7515135859885368, -0.3330259765368782, 0.33467864969813893, -0.38896117568011196, 0.8711470601213176, 0.6781003480225853, 0.9404614580183197, 0.5523804693340211, -0.48487065583183836, 0.4978635189794148, 0.4847419320168556, 0.2533349594111143, 0.8932679877187194, 0.8632638811829191, -0.5059974196341818, 0.4617288607431185, -0.01933894539072784, -0.6627544838037049, -0.31707169972961474, 0.6217582699853221, -0.34907324079073604, -0.5833997233300323, 0.6139027619584979, 0.3309724202464461, -0.4182154373922858, 0.7558270498415015, 0.8792641236214764, 0.4838656595773044, -0.8378894309234836, -0.931544971874605, 0.7697004806982928, 0.48700339107408197, -0.8468310222130653, 0.535898218587715, 0.3294386435199113, -0.0706162348641605, 0.3948081254400346, -0.13910718048247306, 0.3818751436286024, 0.7449515084635784, -0.19804557914385995, -0.861602505304432, 0.2800441076212717, 0.7797670799083948, 0.8682218809007068, -0.11582505554631127, 0.1078126128276675, 0.7033814164103575, -0.5521111280483831, -0.14998410794039801, -0.2771472276808657, 0.30177262932118487, -0.4333896445859095, -0.48692622999049234, -0.6609530381916735, -0.42142335500640166, -0.18652353276007028, 0.8266409826876923, 0.6322274669274914, -0.8712282073088979, -0.6307418101604547, -0.32059252879073497, -0.06290309202562773, 0.7408723296702978, 0.04765663015627905, -0.1653480838814001, -0.33083215069115046, -0.9304693795881619, 0.35620458032313396, -0.8826721411046579, 0.2360119900015784, 0.3198334633640283, -0.6362768257049055, -0.7924987190443733, -0.10476212004137048, -0.19515916611163744, -0.653333350497484, -0.6990139572230675, 0.46579339226601313, 0.4620355955369601, -0.49708851562131195, -0.9076026346649015, -0.3357323807491161, -0.41721621448716245, 0.11042069163402048, -0.7751003594062351, 0.02670247860347806, -0.2371951057189985, 0.7665905969310294, 0.601345065558802, -0.6179653048676895, 0.5626481551969266, 0.7731699738027984, 0.3125881730469069, -0.035638767654674934, 0.02990667774164431, -1.0071358519018576, -1.003713286945059, -0.6529102211408079, 0.2750441344198844, 0.4289299952945166, -0.8652964876271222, -0.8310926530075801, 0.40523474690291067, 0.6810917336981804, 0.34104214641902053, -1.043194586166507, -0.3325367874593041, -0.6463898571945337, -0.9793121546565164, 0.6791759913388088, -0.46949116716179873, 0.15080082810748127, 0.8612844041456513, 0.5372772867185439, 0.9139707150293344, -0.46235253433533163, 0.37269017488164136, 0.028894952730427963, 0.0824497453950583, -0.7647439640946339, -0.8461677251374532, 0.8478222762768499, -0.26492097540799714, -0.7577632525924447, 0.07117209682193351, -0.06353168159067372, 0.6407276450497237, -0.9790710919775828, 0.684769310435634, 0.7313944975883482, -0.44124196344103395, 0.7502842882586382, 0.2522606943537451, -0.0415005624272872, 0.37814534929599825, 0.4288283662702427, 0.6266217210869977, -0.8924121218759273, 0.2656500910048803, 0.7307668456822609, -0.7105298671024168, 0.9555242573310927, 0.8155591420130235, 0.7261745378009472, -0.8507598263311238, -0.9089852922593238, -0.47845280026388987, -0.39919419572409565, 0.5080132124438532, -0.936956960259243, -0.5818863903872197, -0.647539277710181, -0.0023506926261066996, 0.6260198052848479, 0.452281438025013, -0.15936156068968604, -0.30479699008237426, -0.16195838282379804, -1.0437965873068096, 0.5035487003342505, 0.7663437152943692, 0.7355340787473478, -0.6289229224556813, -0.9383198966239442, -0.6668055209276692, 0.5481706610750978, 0.1036404749941009, -0.37361117447465814, 0.684400238046905, 0.5370217480055186, 0.12492651842924474, -0.4907046546613054, 0.1284328857485193, 0.6914540396184994, -0.2704306781728907, -0.7373113710780067, -0.41173496206297133, -0.6884174132090214, 0.31860878508743273, -0.7033098940063423, 0.2550318463026577, 0.041118929354789634, -0.9277952979211189, 0.6797509030645873, 0.7923512824292455, -0.3320305885623276, 0.019953857719650706, -0.1151986860456628, 0.7390405432181154, -0.1193969267411504, 0.07133559145673865, 0.7145390978828272, -0.5401862880601142, -0.6760972143623866, 0.17721678175206598, -0.10845135482194167, -0.7368144660050655, -0.9225690828638364, 0.16901321365088107, -0.3735306294116756, -0.15226907655873756, -0.8240562241752805, -0.6590909769544836, -0.27733383734278616, -0.9575587955613394, -0.5230312435036888, -0.011878357352730075, 0.8084296458977301, 0.9562491933712381, 0.8929919491543905, -0.10554184130457038, -0.10420415429588538, -0.2111806205635404, 0.2702981455218717, -0.21684271037071093, 0.43382581991554936, 0.16637466061159742, 0.6094274384157672, 0.3040599154227029, -0.620269478155066, -0.9400827481430747, 0.25598305375374314, -0.44673551420530433, -0.2630127020920345, -0.2420661819479124, 0.17785150780880032, 0.17256700019833304, 0.7201264399474452, 0.10063030268103557, -0.5970681270934641, -0.43023528575173686, 0.44109094941410776, -0.5227268282813842, 0.8867225968724491, 0.36226250295981144, 0.7275061842043485, 0.9375453334725912, -0.5942878717818834, 0.7832436570849749, 0.9539907959052986, -0.10807884775079914, 0.40200081883873134, 0.3964606044172729, -0.45814977102286986, 1.003889100034684, -0.7854707597918705, -0.7539913211726871, 0.9149326964544896, 0.7369694497521166, 0.5736174229496553, 0.2988609692098922, -0.13305473818775426, -0.4952762445378647, -0.6540689006913956, -0.16209190733066015, -0.4655500716644734, -0.18137891743763523, 0.2934824377299863, -0.12340879684021822, 0.31585075500246496, 0.05459618685503309, 0.7852595311201207, 0.004516764269436008, 0.915832413990542, -0.6884213105896718, -0.35810164941436806, 0.400516800714223, -0.6723171875938397, 0.7363743905776536, -0.21190568871255783, 0.20782365656862414, -0.3885622205886644, -0.644189509875273, 0.6549400468841085, -0.9447624386921128, -0.21071289045522434, -0.5625345744053891, -0.6851174934338624, 0.5182004820202142, 0.7919973938642606, 0.6533575837103185, 0.04231132725309661, 0.2485869529089053]
[0.28792127941130974, -0.9728069427150463, -0.28840570478467176, -0.8286122024099618, 0.7734294193508746, 0.6540614077582945, 0.06328113670412239, -0.27536998993712025, -0.2935736335964474, 0.22643831143435778, -0.20036113490641694, -0.612778843550456, -0.5121317470007445, 0.2590798188878385, -0.06584483226529692, 0.06881614174875539, 0.3313853127180697, 0.5080613123510647, 0.4043911381857741, -0.7635512418586043, -0.38861623493971176, 0.5373777306618086, 0.9376350993835156, 0.7582137647285851, -0.8491301825284419, -0.35516249409928125, 0.4323597067921803, 0.3603008861850068, -0.9081209288555727, -0.5687544628000787, 0.7063718387033526, 0.32219728695688343, -0.5144649238615748, -0.8183617997882049, 0.362938090192767, 0.5758916558717817, 0.5454016138420241, 0.924597941312065, 0.738952394429259, 0.7266578460474965, -0.3758553061353455, -0.45535311498683695, 0.4250109187046602, -0.30895945547814446, -0.5673606687308466, -0.3475001284152014, -0.31407457627327556, 0.593661110784601, -0.35460843718297697, -0.9788171784307416, -0.7476285555788982, 0.3949748306042844, -0.6064635081220533, 0.42033490572723653, -0.5589727221971648, 0.3209527866761215, 0.03148734723897184, -0.6799740792619025, -0.7021398020899656, 0.5317779797321107, -0.23752178530509394, 0.6336220843282696, -0.4145802506782428, 0.7645090856036958, 0.33146336782921976, 0.9606004069573796, -0.20048414998582875, -0.3366754215567083, 0.4791934359848658, 0.058332806933265806, 0.1990922501214277, -0.47483648150571783, 0.4928436594997289, 0.24690182415589046, 0.6498982150019299, -0.667228654434531, 0.6181094552848884, -0.9589952421051817, -0.32099831336282775, -0.523092075326447, -0.17581748709059614, -0.16272851679995348, 0.7340612734149374, 0.5277491767092979, 0.45714694385835797, 0.3039866035815739, 0.3262602039345688, 0.6198666437510898, -0.09225552452353233, 0.16093357689730126, -0.5824926126603579, -0.6589742656511555, 0.6833253979081154, 0.8730814023095095, -0.2866022604015918, 0.8820986595846351, 0.559509738587931, 0.1277941876801585, -0.5103876868563275, 0.949753217151307, -0.502820785355685, 0.03401808480848291, -0.6814445215553611, -0.09269133268844744, 0.6849509047624379, -0.24724218407510956, -0.44724161988408495, 0.01603769676509483, -0.19452308691565398, 0.4650486819625408, -0.5383059878325913, 0.6827514198187601, 0.15352605834456456, -0.09428334345175737, 0.40962714380817955, 0.41623894185257104, -0.7437827662240306, 0.6955593191809665, -0.7132311746591827, -0.5236402564635716, -0.9431662392762948, -0.9199333309885926, -0.6185037435854328, -0.2997413111943595, -0.9136517378666398, -0.7693077101647804, -0.8436935621590642, 0.46024905244013914, 0.3045833107750724, -0.7654863977008077, 0.04638805227904655, 0.5753879717634844, 0.6822468566697996, -0.8373372194333069, 0.5781011448111708, -0.9745272422671549, -0.0691385952899767, -0.6823646165607983, -0.998681057010029, 0.14930932168584432, -0.6399749098036096, -0.7756306324367268, -0.2319501302714826, -0.6774917413221628, -0.77204531681095, 0.6834755661832852, 0.2815889779750004, 0.8183063323244917, -0.39490641589452197, 0.6606934401428082, -0.5911190529739397, 0.5623881064724956, 0.4829739712594003, -0.3121481350744526, -0.3104028654468033, 0.08501411036134246, -0.03345802501378763, -0.20283722908892668, -0.6238168542205673, -0.08757096147403653, -0.671642065476541, -0.6497474571093593, -0.9139195776204359, -0.752938441465694, -0.9414190692234496, -0.8504585068732476, -0.47751253893221374, -0.3596754710836678, 0.11063331485361516, 0.7777724342444783, -0.4294843728850612, 0.6478200662215858, 0.5738005639352375, -0.7629442089980646, -0.45883987103065255, 0.9265933954353198, 0.07587454901498505, -0.3863066031452846, 0.24213602956633462, 0.4063816970343487, -0.6387906320285018, -0.088889206165975, 0.4655388191663695, 0.6204652000071755, -0.5755678225600671, 1.1404090799073061, 0.47233184456412475, 0.9139639428957782, -0.3257624217722133, 0.7910768609244162, -0.48531059160921464, -0.2901280945317036, -0.17029549729201066, -0.27815972328197297, 0.9739009033784513, 0.6795099283313785, 0.04277309685136645, 0.19868290270134106, 0.5697081449214721, -0.4382828926925056, -0.15728099741681426, 0.20724778714237235, -0.5844956906293791, -0.6348684057645375, -0.8082377225117999, 0.4154066018620027, 0.8101375892943324, 0.6574476954930836, -0.5269345440994583, 0.46263942086961135, 0.9996051809938574, 0.5026944146092914, 0.25260601508196157, 0.5749822175044589, 0.1526228629308568, -0.8726645456737356, -0.6790777637065214, -0.5041740539500764, 0.12873059582681973, 0.7946135062122854, 0.1130902031289755, -0.14638427596811696, 0.0884960701139394, -0.5772818310555713, -0.30612889310405755, 0.7213812084898901, -0.022365463543629338, -0.8209412046016158, -0.4357642456462061, 0.3420114152630133, -0.89957372341369, 0.6939523911479417, 0.22331021429788508, -0.33107709878707037, 1.0218139346115884, -0.1140932745199167, 0.4728982625033119, -0.035002170868577626, -0.21719101327298587, 0.3490484573649171, 0.13952001183478932, -1.0391487011081453, -0.6842131498432437, -0.27172358930476054, -0.4838073554622172, -0.5914647394958213, 0.32639877905918735, -0.09646075556577818, 0.366666357861171, -0.8395715261903115, -0.009641724175260496, -0.9132928133735104, -0.6389634840292377, -0.6584509093831076, -0.7973548263916272, 0.8222312945705044, 0.7570602451829588, -0.5370917812674164, 0.04442695425949259, 0.4627335709087749, -0.7938289169582282, 0.209149112666004, 0.7302874286638363, 0.05924280907743775, 1.0666558718237866, -0.1539103037286505, 1.0210905307631026, 0.8755045628763716, -0.17361655847415533, -0.8619689229135578, -0.37926946212206175, 0.5945787533960935, 0.42331859723695897, 0.3320291231089893, -0.30084566185409856, 0.49627114162043423, -0.3532424388910086, -0.4418182088776375, 0.6536092614493669, 0.9200559731081465, -0.15664682162074173, 0.16962869807352715, 0.424023659239788, -0.9919472938827596, -0.04973961189783551, -0.40468591226362577, -0.13973362937485942, -1.026732165160029, -0.7811426275053566, 0.6580108438069519, -0.3253504236247839, -0.5002245646833702, 0.4948185663702256, 0.23486050299904887, -0.53248712096014, 0.5130873955019737, -0.3304933132109843, 0.5542461302608981, 0.28393087920725263, 0.5937864335909915, 0.14323703151942907, -0.3620017084640914, -0.8643026846690713, -0.2822043012288285, 0.31920983072949377, -0.5874908734697023, -0.29844931564987814, 0.6738334460885543, 0.8179695571988146, -0.1804972666144132, 0.07651770320749933, 0.025869252005359913, -0.05703133900479449, -0.09558428715217752, 0.23086678286041865, 0.20607411233829392, -0.6062896560165696, -0.663919563535763, -0.06424171901440845, -1.070916483011398, 0.045338609258224465, 0.9059983630644591, 0.5411550839044649, -0.6848892615059684, 0.21816397223739306, -0.09041563973234192, -0.8148072509336988, 0.7999507292080866, -0.5745848023539498, -0.1444909974480318, 0.8902171657497651, -0.6448076682356769, 0.22979891101796104, 0.13371573218159408, 0.7565449814539977, 0.2942374591930719, -0.7797380466201915, -0.3357797975621028, -0.7443629675449809, -0.029481174646289836, 0.5808076428776674, 0.1901676073375823, 0.10410739805231616, -0.03533261781171539, -0.20582799976861715, -0.5646490969977899, -0.5213436914617915, -0.23150073274758226, -0.06488379754471653, 0.6184470954647412, 0.14943003076026135, -0.00827981334587461, -0.17777252850287897, 0.2666951499835227, 1.2607248493879544, 0.5511711378756902, -0.0320079954786789, 0.23703483537009318, 0.19664091467842815, -1.1341162238510374, 0.2353977530757191, -0.5521444317046726, 0.4897064173236497, -0.5930438750327793, -0.19497473075109895, 0.5496866943005249, -0.8613462632958573, 0.240620300827131, 0.39228287252694516, 0.10022785282486128, -0.6851180582971836, 0.2779846290453302, 0.6783521475430859, -1.0954968794098983, -0.10523855745270384, -1.2552986851846013, -0.7087373579614431, 0.9695968552687798, 0.6635259315663867, 0.5547179586951152, -0.023227840589135153, -0.5648026567516432, 0.33185348824953576, -0.3645722419119166, -0.34815386751495353, 0.14351247896770633, 0.3582081520864446, -0.43832854537743526, -0.2811744213516975, -0.431675567778326, -0.0032127147224655897, -0.9335230739762457, -0.9402298801940356, 0.8489625971074328, 0.17732090979591553, -0.6132956811111314, -0.7552258516666702, 0.08887273560236546, -0.6387354124319521, 0.30388530194834645, -0.6751452879927247, -0.9556059879867725, -0.9583621668065617, -0.5041608707810663, -0.09693577225999099, 0.9265482429858191, 1.0384440819058318, -0.3036566192367028, 0.22577680815464843, 0.8081382507244012, 0.4272377094992065, 1.0452488123800794, 0.2620891606181347, -0.8290397419372884, -0.8442733212543646, 0.03461127337315008, -0.889729651222521, 0.12030662627530389, -0.2932709121844811, 0.33462008039453517, -0.17715195807035267, 0.8872646317999995, 0.18187457959468586, -0.07817124891520397, -0.4370710055839369, 0.04976660339357003, 0.8865384761572419, -0.19268223885060226, 0.29593019704901835, -0.975035236421273, 0.23906577095581513, -0.3610681112927593, -0.7053138368314203, 0.26148637742979575, 0.4026363816003055, 0.1611968206852034, 0.014078632097695765, -0.19840844605787333, 0.5661163816386755, 0.7178240252360406, -0.9841128543429399, -0.4250526986773597, -0.6537830675331578, -0.5700352855660636, -0.3345996246781558, -0.8337969074230526, -0.16094112702591526, -0.1725646345729559, -0.6717324709150672, -0.4931272338814736, -0.7323779549756286, 0.91230520016607, 0.5945103653154968, 0.7448860721591779, 0.12426325117259482, 0.14975920193351752, 0.07963433989750522, -0.9559434080409615, -0.0497450048479403, -0.3663924191185289, -0.08483105003439399, 0.249041439644461, -0.48828278235490735, -0.04684824101678889, 0.6585890813555986, 0.7462983378840692, -0.8135188702660137, 0.13194780514270982, -0.41268801929963833, -0.8939467519368653, -0.4658043364481258, 0.17310295714927446, 0.3918488743414391, -0.8509244063645304, -0.7043253647247962, -0.36116940537347686, -0.044295129646830134, -0.0293499540561184, 0.6316634623706014, -0.9366432904498181, 0.37093886074009547, -0.17494440680524423, -0.228478162084012, -0.7106714139280769, 0.7283727222334965, -1.003380949071114, 0.5739253597834205, -0.415627028455515, -0.4460718367088069, -0.26010601352948487, -0.07004092304055895, -0.4884735964869303, 0.48199795913730126, -0.004042714241429575, 0.3072672216844705, 0.21425393711664478, 0.713424858382475, 0.3673311782935997, -0.924177633989891, -0.7066131959771926, -0.4891665234773281, 0.8159865017848784, 0.3533777942508008, 0.050527015143358826, -0.29164671832311106, 0.5532506389375569, -0.7599065866263679, -0.46323414647390904, -0.9031325782907805, 0.5704919981140295, 0.8519870904254504, -0.6760252230754658, -0.09038167142125567, 0.1186543162181736, -0.6803744822241823, 0.695906744514405, 0.28876172028300456, 1.0446586901517423, 0.47589245331379926, -0.20746701645108728, 0.9141433043604873, 0.7302747643256862, -0.7285028082936772, 0.19160984576832055, -0.5471055497274879, 0.26804337461088396, -0.6017652099712891, -0.2570589393317843, -0.3997464866774539, -0.620161910378259, -0.3427910369792234, 0.03392410210625949, 0.37289525505259347, -0.006931244616679155, -0.16377311994923396, 0.19425211216376562, -1.0339194678758612, -0.19331716066853255, -0.1896827783597575, -0.5888602733456492, 0.1519824066967801, -0.2339765235681951, -0.8587911384295512, 0.19724138626099047, 0.28503683303596483, -0.06976770707698898, 0.5335709748650938, -0.8040940288457363, 0.7794283890559317, -0.34355343727624604, -0.11813723155157023, -0.8801400799196615, 0.0143493111651031, 0.5936209364852665, 0.10193598600836677, 0.02547762399496927, -0.385347836818164, 0.5133963770937053, -0.5828207767460708, -0.8775039912508649, -0.5649767112292012, -0.5196660510166178, -0.7634165779689658, 0.789879697667958, -0.0312121719062806, 0.42815711647108695, 0.6894024979565968, -0.22190248332910814, -0.5749016151195002, -0.351392378884528, -0.010609114495748495, -0.2089722318085972, 0.598108010396364, 0.6062011995786216, 0.7988068347263048, -0.6330496724241083, -0.42148649977866365, 0.9331870244350449, 0.857822198889131, -0.6636258815922021, -0.6859438049300087, -0.22947258930105724, 0.9316378273820488, -0.17263675660022737, 0.27106619223422307, 0.5887044147038674, -0.3143552469478582, -0.12100861903564564, -0.8694245363296234, -0.9424692752405113, -0.4248619217355641, -0.6499576901373145, -0.6667129571848293, -0.9706335720192862, 0.16433189416440394, 0.3418367670864645, -0.837808678323928, 0.6780926894402193, 0.14859017955457707, 0.6264177212606324, 0.3383211668736131, -0.055250026561978215, -0.14398204930600572, 1.1119757998876516, -0.8074417270316552, 0.2589105409342062, -0.9328355275980204, 0.9137904192063426, 0.6518688524629134, -0.7053923361361966, 0.2854896624387734, 0.24667646975532037, 0.2546635222674015, 0.400983854357949, 0.7330097878616941, 0.32828443542423, 0.5064912098720329, -0.8073810766391429, -0.936292084317337, 0.6316094835525322, 0.18605793747655575, -0.7575797840139418, 0.3725539633894886, 0.5310952975181666, 0.24290346556092368, -0.8357229137805652, -0.6424328203177211, -0.8095416300484197, -0.1717571987790755, 0.9546881346995209, 0.244000430712448, -0.4326136173440369, -0.6572887078984516, -0.49437365395639, 0.8442674515446059, -0.17771401674911128, 0.5481201141756024, -0.3539620580611516, -0.44206496834610076, -0.12158538326427465, -0.6889317941049323, -0.5999335358118082, -0.16072313760353607, 0.8996500634867239, 0.04743592011764508, -0.14224394485837455, 0.9097641565184535, -0.7200778259898368, 0.05947308121209592, 0.061353093381542864, -0.37034834342944684, -0.3159159728227211, 0.48316001677877873, 0.02486927665606693, -0.08941578584635866, 0.5795388916016513, -1.1565550592291267, 0.6037348612549063, 0.2781881270767015, 0.03665047057038664, -0.6058742660132712, 0.10160072247952837, -0.3554525277244883, 0.17388734917622398, -0.6021674213395235, 1.0277091583139581, -0.49963532082312834, 0.387255199371213, 0.4675864003324138, -0.12147334800392336, -0.9680919678930666, -0.4288341529200477, -0.7069190250981683, -0.29400885622893647, -0.6721909867379328, 0.9296658825710481, -0.31745420827716464, 0.052515445625863015, 0.808351097030445, -0.06132161794157118, -0.31969996810826584, 0.847177122193058, -0.9532023210482291, 0.515662767475917, 0.4505048145760281, -0.8182244159831125, -0.6166580305297577, -0.9096069917122634, 0.605246960876099, -0.053787665920131386, -0.6335088257643372, -0.9739046073808194, -0.2662940580947983, 0.462060947047967, -0.43620602919676005, -0.6760311586099799, 0.9357871277751401, -0.1537286910502865, 0.39383857816580026, -0.26951337015979115, -0.07233173538015958, 0.8856629135106913, 0.03936448573111617, -0.3508942992808889, 0.5221012454067927, 0.015565161569229545, 0.6950574813357131, 0.3159795898762937, 0.1706322439598702, -0.31567785241430546, -0.7700738190335692, -0.7020034465301406, -0.3764977436618335, 0.9195564971725568, 0.7455791204904677, 0.6206949912862382, 0.23015515105007203, -0.4105585426908544, -0.13730988650331272, 0.23005116316110347, -0.6811780975539341, -0.5692489620298619, -0.1533699842957823, 0.5512635983793763, 0.17461272924230303, 0.987373625718605, -0.11544276580066737, -0.2753759211435223, 0.06762806379798869, 0.667003032190878, -0.7063933236845492, -0.5710228736584428, -0.6309929804021908, -0.6127360133567109, -0.5744863274241792, 0.16017550498010139, 0.9793302083917165, 0.6445459657424862, -0.526443707800586, -0.14558836956380047, -0.5452136797199838, -0.046192555650996864, 0.8843298120526842, 0.021334602427522473, 0.6459567826903443, 0.8324044491628048, 1.0210373262956058, -0.7337729469204495, -0.04305877630144494, 0.7390267547900355, 0.6445017196119306, -0.7149766019013707, -0.4153385486151351, 0.6315017670033358, -0.8365174671290243, -0.7589957312222559, -0.09534002338093206, -0.6222920526070659, 0.2926017894881574, 0.6219888471111636, 0.7596366857463881, 0.48700121163361465, -0.9750046276170026, 0.9565419478814208, -0.21547275089142873, 0.1316947531471326, -0.48091840332774327, -0.6261482771953426, 0.3772761079303076, 0.22334385419208289, 0.5674612765666919, -0.29095122303816, -0.5268375846135647, 0.47736774044728486, 0.4539439858639406, -0.6080557516622306, -0.07541749518932982, -0.5984225219858093, -0.9664657686521486, 0.26452937968861434, 0.08642228772343219, -0.05556914857588424, -0.39011851027481503, -0.48440854620415275]
[0.4808269922775892, -0.8459881679355987, 0.9247449961758862, 0.6677627735690999, 0.1416767555801406, 0.7236984466214318, -0.3195367635823301, 0.48696325668116125, 0.8459276902865358, 0.47754021505078303, 0.4582621807249079, 0.4873101020676456, 0.8124250249645255, -0.03563708871479476, -0.1985770034602985, -0.41286417891102434, -0.1349178245065239, 0.2041156033546887, -0.8943006745912279, 0.9463513866692883, -0.11955321731590862, 0.3271414681630933, -0.8495239846529472, -0.6204974712453557, -0.5425399727879696, 0.35716507881646864, -0.36476761061242846, -0.09511748206535175, 0.17885413212856638, -0.28894425901252907, -0.07623698406231316, 0.9685818592921909, -0.4222249051123472, -0.876808610280633, 0.34900106752773885, -0.32663113932779275, 0.979857394546986, -0.35053066794466825, 0.8940881773499751, 0.9456482178427814, 0.7600028082750477, 0.16607259484066722, -0.15702018240648924, -0.006646230923379863, -0.7674811618597022, 0.3488428167907502, -0.9330095349166946, -0.38669856202566244, 0.40947128972044644, -0.48933204151620213, -0.938012102522273, -0.9793866928218411, 0.08668831379201847, 0.8509947154478703, -0.5281911006684594, 0.587091934586335, -0.4950374805221238, -0.2788845827482236, -0.028960356387410346, -0.2896690690750976, 0.5507878332548886, -0.7184841682507794, -0.3700238472016828, 0.3815073133849191, 0.8788755904616307, -0.3976285812869079, 0.5786542318904, -0.6234912970958304, 0.7940786388416937, 0.6680918262053459, -0.26667909190395467, -0.9124318899206432, 0.74708566104858, 0.16753730599422814, 0.6626065065147116, 0.857493943567556, -0.0030802142828970434, 0.4003790748668719, 0.09627108407715926, -0.3319607203043346, -0.4245928581089087, -0.02764518847564057, 0.8966523484045734, 0.07386267403532654, -0.07678827442630531, -0.5394845167762814, -0.15308353223497484, 0.20362003683206753, -0.8176714120004519, -0.07711992268122815, 0.8565905057107827, -0.5874891504608115, 0.6258601747094584, -1.0055624508971526, -0.4697204656767951, -0.69718145059062, 0.8247745141366615, -0.9042601312403391, -0.6630165023116397, 0.6271995983223492, 0.11909802163587413, -0.8145639941045901, 0.586522892586437, 0.31997397777693803, 0.5755262802165299, -0.6669641785260135, -0.025866171851103372, 4.023070117498695E-4, -0.3006866808419625, 0.3984750943266335, 0.8129910695999725, 0.817353866159974, 0.8694624880720827, 0.1458232982338139, -0.4879890840883758, -0.27853006103244005, 0.7865991036120674, -0.23637687793992396, -0.5769238811520112, 0.005905308128973325, -0.6126228559825783, 0.18280156201619618, 0.2844002237160498, 0.27134248895758956, -0.27558009281114465, -0.8830480229612189, -0.5295475384435995, 0.7212482624959126, 0.9197227741761074, 0.8912231813975171, 0.448887752322709, 0.31315382366489425, 0.4540979774212567, 0.76175396731279, 0.08471680299023826, -0.7313708983032113, -0.5244689121166112, 0.5084727624169945, -0.7385564352043688, 0.488572257288014, 0.6297139339997602, -0.1728190307251476, -0.037515182022768157, 0.9102954897151354, -0.463642723008431, -0.3733518843549098, 0.7195468598832794, 0.289925875051262, -0.7021865682286969, 0.2930768578038404, -0.55109986866141, -1.0026380370702925, 0.1127590487928581, -0.42484465104381075, -0.35908536322375784, 1.048800019270439, 0.252771706496953, 1.0027498735794684, -0.15843037371033653, 0.6047054035739862, 0.9792861383702646, 0.28907539930936793, 1.0323131864740631, 0.8859828703688365, -0.36949029496991015, 0.7449342028204566, 0.2717176263591019, 0.4813294231253953, -0.48829109639453305, 0.8414006793585929, -0.14615951935568677, 0.6680780711358609, -0.7706881024784603, -0.11361161896425923, -0.7025652964887413, -0.952864217286467, 1.126355811601136, 0.2461178870605296, 0.3352974622664354, 0.45070039197244405, -0.7621367166152184, -0.8216358010332748, 0.62748277940033, 0.5437922740370931, -0.7469981283089651, 0.5846636950779385, 0.027486838571204576, -0.3102170743556333, -0.7433049066975531, 0.8488156183924216, 0.010999556061298595, 1.0340170714253223, -0.012725780944081439, 0.5683460147150825, -1.8606582774045226E-4, 0.8641852515712062, -0.32965886348515505, -0.3502903856605276, -0.7760243984384992, -0.19525613023855884, -0.05477831074834357, 0.26554152486444965, 0.6314663652442374, -0.24024437234140614, -0.6729921432985027, 0.5887503374319674, -0.05782535547013244, 0.20141977264997588, -0.7095285072207788, -0.07894669792235073, -0.7278873395600592, 0.14790430698489965, 0.9848225720868761, 1.0973393202762665, 0.25054580996202663, 0.7572807642938273, 0.7050113059554781, 0.28608675698064295, 0.06951757205641072, 0.35544042229642925, -0.29169706926600675, 0.3333692723074119, 0.7568480532502974, 0.34235035669895386, -0.9334574312807411, 0.39476831547112967, -0.824538902293367, -0.9398268792665418, 0.471282600058788, 0.8310743241282947, 0.47473345667834893, -0.36682099699266624, -0.445379756766242, -1.2002835082284733, 0.3214282883731839, -0.044391735189706245, 0.8870190590208734, -0.010223063096712644, 0.7247438517083129, -0.04247528656236828, -0.476580104388303, -0.5741773726539066, -0.20647354551461658, -0.9637860542944198, 0.41279593348538124, -0.7414785854867306, 0.09268116508663855, -0.4281192912547925, 0.9467406874478741, 0.327813228362998, 0.04256542467860802, 0.8816169713735753, -0.6540286577088982, 0.7077544947990807, -0.9141101591085785, 0.6924460566958374, -0.3833083953541255, -0.040430883646150315, -0.23793839832987, -0.9135947645851872, -0.5964308496875703, 0.6475431582975574, -0.3914433242203568, 0.4059180717196242, 0.5972701208286549, -0.9237308104494978, -0.3191560110994345, -0.4080106469263794, -0.5475255597049716, 0.5404530005372448, -0.7816084289358828, -0.9532802777409076, -1.079524299745581, -0.650339581675794, 0.7215651958163233, -0.04965958515841972, 0.5104523027300895, 0.511803878806317, 0.16086815641272853, -0.7525961450943055, 0.9179208714878888, 0.18572870370603037, -0.1750861654375958, 0.8976943699300254, -0.11194119507771072, 0.7240752795675467, 0.4499319131994732, 0.3585252643125161, 0.517142265648849, -0.675914233778015, -0.9947556364744615, 0.21416244162328246, -0.0671276838596281, 0.8553105303446631, 0.5716402787377358, -0.29583676236686146, -1.1657640582446887, -0.07550566504727745, -0.7151811290178607, 0.321606093002603, -1.110343736406844, -0.07326953428470731, -0.17901827583812405, -0.5928682309776485, -0.024015660964610674, -0.09444419673228528, -0.9942623035607483, 0.4019742152748188, -0.8033778870973192, 0.5358109105431492, 0.5161256278736188, 0.6985334487043853, 0.2612499630610693, -0.094609446191055, 0.2713336925777961, -0.44609189044260217, -0.15059206014114745, 0.28919666372813224, 0.8034089960882915, -0.06516189077578247, -0.4607509645819151, 0.38157772193940104, -0.6547031881725744, 0.6244923125150268, -0.3143126044006692, 0.3570530482207808, -0.5870672011870146, -0.7882878811657218, -1.1977331394794215, -0.6537158394334484, 0.1977976574943132, 0.2576005633785806, 0.4775223543960983, -0.3867715717787132, 0.9335429885302983, -0.6509692200442907, -0.16390229427057768, -0.4156776817426402, -0.3073517218517337, 0.8883482696035658, 0.6124407266923504, 0.5741758970466777, -0.49963763988966364, -0.3144727281737305, -0.8402844862049996, -0.324308890453046, 0.7525634927203809, -0.9155228761692507, 0.7702500471709649, 0.7781153613642089, -0.07384782917626595, -0.4367965006721852, -0.8396729670103725, -0.2593162430289488, -0.309191266407017, 0.301698775867689, -0.42106673340336964, 0.3947882315710837, 0.7277069049451534, -0.2585326475679004, -0.8224170135811297, -0.09258468832009716, 0.8425789471665854, 0.34983664909122214, -0.15350910641169935, -0.5521694394889763, -0.8449918126923994, 0.20660947014136136, -0.7890690841960046, -0.895906413413487, 0.7588398040908259, -0.202612792589927, -0.33554305175237614, -0.8023325347263661, 0.06996088021429972, 0.43284649180650686, 0.7008388749770119, -0.0025317826130154255, 0.773821566139073, 0.4208778308361518, -0.07412614532535666, 0.3575476910309947, -0.2965083239837442, -0.5804374031913839, -0.16101785109755942, 0.9061659588674782, -1.0231536248997681, -0.9344330333618124, 0.7680079176485545, 0.4048859113169396, 0.9300867283159299, -0.5213910979294074, -0.2761222370126455, -0.4141245189318237, 0.46167964899668334, -0.9165462062977647, -0.8310734872689933, -0.2658676458936588, 0.09239563436453431, -0.17371614112468556, -0.8640902616861118, 0.6910767386763886, 0.1685071168171131, -0.784915012757259, -0.7881391046389201, -0.8403983838507106, 0.28720874150637604, -0.8339560312212843, 0.4122077258147414, 0.5272384329813826, -0.8271499126081145, 0.44635089593712407, 0.273746297549834, 0.01952754117383847, 0.14363081764305274, 0.9279256752357533, 0.9066638080182067, 0.01930326677605854, -0.36849875010399585, -0.12764305017782007, -0.8427787612139834, 0.9727551658027642, -0.18553525933668308, 0.6446568039013961, 0.5643316402823623, -0.8836431694594086, -0.3054680630728203, -0.6521558265052109, 0.7292506582392343, 0.19193593387428393, 0.8366379066529228, 0.22492852198043106, -0.6997904868316799, -0.5759785914033325, 0.2200903443049106, 0.5310471810767267, 0.2626329804704492, -0.16285561182462244, -0.6052291645602632, -0.6210405454831028, 0.04918605750421206, 0.41914141545649103, 0.7715865482755372, -0.6726768009315526, -0.7090926000718409, -0.5853334500678465, -0.16281958962663579, -0.18261540062515502, -0.5047317960154147, -0.5044733031908679, -0.752136174236382, 0.7241778733750446, 0.747223194670571, 0.8771888006074722, -0.0302637687350305, -0.35968470303559497, 0.8616163344699883, -0.7279114422239057, -0.9180012450397695, -0.0911390328192533, 0.32166363099072676, -0.11521335276565962, 0.5914847155764305, -0.3496949343034613, 0.20203483374218317, -0.2794944497310102, 0.528982707790256, 0.30958365211604993, 0.504589549325093, 0.6017230615242358, -0.06433131559554985, -0.36524438203622367, 0.9663984200435038, -0.3340698102418233, -0.5924133501031807, 0.3677139173742663, -0.0371690978312762, -0.5312052668813574, -0.004699194091341877, -0.3269950626227826, -0.6857904726431431, -0.27932384949390765, 0.13062567323796484, 0.17551680951960058, -0.7355337972869908, -0.6385240704814831, -0.010846733983550292, 0.10072761756491427, -0.997412305197243, -0.6290741310451685, 0.9244194901300881, -0.7906478259018683, -0.1405969366496618, 0.04682111409976929, -0.39167173843919156, -0.5465155422164782, -0.6914655031368349, -0.8301247161186698, -0.5970681444318778, 0.4013876425963117, 1.03300685961271, 0.4471779944542463, -0.9885671748191196, -0.5948099583741694, -0.38996670626479, -0.49676558708093155, 0.5589497773096256, 0.08989382149059261, -0.8736939606328881, -0.6925225500624371, -0.926641830684452, 0.6794276512676234, -1.059096839301865, -0.11544949658564052, 0.28385193541619996, -0.12152100698855253, 0.6628512150086718, -0.10930658235399061, 0.15783357708660017, -0.8354396581111135, -0.26101043397382695, -0.5488760836241137, -0.08298457749183699, -0.8608054243406376, -0.2838681903880049, 1.012908358139178, 0.5258574547175645, 0.5361179616135505, -0.9131268967526964, -0.5999364546070252, 0.8118430982055177, -0.952763348143177, -0.8402547763506161, -0.9575316162209107, 0.5143478957497511, -0.8776417204193881, -0.17491054809818452, -0.4764975085250062, -0.7754127486880424, -0.25728742681887606, 0.8625322971990684, -0.3269905947848564, -0.4802684573401971, -0.8577583356598436, -1.0354031370982757, -0.9738139669675837, 0.5584187853320299, 0.047619064048893746, -0.10226807091450446, -0.7982873310099182, -0.09882277898265734, -0.720334426978619, 0.7340342258864615, 0.08545313739494162, 0.8692885700663485, -0.2899706153802877, 0.6380037604737581, 0.6640864082770205, -0.5083388566272307, 0.6565698725690967, 0.2875673505645049, 0.647145510510968, -0.28196662949519496, 0.4974294852017231, -0.8410618973449117, 0.42876631521541964, 0.4288998346523324, 0.8808546329732083, 0.8770794158205615, -0.7174037539422451, 0.6639591267224966, -0.3021497514535742, 0.40628863099377405, 0.31596476221768777, -0.5840596026825953, 0.508847415354831, -0.7544172380538344, 0.5500149891930621, 0.39377332406647925, 0.12289780422224206, 0.6853809214287899, -0.7224253601458873, -0.3175348478081213, -0.6297591214518437, 0.711505799563549, -0.578641363087986, 0.6015747998786222, -0.5430776607375656, 0.42536939399392804, 0.5500467965060034, -0.15884702114954527, -0.43436038807466737, -0.11315718521310936, 0.9312083262761591, 1.0232093945543486, -0.6098464215788726, -0.04076903160243841, -0.7689931389564089, -0.33460053721781396, 0.06726952436705311, 0.023160838016515504, -0.22436593333562313, -0.8573304269155894, 0.4729227726581333, -0.31758228621605217, 0.5983906563356344, 0.5829630292175575, 0.8066777877818768, 0.1795951627867567, -0.6926337311565726, 0.06962447463454491, -0.6648226749977552, 0.1620727663655255, 0.26875058539475116, -0.925535969597937, -0.7476450224629774, 0.9235266263217887, 0.14107124164153473, -0.03467124690034036, 0.2207761628636594, -0.42539542807839187, -0.8947487693416515, 0.42652811824086795, 0.4684643416052963, 0.09525935239927061, 0.09989543781991318, -0.3079543378612618, -0.014108996886036446, 0.22741956349315953, 0.4553627495851612, -0.20683623040887622, -0.35588268974098586, -0.488545518303819, 0.5831860591680442, 0.3964842974533867, 0.6517910805760967, -0.3010511377053386, 0.18745970901120104, -0.5104619445217853, 0.8942032998292885, 0.7965934459293492, -0.7984925764495738, 0.4942433075340078, 0.6957566420185728, -0.6613611714884506, -0.13675773514813816, -0.4609091891131851, 0.5004632020567561, 0.6377141208319302, -0.07414938562471401, -0.5566598427584935, -0.3919509212797296, 0.37951078161011575, 0.27657607455573935, -0.39216092996497387, 0.7327685658593767, 0.2965224772061154, 1.0914348470421196, -0.821855971574931, 0.3568283630792153, -0.2956659792574996, 0.6204374023290666, 0.125447708429715, -0.4560668229631356, 0.17351107786024866, 0.05332542943199022, -0.022004034024871316, 0.6262101508848666, -0.38231551186331103, 0.14436320760617763, 0.6324404655723461, 0.8529654245302216, 0.7326571194121672, 0.5106399842909699, -0.48390336365800013, 0.19076748733119733, 0.15392219177113212, -0.2595811291153135, -0.288312065144799, 1.0139202566389989, 0.7559057330428361, 0.16817480037670984, -0.8054204076368774, 0.7307093277818191, -0.3789048752612846, 0.245826438496898, -0.9697531800158952, 0.7669883587649334, 0.6323272138967204, -0.6040355858246255, 0.8321382144665682, 0.3864852683814699, 0.2073209258642716, 0.4211484031656938, -0.7736187684091461, -0.810020233108576, 0.7193743828409894, -0.24341831641492317, 0.18151649147973714, -0.18545746256835716, 0.17598438695278196, -0.8835689744473036, 0.07453029208784234, -0.8252565751009748, -0.1079237421496653, 0.8030102491836634, 0.3949130668523766, -0.7568818169378082, -0.2671775680740232, 0.6918174121898863, -0.8756031250829922, -0.8811811690723235, 0.7268841762225678, 0.2973639815390932, 0.14987745272895886, 0.8490720572263957, -0.5845658025239068, 0.5759616276029349, -0.4096086868322743, -0.16535689070692658, 0.19607466576464155, -0.0699023893782383, 0.6597950561881814, -0.7350822819928478, -0.560273682922727, 0.9615124558173427, -0.7527299995450112, -0.14089967298303852, -0.8587436271949702, -0.49606742118294966, -0.6723744169545807, -0.3779671047398694, -0.6365604523170023, -0.8265981321432075, 0.029300468377959455, 0.02719657617487236, -0.7685068786536987, 0.01694004862578808, 0.6498617164723651, -0.08216078738846952, -0.0042027431195989185, -0.7990330092862656, -0.38516784148521704, -1.005421211331125, -1.0028074563306413, -0.04514226730209858, -0.131860521096444, -0.9259274861908148, 0.9096513129318232, -0.7530182496700535, 0.6173192474837819, -0.032946371753929476, 0.5681666563629797, -0.4076945905181206, -0.08690513255413701, 0.08389416350643031, 0.15614992925440285, -0.8540861389288625, -0.5134426821748959, -0.8361999556390338, 0.8338975496485426, 0.26253485400188725, 0.1711163845383461, -0.5191677413750061, -0.7939270386077434, 0.8144266013892428, -0.7877628619334749, -0.31575216937698336, -0.8858610782652359, -0.6273711900300725, -0.7910523647415475, 0.9340560042852883, 0.15078729506437238, 0.9584280699921356, -0.562596275379295, -0.9470663755128339, 0.1270718140951741, -0.6279000280289583, -0.4725801742129519, -0.6411518443778355, -0.18822266556543688, -0.9991792987164496, -0.841823977974038, 0.5219049989971958]
[0.9527066609766603, 0.23710247283784103, -0.7844306348563055, 0.3962956709191203, 0.1512182920874312, 0.9247088147174944, 0.15957026962841803, 0.07169516373026785, 0.4755687786587617, -0.937068897604479, -0.17496714157302917, 0.5905149981950562, -0.966228753018195, 0.192059187208927, -0.25835960295309657, -0.2578564150917011, 0.49771310013409686, -0.9577672563923403, 0.1973954955883368, 0.13936072181845938, -0.3761805077872573, 0.9768272296914293, -0.2629588634983351, 0.3853383675127111, 0.18463061083187804, 0.5202302886200114, 0.5615379459656435, 0.5556532993936747, -0.5926997593374232, -0.1678695038655038, -0.6173860905641355, -0.5517467826646378, 0.009165395008819965, -0.6247941952891902, -0.31320678252284506, 0.0953350351406479, 0.22717588400789568, 0.21998102785367885, 0.07571197144693963, -0.11330643113111674, -0.1386637173884084, 0.4460627633684866, 0.3807175421955376, 0.3190434039049011, -0.7392001582579194, 0.8888170404720539, 0.558892922790205, 0.7978012826021448, 0.4586350580104608, 0.21631979684429847, -0.891979331959917, -0.4706733366473306, -0.7211045066846553, -0.4269690824178025, -0.4383403271439106, 0.9165028741661694, -0.19048335063064492, -0.4640810544382794, 0.05922178281682555, -0.2369220184919416, -0.6767551545818646, -0.01256031478976527, -0.5442559547607526, 0.504755480980294, 0.7496079558807015, -0.44222391662036203, 0.4464532912158161, -0.32189526505281385, 0.881161581790712, 0.6189481700448317, 0.9557667080894879, -0.1593493582292898, 0.33748315022082515, 0.426110548010786, 0.010621178085284632, 0.9981574411310484, -0.40608440951267016, 0.19663857699578283, -0.657665479398607, 0.6286763880862304, 0.2700500071970116, -0.31395180540288625, -0.4332382089835167, 0.7242263849278097, -0.570143646062717, -0.4442339071858239, -0.5388061726375188, 0.16582340706795073, -0.15259070975815078, -0.06530955714442581, -0.8305477676294235, 0.45979898227380406, -0.9180598031096907, -0.48573665982378045, 0.7172651353960401, 0.6816946986872393, -0.12543631147790352, 0.01912490744109434, 0.32781613188108144, 0.860775950969329, -0.7112227099664019, -0.5184263576162667, 0.1977795328758444, 1.012985380835968, -0.18150479216573565, 0.9309258341432424, 0.5519875182367971, -0.5711922127183761, -0.10929262819492896, -0.11637634722825174, 0.9237605433394493, 0.8751220105760755, -0.024690279914049595, 0.9341707065573339, 0.547092566808981, 0.968115987407392, 0.18234316192653807, -0.459999255920896, -0.5002872563430534, 0.5495722312698115, -0.4288765286284161, 0.3962748423671382, 0.10196289968612106, -0.7212291197049797, 0.18221553025496787, 0.20937952882953703, -0.823682162786362, 0.05048856252896784, -0.49366299236334404, -0.6355680815743825, 0.8760766661512194, -0.025274404175109805, -0.8444319991881304, 0.6019675799384443, 0.06938444186271386, -0.8911690700963371, 0.06503848716513067, 0.8131949217237407, -0.34572560488629656, 0.6279848960936443, -0.6715043087781649, -0.5213139002169651, 0.204405421032831, 0.2219316488638365, -0.5407359156922857, -0.2911027015478684, 0.12359606955320569, -0.37974318575610944, 0.3899411972559812, -0.03487287924334841, -0.045811637881364047, -0.6886343843858258, -0.7017741630512985, 0.6681722078042083, 0.8929191530854358, 0.537307746094087, 0.36971513621777996, 0.25315961743072946, -0.14691213657820704, 0.19552033107607997, -0.3477352640043781, 0.0905627673515586, 0.7186118509332864, -0.3390521105037214, 0.7574122037987886, -0.47035615960384936, -0.046056748766168054, -0.5342472968992731, 0.9601957940824126, -0.7101327093840342, -0.635719250301005, 0.254108151495476, 0.1940268252995502, 0.041604579008682016, -0.33332813245960996, 0.17586457729857488, 0.06647471034584802, 0.28646195802765423, -0.29421872617485656, -0.8799016125010173, 0.607748575682133, 0.9551719045608333, -0.19254144077252694, 0.71018829242506, -0.127979771750609, 0.8231049597028761, 0.15524307095546797, 0.8962300190180704, -0.9967701914755455, -0.8674491413228277, -0.368897514568925, -0.4517737040447743, 0.9525363709972501, 0.12988465472490934, -0.2762963476109693, -0.775432404047318, -0.4132449726568622, 0.8602497158945287, -0.10840023629723387, 0.3283104437709024, 0.5050464873677376, -0.09957719635968786, -0.6790872205869788, -0.3995266802345409, 0.280863066957155, 0.5629865576385737, 0.855042471515816, 0.642403926323462, 0.42719200131433593, -0.38178135951402287, 0.729671616520875, 0.8970502394152777, 0.23630471377578044, 0.14041347765769435, 0.7721044741400718, 0.39835714413455553, 0.06339748149818746, 0.23857200480339902, -0.8838906114469937, 0.6178051217358961, 0.3883596852294076, -0.6941523110861875, -0.11525162236145488, 0.10284948497076282, 0.012963552354636976, 0.47891198676847513, 0.14124601117775853, -1.0399735579339402, -0.7101453504746043, 0.6717628079610509, 0.09252105842125039, -0.48327597543493434, 0.2818034516580023, 0.974991243188871, -0.2978060740496436, 0.27417003103328236, -0.6896179116604348, 0.5827456146205487, -0.12644407785014916, 0.27906682246419434, -0.3642517329893837, 0.40996312923144873, -0.8667708782372749, -0.24396788230758085, -0.15401311913439258, -0.19559272009607734, 0.16607329615749886, 0.18949716147160814, 0.8922517665128664, 0.8865506670193718, -0.1806211865056412, 0.39070523082407743, -0.3423257844189873, 0.11946302479725457, 0.5216281324948416, -0.29775073490681114, -0.9005244234807107, -0.23383909209538808, -0.053353889567378694, 0.15953450236266203, -0.18811720121410078, -0.651148717760583, -0.5669653319883236, -0.1891847224240458, 0.33387959507572196, 0.6956513002550002, 0.9985616185645202, -0.45421388733522966, 0.2000694571046116, 0.4734386269418026, -0.029821666719523677, -1.1516378811200676, -0.6703890323094844, 0.19221288300910228, -0.34664245121458104, -0.5177299681992785, 0.2949755092272445, -0.23128029430721905, -0.7632009022792241, -0.12717013708791453, 0.0035377328485219905, 0.1251377320549825, -0.7473061263525962, 0.4293412888851226, -0.6555430161847277, 0.3011819500585917, 0.3969382973277536, 0.9360435704661662, 0.9526556596427695, 0.8974477330513259, 0.6996956301836562, -0.45754678428343365, 0.6081280691058532, -0.28250189826666167, 0.6417289939595756, 0.0468619385651243, -0.5157130318881346, -0.21832341209821032, -0.036535928346085905, 0.4023663575100199, -0.7803799084484756, 0.12354699759940393, 0.9434258157936836, 0.540527401050038, 0.7264817259282045, -0.8873363564201545, 0.5773059699627329, 0.3388416313899468, 0.14391512778249016, 0.8624618832533759, 0.10789594555568395, 0.8606252802022885, -0.5067154224636006, -0.697724608486702, -0.6816930666962512, 0.647107844009252, 0.7881549425992953, 1.0117580964457489, 0.6657096557039598, -1.019172888597679, 0.5855212986633753, 0.5602789090355699, -0.8028222387539261, -0.06715448889699202, 1.1219311018297913, 0.5695924007712757, 0.22604275675132185, -0.29162706333227334, -0.44917739677379553, -0.7682719752520827, 0.2262787977644996, 0.32937954840979894, -0.8079055827891654, 0.44385169852028383, 0.6246645197370503, 0.1665684950084578, 0.7191167385582635, -0.12703020812348542, 0.8427190008095887, 0.9685861783855284, -0.8985722599974298, 0.02247226959125118, 1.0194030250416863, 0.9543812558177016, -0.8050942502027619, 0.35025643664623457, -0.33886868925565183, -0.4027693025648475, 0.8149637396293669, -0.654771947084199, 0.7330581059600549, 0.7706474476507698, 0.2551406078990432, -0.9960801393219012, -0.22489018699411176, -0.8481567397588547, 0.6069318023710445, 0.8673488833147683, 0.7297096855314882, 0.8451658635854115, -0.4751879903275045, -0.8555075133521116, -0.031085556297500212, 0.857331017305838, 0.8407980130843271, 0.5724893804566961, 0.228352138096763, -0.6929961003243432, 0.389521863481321, 0.8856642880381238, 0.6568920458945089, -0.527298780662822, -0.5461455621241205, -0.01090560289329399, 0.7528895790641592, 0.5876906465128716, 0.8621052974044997, 0.895709773458067, -0.6505012593500487, 0.8772340516687772, 0.9840266386568921, 0.6479154759147916, -0.149626444179231, -0.18222428262104984, 0.8116357295752621, 0.15701741873822872, -0.2950139736298082, -0.1448129170045812, 0.09066367253163567, -0.46956466268634134, -0.09429373055932153, 0.20203512901121323, 0.09746553162283123, 0.010205201676285521, -0.7986728233740311, -0.8260005415819406, 0.0429785027903859, 0.22793785611467202, 0.2993820874701313, -0.469121868324143, 0.9744670966846681, 0.7246495087997427, 0.3021646082696464, -0.21851883245838827, -0.5124569544576242, 0.39734948597835146, 0.7013072382904382, 0.35011404260251594, -0.9876291021625305, 0.568892916313218, -1.286535654030615, -0.8365293243348941, -0.12807214674989886, 0.7478958711577897, 0.13260405879016834, 0.9819819358591754, -0.6087361421520873, 0.9905889003038699, 0.9497081471242825, -0.8557366862559765, 0.41568987285639136, 0.1518373520581925, -0.03771590783306582, 0.2800770836000144, 0.9151561155415447, 0.665032648366244, 0.7456574783618166, -0.8957167520915429, -0.7217037292903196, 0.30412719773179486, -0.20426947257605407, 0.5525922794793623, -0.032654532629757774, 0.6734191227304593, 0.6421624167096092, 0.936472837547943, -0.04056251651136392, -0.049389103779516705, -0.6700924204674511, -0.9646446306955285, 0.055353033818061045, -0.2312497452904204, -0.6567442134644845, 0.49950964673644876, -0.15831420481700315, 0.7618609150191048, 0.1653036776675248, -0.4856467597251517, 0.42076349006319136, 0.14411211127690726, -0.4011412769872282, -0.18092697016505724, -0.09338696048977121, 0.9081912040040014, -0.11619047397767683, 0.1460084906887215, -1.1209331979677173, -0.16215174088943304, -0.052765009164761394, -0.6893535097088211, 0.8901262738637817, 0.6455127574129076, 0.9458267486404931, -0.08941992844267659, -0.3617504733826966, -0.7008939635962892, 0.6496759214545182, 0.9129048503690542, -0.41053876547660223, -0.4467086288159373, 0.016556468308724145, -0.6174751005190471, 0.31329799456069385, 0.9718577489147271, -0.3599293159924787, -0.3974557922626416, -0.002817990256085423, -0.876363355467572, 0.2653868528008766, 0.7796927731721076, 0.2595444690826665, 0.3998732345947158, -0.14176040084756483, -0.8430368442249323, -0.4184776048456042, 0.5248427482861445, -0.4355649761967522, -0.4360900988273089, 0.42840012502121927, 1.017101680492335, -0.4750793938426361, -0.8658645191413598, 0.09683511047779143, 0.464074330493476, 0.40138434039298604, -0.38908114253791426, 0.8551388045036651, 0.3694961172150544, 0.221750299156925, 0.1351446297461681, 0.23702579669095383, 0.3321144461044986, -0.21549097910128148, 0.015741863345593396, 0.993467805438432, -0.3013973991577472, -0.2711892680508585, -0.2719149193241604, -0.05283634856492814, -0.6709050935872393, -0.10164316790134041, -0.9548971314642871, -1.0636884111110096, 0.6701072506452709, -0.15301349785356597, 0.001930018123845016, 0.4577592878088464, -0.5448448737615564, -0.8178498178358006, 0.7595657736275784, -0.8822291819213876, 0.5296051961199708, -1.079963225756515, -0.411632344316412, -0.4609015795682896, 0.5348424782073774, 0.06479246589421106, 0.8739579495827146, -0.7241097215450943, 0.3861083324432972, 0.6546622288996754, -0.5703286733056847, -0.5525041532615844, -0.4333460364224375, -0.07742345522954687, 0.3447421435168882, 0.8064956760240185, 0.3265282621985262, 0.7950391210100357, 0.21876832896325044, 0.13071991436787683, 0.4237489284672916, 0.9819934330232805, -0.822035903533565, 0.009987340647352565, -0.5781138771774218, 0.5501095077491726, -0.6188004258570852, -1.0641022899759487, -0.7898603416581361, -0.7287752380961892, -0.8731367092593239, 0.006521794240300448, 0.42927222059216397, 0.1372918651469073, 0.4947014154283899, 0.06434942391893221, 0.5883162038936594, 0.21141926417272228, 0.6989000307651954, -0.6723782297045224, 0.74637859825607, 1.0001877645644541, 0.5556368111767458, -0.8068452411506791, 0.37131564049012533, 0.09718156467866375, 0.7282620233940956, -0.32205808604053626, 0.778143843783821, -0.3227233429763369, -0.6585355403840898, 0.3651499908277784, 0.5788403398843096, -0.5823346238565983, -0.892950983934661, 0.9377729761015768, 0.2828197482327508, -0.5086607487999667, -0.8572913721102096, -0.6839451283552243, -0.8854549360564976, -0.5174756662991734, -0.2674092168579815, 0.5085503506080776, 0.9849104971351045, 0.34611452389587105, 0.3332810545769851, -0.4084464816502229, 0.5947174666466806, 0.9103812687657856, 0.652621494127656, -0.45990968389966136, -0.10182260933613127, -0.12999009207565915, 0.31403662930913007, 0.7541025412609118, 0.7256160140418562, 0.26117331061322263, 0.512076085812355, 1.009441657015334, -0.21908832698930986, 0.3002480439490496, 0.258991517915539, -0.8422392942959179, -0.5727430746079186, -0.6336547871021284, 0.4694748351563896, -0.6098046946126399, 0.46155330588460314, -0.48253132929992676, 0.9660687457319878, -0.614770268974445, -0.7415805128469448, -0.4466537443088412, 0.5725390233819871, -0.6409527161081383, 0.16758364588124164, 0.5535316781989484, 0.5922157124847265, -0.9601329910680815, -0.4860312506915622, 0.06258462613339516, 0.8780171545395871, 0.09173897540628287, 0.3640987084623489, 0.9910120240554228, -0.8202421995438487, -0.8181016702095434, 0.40189006557733437, 0.12362699790478957, 0.0845851938461813, -0.38936463451188735, 0.7411607748826656, -0.06432190835669543, 0.20121906711624632, 0.019777892167252665, 1.0350060123569895, 0.04077413448994366, 0.2717803344433688, -0.6321144348936273, 0.9328481143663319, -0.5626857242969392, -0.790156118527773, 0.17615116503189676, -0.4467303292265081, -0.5897931989191376, -0.5477258711630861, 0.7426354380481948, 0.11038193870072721, -0.9429004495333165, 0.6509784159516679, 0.5728679880934407, 0.4429921930183535, 0.25131433444279555, -0.501592502462879, 0.1544777690550362, 0.2707301734604586, 0.34545671962957136, -0.8293790985673721, 0.47391780597186145, 0.07555859621908381, 0.7067143005006826, 0.5910689458728018, 0.994346624780714, -0.7076218594436772, -0.721208932943715, 0.39575218377771537, -0.8812709466696986, 0.5073086794237675, 0.70154803905687, -0.08184722841462366, -0.2821419437230741, 0.5679855814434283, -0.6987800778569564, 0.6744739155927957, -0.7524605431320422, -0.5817157444916898, 0.030324681040198337, 0.4053513701412405, -0.16181251797894494, 0.715885467492448, 0.1876221087304058, 0.3335747172845398, -0.5781499476780575, 0.3445556041558666, 0.0031935031584007572, -0.11116266924674319, -0.715742991285207, -0.49865084863411174, -0.12028836841359578, 0.5736722302773514, -0.588585802398624, 0.4321550860376187, 0.49005979226762736, 0.34623715259933, -0.3497492669245623, 0.9605653480817633, 0.8992677829868656, -0.8762742367817551, -0.16732789987400754, 0.6501371846664048, 0.7579232644800924, 0.4967374298190511, -0.926754451109182, 0.681222803872619, -0.5025159548035394, 0.46084777851563036, -0.46914867792782594, 0.084420237348857, 0.28090674467781174, -0.44533421688992436, -0.6130984424024083, -0.22119179472401496, -0.5382139305811818, -0.8635045008576667, 0.9756709345792685, 0.6077192771703207, 0.740699172292045, 0.3412578871762433, 0.43659966965046426, 0.8010703592363637, 0.2539088318479174, 0.777701976400578, -0.2032310750801299, -0.6287450236878569, -0.9183884935770861, 0.44999423996944055, -0.42326779636075695, -0.07528114692393295, -0.24629410520585848, 0.9726362646946858, 0.775853053195185, -0.6441342506936482, 0.9710398868114725, -0.23235299902662987, -0.7824415507872347, -0.6962247407112049, 0.979814756823635, 0.9307348734270621, 0.5562710166469368, 0.6434492410687326, -0.48028468845942573, -0.6533994369477176, 0.6012690182634, -0.9631576008430834, -0.753136229513978, -0.9697779615785184, 0.08060936375822399, -0.5990788493159127, 0.9645089410025102, 0.17355120167738558, 0.6179859850056706, -0.5963187067180749, -0.5037076539316914, 0.4209298228351248, 0.816777622082651, 0.2314608802971958, -0.15818376500951636, 0.3793544634583996, 0.051960633005276424, 0.5155313180992955, -0.47090028218308544, 0.6660168688673185, -0.3542918080609783, -0.07969794789161347, -0.7245072027811936, 0.3157311172025486, 0.9077947373773592, -0.665736609232019, -0.3096255467988917, 0.8936650328421418, -0.2557296233654463, 0.4448732152528345, 0.5909188384317726, 0.21428883376197436, 0.388446972838967, -0.4532505870126016, 0.5126452382329904, 0.8613793561890843, -0.3589820768993963, -0.8844289544622133, -0.2961233059866477, -0.5334229139926081]
[0.10038072990679581, 0.4201373266176056, 0.2756889085479688, -0.9795257762608645, 0.6763596807252721, 0.6490871148614512, -0.27930177511402876, -0.7232771457386704, 0.42109777988373565, -0.28150280235640013, 0.3415334886827428, 0.5067557152915869, -0.23207736728400707, -0.5088264885272458, 0.907397757499157, -0.07068218902372037, 0.10878597641594712, -0.4717985270924858, -0.5888611583959338, -0.8207464132651294, 0.9866573251677104, 0.6928926559263766, 0.46169068574265326, -0.9619777642750702, -0.20619816797855917, 0.9360456554412415, -0.12042738325674462, 0.3144299521166296, -0.2014871650582053, 0.41370562426470525, 0.401025490111234, -0.7574161282538523, 0.5670111869431733, -0.27662784837035304, 0.04675398982639334, 0.055087271794013404, 0.40386270455762197, -0.5079836011944137, 0.6743804802726716, 0.4933535045749155, -0.6959775220743571, -0.19197998645475475, 0.5061551886843981, -0.0680890980409148, -0.911871433731152, 0.06376892570500507, -0.9739660396870984, 0.5179550204603707, 0.8896577807167074, -0.33942093490898273, -0.5000052347295394, -0.7027743137262723, 0.9850767352932914, -0.28770623462504696, -0.34381906909714277, -0.42115413066840035, 0.019649916955456703, -0.5752850229888633, 0.5092644749581368, -0.9415211107906907, 0.20461167943560543, 0.11015152726716537, -0.7930980930185909, 0.11178821185548674, -0.27601342294079356, 0.9338656116144949, -0.11438675106379669, 0.4879845639850652, -0.3256690449081218, -0.32506431641217814, -0.8730373415321651, 0.3502130009407775, 0.31052434105285837, -0.4583851252955363, 0.8832602825891454, -0.3793530856646107, -0.31612957576341855, 0.03729810308791693, -0.0719732855632086, -0.4221037954047338, 0.7356043018003497, 0.5010871674163853, 0.6392510000212046, -0.22329123051893895, 0.4762649667095973, -0.7173137209444023, -0.5700322435831604, 0.9819829464153456, -0.44336779254171366, 0.2752559079440311, -0.29414753693537365, -0.007857745099868746, 0.8498654168678731, 0.11810031879236892, -0.5836517658316508, 0.8968178215048267, -0.221078085654043, 0.5894520423539364, -0.26470857202943243, 0.923467074040818, -0.6547577614026362, -0.5396076101240589, -0.08208239288821553, -0.6051566315378355, 0.07754601097606835, -0.013460844315949022, -0.21443136418959027, 0.15926351963760202, -0.20880401871393534, 0.22212280639798943, 0.688374998712068, 0.10106637759836512, 0.3536951465924205, 0.08993168429324694, -0.5849592949949287, -0.3999359898070997, -0.13795944370117644, -0.7654773253199368, -0.9982734704489726, 0.27201126447601354, -0.4368044810107347, 0.7907161487391235, -0.8652677911325871, -0.8476944638932821, -0.6716995440846785, 0.8178828814051644, 0.5302507329806225, -0.033501612701238866, 0.4824996316768056, -0.7253854858189585, -0.05239124055079533, -0.6773291510013341, -0.4338563547010436, 0.5089458318176485, -0.7623425300060956, 0.5245238177205094, -0.6003808059447688, 0.4272279707345641, 0.20952955762047554, -0.9245158704383643, 0.2880118317335796, 0.370547883867711, -0.6694052777653126, -0.9878208394082844, -0.00488781302912847, 0.5670452429949515, -0.718765480554394, -0.08322630046834613, -0.661890051739283, 0.6725101753323866, -0.48512523746323866, -0.5938239094613096, -0.050850168559423425, -0.46703691498786276, 0.867153170799742, -0.20836661033133413, 0.46703370938009325, 0.40178632253376784, -1.1341491225201121, 0.28353538573850234, 0.8274512543178503, 0.8279366771225399, 0.2662454018664516, -0.21197477625471642, 0.8315420647712354, 0.26980813543831883, -0.9346657043699238, 0.6903727999257642, -0.19633685150998526, -0.487917773623177, -0.16948992447071884, 0.560053997665288, -0.2851501093333066, 0.1983744744370807, -0.47793275319940476, 0.16885448287249794, 0.4121923194381674, -0.2724206188384898, 0.1973980750976179, 0.3085550433239895, -0.399516692556714, -0.5548345834693118, -0.42484357238018294, 0.7904285904267907, -0.48244628119242045, -0.9623786232623676, -0.11566987287967975, 0.3685047525263002, -0.7354361010084883, 0.5770604942060246, -0.2791963761809243, -1.0058636504507188, 1.0060736296446855, -0.7708978717993967, -0.9063599260273807, -0.21248753062086656, -0.006702466855950721, 0.6216362920478531, 0.9654539696377021, 0.19598719281205196, -0.2246509308430147, 0.15720071253157228, -0.6868880406743199, -0.4834519909997103, -0.1906919171415051, 0.8036873067935256, -0.3457969853164063, -0.5938488252970575, -0.40814417638661266, 0.23065556317065028, -0.06408533676782067, -0.6805823358760182, 0.7059233383985899, 0.5685989958076648, -0.35740995331497394, -0.2804383555731195, -0.2838916645873798, -0.8289328894778872, 0.048818161275767984, -0.16734482333705572, 0.04663212281053547, 0.326043415429918, 0.21138291691598604, 0.3187561553624632, 0.84132026422519, 0.9286226833882468, -0.10810773160771615, -0.30124218994635205, -0.1964079177320433, -0.27114412633434204, 0.44671740169694746, -0.18031689320933808, 0.6164517779232047, -0.8096432955930805, 0.8185977863834318, -0.09381447357442525, -0.5667390001920359, -0.6527835446360017, 0.6474880707513426, -0.5663224983609761, -0.3362578840582322, 0.6344456144547268, -0.5819367868115997, 0.30434553273573817, 0.3142081931102248, 0.41109590629377524, -0.8685179507846372, -0.3795321823671991, 0.0932494969845313, 0.6538180961974173, 0.8631176226446164, -0.36541713517046276, -0.6006256962673786, 0.5592261954432668, -0.7568879202375814, -0.00771251119679627, -0.7147649410624619, 0.5068173540449517, 0.938370185301501, 0.8222347511318816, -0.6502288643010111, -0.6682491787245353, -1.0390223422276819, 0.6519071497563547, -0.6858091105994375, -0.007500527407781189, 0.4800972779972948, -0.8620714252072854, -0.7559355913598246, 0.08645856983072693, -0.252234659112796, 0.6181123181298586, 0.3602463710156037, 0.0659279011800804, -0.32581744410566277, 0.34917226521972344, 0.7941581485651966, 0.55500371782904, 0.37362422274242985, -0.820729726922959, -0.9839312636931317, 0.9036729935013352, 0.38477116651802323, 0.9932437661764923, -0.3699178933287773, 0.31769374026648556, -0.06364014420655323, 0.4152790929149406, -0.5700140094819378, -0.19721346939484025, 0.8616072391678381, 0.42332505214830357, -0.5413406561283094, -0.300569619851111, -0.40913679667659103, 0.831027324860294, -0.0527960800759429, 0.8761502935990587, 0.5538816404585086, -0.7026959780336883, 0.6618309179097802, -0.9349897058194305, 0.03729451560088358, 0.37495094453998934, -0.08921556436988624, -0.6381591910544878, 0.4987433376069711, 0.9501005462435131, -0.9950552993260804, 0.8569010172278776, -0.623885435077213, 0.4398829310634308, 0.49110329509800166, -0.42300127740754373, 0.005871910836410283, -0.37520703928264004, 0.004551975320610775, 0.6519863923200908, 0.9960574617383736, -0.7115672390134221, -1.1678336370549245, -0.9338656687792626, -0.2537290544157465, -0.9258547283133426, -0.8929264362327005, 0.6933343456478503, -0.17882518572916792, -1.0370088184265909, 0.9005570317085555, 0.2255865525049902, -0.92848055689242, -0.30881768535190546, 0.8193369228724987, 0.678642634162708, 0.510792847898409, -0.4381804454304767, 0.5037727412783233, 0.9744893348078247, -0.9430669063142164, -0.9218552807596061, 0.9267207886780099, -0.24669814978940874, -0.9070684615568665, 0.787949147128423, 0.8536126894415282, 0.9340286427208785, 0.2916568284371879, 0.06041172770254725, 0.2830815316196532, -0.16634155485248386, -0.12939151137613014, -0.7659496395602543, -1.0486997255362223, -0.5173731146539988, 0.6313543684607991, -0.9353353644694656, -0.5338783280687213, 0.29382749445107964, -0.1931277044268535, -0.6751093474175489, -0.8658792263589927, 0.3356626929495976, 0.4175429028740724, 0.16415218233816678, -0.16505418168750885, 0.04600615999036636, 0.5974552357255397, -1.0069739934584558, 0.5064565457196003, -0.6236287283314238, 0.12948320115922396, -0.272577442316332, 1.0809127378759178, -0.6213882892520841, -0.37111475094864615, 0.8230791112228937, -0.9345969271787355, 0.7480651888456317, 0.42038964924789757, 0.16320584845619127, 0.648624530431392, -0.08475143811670817, -0.677812813662472, -0.8483753983874206, 0.7781192232831086, -1.0187429391441882, 0.5026557965355006, 0.35080653532983735, -0.37007449498949513, -0.9612306900177442, -0.048859678279166326, 0.37589657254633657, -0.5791410682860476, -0.29262932114840107, 0.41000543300090925, 0.4188288255660295, 0.009042741190950467, -0.7071340322013205, -0.13839224696679145, 0.6429693200210953, 0.24883305084132482, 0.1255809201282085, -0.11350635094044437, 0.2398916749284128, 0.638260903146378, -0.7496853333327346, -0.48384729395377474, -0.8105291302347851, 0.04711875166806288, 0.25014407071737704, -0.3573449522708025, -0.9578799098602795, 0.0958264774460457, -0.379715132034057, -0.8624700167845873, -0.9447306589667779, 0.5154895519424053, 0.41533513875686445, -0.46316645223788466, 0.08390845001445402, 0.23981070189946618, 0.5404867047392875, 0.18999742665347433, -0.7410681005586414, 0.8365874903136028, -0.31935178738210956, 0.3910384508906604, -0.0888334845512484, -0.33568740119490886, 1.0047117619811605, 0.9100025188475473, 0.6063281083832494, 0.4844774750593115, 0.14694747578314057, -0.8145117583643932, -0.2276658306026494, 0.7623548871713174, -0.034230253194314074, -0.6861196593201084, -0.9521934275281414, -0.020405403651732597, 0.03725367617416832, 0.26598788969690584, 0.5675556674730797, -0.9114229924192879, -0.5585861831071204, -0.47858172171214547, 0.30404213274306247, 0.9271013141389617, -0.37271745978827586, 0.586541173028991, -0.6356800761633298, -0.448007082269951, 0.28809997795536396, 0.8320204574317984, -0.987310786016798, -1.117925521737514, -0.6347093591699444, -0.8447375534962939, -0.5699345366864231, 0.26845206991275167, 1.03250283924459, 0.1569595889962522, 0.8654816840341962, -0.7063426211531162, 1.0684726378011424, 0.5378587648990888, -0.20893485589066865, -0.8544505593182666, -0.09032492445910043, -0.027116356963086164, -0.5862073698613492, 0.01513202734062893, -0.21145784590759895, 0.3166410898173976, -0.6549171670099063, 0.9326439979445333, 0.708256504516223, -0.23738230345984992, -0.4960237165935311, 0.8547057454835097, -0.34894907085412935, -0.4199073399838528, 0.030715306639275124, 0.5860025689446757, 0.35483178377281166, -0.3506311609530309, -0.517936233371405, 0.003247572933207449, 0.6594985458799911, 0.838723989836142, 0.7007625690906943, 0.47065375537388765, 1.085075772481448, 0.313484952808799, -0.6763530709934255, -0.4258809975757082, 0.6157185735778259, 0.28273946158056246, 0.6675334584390135, -0.5723311758835995, 0.5737882813632786, 0.8115616990217377, -0.7619720574617135, 0.6405449747604046, -0.011548248449538834, 0.8997523131310379, 0.6177408212200856, 0.431179279131169, -0.34343125958162485, -0.5575779479950864, -0.12189229944108572, 0.45517855244041416, -0.8805937589936467, 0.06245889584392844, -0.9730699042409842, 0.5046865007489816, -0.04831067229406754, 0.4990899390209724, -0.2748604907652141, -0.3627300337503493, 0.38480475968056466, -0.7718806180062945, 0.07781535345458365, 0.5391957332106952, -0.785836989816243, -0.5320162674306229, -0.7574528711412496, -0.08638791068410509, 0.17187726561583436, 0.8433064943045225, -0.14534920138929988, 0.03775084905856585, -0.793026046388692, -0.1928962673959974, 0.08190510990873241, -0.7069611746484615, -0.8821940377890736, -0.044566465319745015, 0.4801745303083733, -0.3019945380398095, 0.3138341560622327, -0.9844827364642599, -0.9011064537777059, -0.47523513778582616, -0.3820223018132803, -0.16873903600273515, 0.9103281110979597, 0.623092002065004, -0.799771023404645, 0.8685338063792186, -0.7114833092393481, 0.9523445397372516, 0.04761413321543081, -0.6047803461669816, -0.8024150583700613, -0.09183457748792934, 0.979145584662076, 0.9362488022064914, 0.094478283030484, -0.6120002243385205, 0.8422983362565326, -0.8484295747239448, 0.7242104495980358, 0.25900224997049937, 0.7320850683193962, -0.8945756558619817, -0.37570891024402475, 0.7114864302238108, -0.6720157144461684, -0.3875027718450128, -1.0560467487748688, -0.6899299529733114, -0.558364200785778, -0.2128158905690014, -0.8078125201067791, 0.4470647545882069, 0.8599813543091581, -0.2704567712820134, -0.46428699441541466, -0.7294184463092784, 0.20640783057609186, 0.15718589524039048, -0.6203992561362678, -0.21136250421346592, -0.41383404554908315, -0.3733367526742322, -0.4222832965793495, 0.4239555392730163, 0.27459941597061643, -0.8171580322208786, 0.8122115767111328, -0.20552407095524558, 0.5207360267743564, -0.407791207302338, -0.17368142227503192, -0.5068735917161231, -0.09642655930997895, 0.46707390034398216, -0.11191430618335652, 0.6912745468285879, 0.19122551579269897, 0.14498494900810255, -0.7072061335178547, 0.03582692754717766, -0.9228992580939855, -0.893227515562477, -0.628231446140821, -0.5654261707552312, 0.3892210437967673, 0.35890884035002896, 0.22182480579964758, -0.23791664763240378, 0.3928406452497734, -0.6373604687587843, -0.5225810828500834, 0.8145434371397791, 0.36087043409060193, 0.5564768301477977, -0.3700753889824563, -0.1890810471119277, 0.06797315850853547, 0.4710238024536733, -0.8823969153358489, -0.790986154008839, -0.24024841038929176, 0.049656911554507646, 0.09405544381426707, -0.7383799352168325, 0.1370290228062833, -0.19690227079688358, -0.7748047185514637, 0.4168966112260729, 0.025661216313218244, -0.14669715018117335, -0.31971249853985856, -0.19560268854368143, 0.6525685044993842, 0.020843114601079953, 0.5366675621958179, 0.6947685602004108, -0.9753623795414843, 0.4184036564333744, 0.4546159164780834, 0.09614770500997905, -0.7991513878222387, 0.6502350449110809, -0.7853924196601724, -0.9142146326361333, -0.41874485688173263, -0.4603607586516465, 1.0776451249504646, 0.80985370257207, 0.684671735399226, 0.7025170240116284, -0.2835947179712474, 0.6159713717065983, 0.2902489127225106, 0.7861752951888198, 0.27594251542718473, 0.9506575835858627, 0.7504508666163036, 0.6565138107637808, 1.0023932986428195, 0.5966432842051651, -0.5764485594753256, 0.5597141309979861, -0.8626414884485171, 0.09895203841247498, 0.5276378452193045, -0.6110604770913122, 0.482936884513409, -0.12452955842862434, -0.11847365914643215, 0.8113247814906943, 0.37965397165353265, -0.7135904767434328, 0.04405875042613057, -0.8508838785835185, -0.1651803398272619, 0.17265387363010382, 1.1817434261423199, 0.17201396774502478, -0.12570385981950444, -0.2939211409008093, 0.7262009863213992, -0.2001378459376943, 0.6709466391861788, 0.5942708789608883, -0.002288326790731147, 0.5099657951185471, -0.11140416291845416, 0.22745848149061937, -0.8136392004661459, -0.6338926403678883, 0.35322530124845986, 0.5174914657393442, 0.8720363760784664, 0.9152798671240578, -0.13039116252486882, 0.9184936832983437, -0.3147048134630348, 0.18349367633445146, 0.7279941108101893, 0.41555996201999046, 0.278441490330706, -0.215894966684598, 0.547694876885181, -0.1458469141978762, -0.48485249399302754, 0.23327839712583917, 0.400783008758768, 0.9384323351102825, 0.14970331437985637, 0.5320912620306153, 1.0143136332711913, 0.5698654336238205, 0.573143527805789, -0.8421631470635349, -0.31592007936294314, 0.12822616694777142, -0.8414475605902259, 0.9455060558831826, -0.9792028069188231, 0.725782211835534, -0.4804312308306078, -0.649085297632523, -0.9781424104683636, 0.7341249897725461, -0.3684657588589231, 0.16610639077857225, -0.8274718120176787, 0.27564278816293486, 0.7401060462782915, -0.12281267755364057, -0.3026823725005415, 0.7952596675427305, -0.8446898883823937, -0.05458422537570475, -0.2934012345510953, -0.2670315909238015, 0.18751013685049542, -0.5068068654048974, -0.40932019722793334, -0.9024336706355868, -0.23915814369209473, 0.2588295188649043, 0.27118912952872676, 0.3018202843577962, 0.7786633348349763, -0.41979513544684277, -0.6635556160120981, -0.67804918611078, -0.7465111257693338, -0.6367648232128087, 0.4212956749981369, -0.5572497217411794, -0.7062790684705698, 0.13918295934804914, 0.35476259277966493, 0.3278933558679966, -0.6471843279250942, -0.9076288441019722, -0.014887780875955206, 0.055954243694466575, -0.838494672459238, -0.7149175388106751, -0.14480481968864875, -0.5055390820635979, 0.563468066466507, -0.01993585032619042, -0.29672471085327284, -0.10192596559926408, -0.4250870382511206, -0.49657968860400087, -0.5834817062739219, 1.0015773139883164, 0.758634807988452, -0.027237239312593524, 0.2818643205723286, 0.214383004273222, 0.3928548384814192, 0.9226985381295605, -0.1276021414015749]
[-0.9109449140090491, 0.5939073125111676, -0.1325442673100894, 0.701064705184725, 0.8391164589659084, -0.5646854104169277, -0.028843765609887217, 0.8232019341263457, 0.9916445023236264, -0.6075162531696789, 0.38595268651204395, -0.8992436147468825, -0.31557881673302846, -0.9414292084853682, -0.001680808911210141, -0.6108213704366872, 0.6140773952213294, -0.17607442211945878, -0.9747897552339999, 0.17690254286301643, -0.87615059430039, -0.37795564293831085, 0.8522799539147898, -0.6860542907336711, 0.7984401347510666, 0.11001063139533929, 0.7834110400153753, -0.6178182927713556, 0.11511877077299792, -0.276329586047269, 0.9586955457620745, -0.011648233469348623, 0.19433225735158954, 0.9325552349666335, -0.4016018149593721, 0.8018977320024114, -0.5002564015753652, -0.2825335840025002, -0.055476929291015505, -0.48504991924632784, -0.5415092476177951, 0.7989819466110026, -0.21244861452579789, 0.06028813069557056, 0.4023173792076492, -0.5191461267406707, 0.3362337382359929, 0.3993888502659002, -0.07396269537691369, 0.08218241112988411, -0.7244734087638958, 0.06433809613913444, 0.05861995669379261, -0.08540560992399748, -0.6032801349667025, -0.993275292757567, 0.4539254907597521, 0.47541196544424125, 0.9018362147372447, 0.07002953424035918, 0.2412799521164073, 0.15083700613807882, 0.5980384223748421, 0.32361102050835655, 0.5400390544780922, -0.9270566976509312, 0.6042296024465882, 0.7083890064248034, -0.6585609094653556, 1.0230045517556088, 0.8921896093863192, 0.2596312657393091, 0.48449091457464827, 0.7648077570482104, -0.3208244391744753, 0.48237237478693046, -0.03727540025740791, -0.8354899110176396, -0.2743804556543296, -0.44723705225673066, -0.5775762200076419, -0.6270662926287853, -0.7752073230746317, -0.33383356903853745, -0.3649238605651708, -0.9098532424312518, 0.5483607480080899, -0.10434920420585847, -0.1940244289862921, -0.16613407590069967, 0.4300909643741207, -0.40375054360742313, -0.757936705809024, 0.10404925927672606, -0.4710570333218298, -0.5841052067398221, 1.0906419910417144, -0.656268050926592, 0.4386553858556563, 0.7780153425180204, 1.0158608043790485, -0.4067759045263053, 0.28439990170358864, -0.13399081494800236, 0.09039717014952105, -0.3764377204269722, -0.7745122787303969, 0.022585363100055576, 0.015159772241969667, -0.17084075448947633, -0.3659437971361983, -0.7166407218868776, 0.41362713928712735, 0.23768606705314332, -0.5741950305016146, -0.8773980413092599, -0.058289809071512655, 0.719576540043753, -0.24350521731119895, 0.845386996918043, -0.6890051465682587, -0.28290045900327754, 0.7194664118299077, -0.969987728665117, 0.6224966751049611, -0.4846789658080802, 0.38059539907742373, -0.03253664851587306, -0.2641626158027906, -0.1998105555316028, 0.4543153107029393, 0.9563335614164867, 0.14428858207125272, 0.8225931833268291, 0.7582996063429394, -0.2552009699975339, -0.04291890670618697, 0.2801874944092426, 0.9487600500343925, 0.6423464283704909, -0.26037836937590364, -0.05761298653369429, 0.9851234425786422, -0.5285391618775166, -0.9031526738469599, -0.19535372748058896, 0.7329328150991682, -0.5737281725803614, -0.3903142660237523, -0.29985338272268053, -0.5555904332469169, 0.35722636995706064, -0.8041473014553912, -0.1001455019775122, 0.21545271733146043, 0.937888861987221, -0.06570118493813934, 1.1539297858319948, -0.5739846058825051, 0.04283574408487317, 0.8754167433874955, 0.5657183323605843, 0.4386860838415967, 0.05109442811104206, 0.5117453390660953, 0.6108482159108033, -0.17179608464011858, -0.9086379570176568, -0.6199801443561679, 0.1524052854515794, -0.2159214866531066, -0.47990800710122644, 0.15204119789261483, 0.9800719613171831, 0.08476190287392384, -0.4338242385518477, 0.4970705494163863, 0.23737720695562037, 0.8273906480385096, -0.18765405173443955, -0.29332784441243676, -0.7429021394540055, -1.0363006079127173, -0.19140631244916742, -0.8010284270600752, -0.3821300033931264, 0.9081919626537522, -0.4578632140311706, -0.3908789721412681, -1.0127342552253598, -0.7257267642751584, 0.30345295371360426, 0.3040472527792997, -0.7640455144156952, -0.08144326657217991, -0.38505253386769883, 0.18637552391426027, -0.7779994849053542, 0.6956542160211178, 0.8562485699233842, 0.49100588038549803, -0.30480992221814845, 0.7805352076060317, 0.3438400002918774, 0.8555762786726463, 0.24097398860611316, 1.0192464444810971, -0.3417369539564392, -0.37396145061903535, 0.4231783714184484, -0.01135390852408946, -0.11470989906507602, -0.03525270735183619, 0.07993449048173328, 3.557976026094581E-4, 0.15808897971865846, 0.5563441310242783, -0.9228914474314435, 0.6586337185257772, -0.87784402366511, 0.3484666683955985, 0.4948821276209776, -0.2651814518729895, 0.022346457769289747, 0.87074652403095, 0.8394255043714374, 0.5107925384267656, -0.5789784535980201, -0.11195496228954395, 0.3227064347976537, -0.1548417705448219, 0.544719488154042, -0.3851858182649999, -0.6260863096671048, -0.7218700951458997, -0.3783958512747101, -0.5825416180373576, -0.0902667801679373, 0.3044033727432288, 0.5647011610869107, -0.6038490962944432, 0.6477127315263976, 0.2141439207471154, 0.1979488902872492, 0.1633835061849428, 0.6117640562488701, -0.5347467573801258, 0.06639654553987234, -0.6526393548223355, 0.3724946878947455, -0.34125410331322686, -0.5819239966071598, 0.20896883447774728, 0.8772458804528088, 0.7606687423446866, -0.5138980606054755, -0.9654097892690996, -0.9570812446292537, -0.8781335404859855, -0.7964153116212839, 0.6859471002098386, -0.03444682777310397, 0.4111868940365057, -0.9568622758023971, -0.7622873713872276, 0.5864154612287351, 0.6409459463152589, 0.2248878799504235, -0.8311150693053415, -0.0412248502096606, -0.5972493446413211, -0.9318553980938775, -0.359944779943842, -0.9190212767389926, -0.3754623149606041, 0.968934740116902, 0.619673005999003, 0.952897206159078, 0.6084070859034776, 0.21890498547945803, 0.8345581884359388, -0.7374415987254896, -0.771358934852636, -0.9700094174487996, 0.18397608212264485, -0.8525856329162123, -0.5051817902567255, 0.7507616312623504, -0.35738665650200474, -0.6411818473414334, -0.8609197820136991, -1.13371408419946, -0.6880065929128724, 0.06198841447747931, -1.0359285676318404, 0.9104429831450794, 0.9355823146302039, -0.4436094353117043, -0.3434293289894719, 0.6668763654267243, 0.695465403731774, -0.11695357877755543, 0.8659270516886725, -0.9257249004537585, -0.4500584860682104, 0.729810890172369, -0.5990301587278674, -0.3794171277510763, -0.7818411599685708, 0.33289816499527053, 0.4856105473540386, 0.15812440804169353, -0.4238497406254782, 0.9042409301453221, 0.4838120792597074, -0.48099038246859827, -0.1738760899766184, -0.40621881149293454, -0.31374799293852007, -0.2813165748960364, -0.40637509590303833, -0.6442479688098934, -0.3884453109347624, -0.029160834789709288, 0.507572641735135, -0.12002472598128222, 0.42442732052679705, 0.8915396809558248, 0.9563455565797416, 0.6645294575522402, -0.7294773379467252, -0.8621004314478109, -0.2304921002033512, 0.27400612008259245, 0.1126233595474377, 0.32386188104780583, 0.04657917406777967, 0.10056031036760663, 0.7951484371668545, -0.972367734352491, 0.6669890227529925, 0.0014183279777999597, -0.173638464051974, -0.6276152401291718, -0.19844717966847536, -0.3788857360017574, -0.34023807148857643, 0.7803382711230075, -0.5357530541021983, 0.0894517503255913, -0.6270579283107138, -0.8403192733533728, -1.0943214614880885, 0.8192805692672314, -0.10615973619811737, -0.5512979922644818, -0.9244221199663297, -0.11336485762310744, 0.13561796745285554, -0.11491534218784573, -0.914831439094132, -0.08076322769945388, 0.20513376152828972, 0.2586290811609428, 0.022111309614212482, 0.5528896780157079, -0.09514603174347966, -0.12475465952543312, -0.6575798655061231, 0.826771926007164, 0.9540579847528142, -0.1383653662778934, 0.2606113901803359, -0.5235374897900867, 0.16207893185890654, -0.2461511010079569, -0.10739495658079465, 0.9773144407489431, 0.4682347009050056, 0.35606273870655636, 0.017235207894654242, -0.4472107421672506, 0.2734713569040117, -0.20380523249359747, -0.38098422854334435, -0.337327996641883, -0.8190478861076377, 0.3123017956767855, -0.18205874871846994, -0.41296024713985896, -0.9507991137101843, -0.176177085151364, 0.09696457574113593, -0.4581513091744206, -0.2884783480987274, 0.030597831971522466, 0.5718460704819237, -0.901590019385378, -0.16346970396819155, -0.16676575779252423, -0.5237839466384039, -0.08243902623316406, -0.8827746379507395, -0.5737341053034112, 0.6348349261636338, 0.7954844017894368, -0.5789200283248691, 0.4494346586782673, -0.48599050207590166, 0.16965971644279104, -0.9402285082627809, -0.6389893460526326, 0.05850970183085257, 0.013319564554401121, -0.7681443487265146, 0.7419094755166513, 0.4252446928418977, 0.7229147397246403, -0.37252209016135174, 0.31269196997861815, 0.3392847550533096, -0.14066613944647777, -0.6639027902391571, 0.49166683397543093, 0.044309981770011296, 0.009181995770104418, 0.2713249126417664, 0.7959304133622186, 0.708792170463744, -0.5224423271313451, -0.07526271972031975, 0.9383462589620982, -0.5455901174249613, 0.34529576257588057, -0.32788156164955085, -0.2509900830762094, 0.41088260601637877, -0.6323374896086316, -0.3019482419689042, 0.29127241327648357, -0.999786323254556, -0.24997902017062457, -0.48571643802935255, 0.6329213899631045, 0.4077857985073586, 0.0295909488563625, -0.1537270003373123, -0.24204686293075017, -0.0036273718916017827, 0.8343392131871714, -0.038232355450427996, -0.23529550641974073, 0.19461713974589454, -0.4126565906830645, -0.5168142560933867, 0.32048033603226267, -0.5658087200345938, 0.4529443899435424, 0.8993136346343599, -0.0992586900661822, -0.10451058332845588, -0.4220063561883716, -0.024576446861679917, 0.414725764225436, -0.6935379025913286, -0.25160940370706486, 0.3712714031745018, 0.1804748059478519, -0.8399326543672986, -0.5881738355262103, -0.6383136972810345, 0.6343939663775565, 0.9095615916659335, -0.5068305741744557, -0.5318664796038505, 0.6973667518315212, 0.8773542771572891, 0.27598019644951055, 0.6290872823400399, 0.11251554588816877, 0.9663801130071662, -0.7201923937500003, -0.48947937969040656, -0.5474619472762822, 0.3807117087550039, -0.04356144379738301, -0.9432157955865775, 0.18279812403307547, 0.3604625695416215, -0.18343087248911105, 0.3391163328334497, -0.8986849514621049, 0.05986778990447274, -0.11086172937754102, 0.8226630264212267, -0.2347296249712412, -0.5052152948852687, 0.6652257678758644, -0.6614144307972413, -0.028603029072665775, 0.33450029496062844, 0.2038992182272266, 0.3932048342572395, 0.3567105174763972, 0.9216982906617173, -0.304837409535313, 0.5068714625349054, 0.011707133609610669, -0.4744791710832816, 0.30550862621707336, 0.4944151479848573, -0.11340082929393397, -0.01069341855709634, 0.47973828273614916, 0.3243541088916022, -0.428885763047883, -0.32366835517260584, 0.12464029796801085, -0.4385476141932469, -0.33069524214585544, 0.8509587818011265, -0.16247111948370788, -0.05387335560404833, 0.9346761392153647, 0.8691479975750879, 0.8052773982512105, -0.2360815319555614, -0.49870154008820056, -0.6719373968720807, -0.05838482625349627, 0.4637449326084463, -0.6072399101442622, 0.7516134229498974, -0.4295836558409132, -0.6313768982974919, -0.8691124932344763, 0.2648546986473485, 0.8792234605470387, 1.0135410678388517, -0.7934334769342234, -0.7987062343128677, -0.5179921702247607, 0.6613251149074754, 0.42384685462368576, 0.8735517675601621, -0.08736228606980152, -0.3701838119249946, -0.8232352372387038, 0.6291748210356393, -0.49117165035415744, 0.7745623777411283, -0.657956215520623, -0.47747864271905455, -0.004590913148727507, 0.8640121592614143, -0.9789731967777247, -0.7969783819779742, -0.8123323453833406, 0.5740801050430686, 0.7497688460451803, -0.8744970703737818, -0.07164372313751555, 0.5581640367887852, 0.2152758558218195, -0.38470783764862027, 0.006335644946542369, -0.8907461723829632, -0.12689325765726664, 0.8778351365022106, 0.24318317302010428, -0.16349706485162555, 0.7502251708385234, -0.42381071504282264, 0.7535340795225054, 0.20860919257230032, -0.44964197015965657, -0.9433672491912403, 0.2711981472122156, 0.2361193049144624, 0.04338924188928351, 0.4981922527873388, 0.8593060091860014, 0.2740975619622936, -0.6468087256303642, 0.939028371836255, 0.24846856888164157, -0.456453209039893, -0.8794089283085584, -0.4837090892518545, 0.7085489277143822, -0.5232516265320744, 0.22758592046051576, 0.6190992936978533, -0.7633115402566794, 0.2846986513861502, -0.5144655625169652, 0.37547606005361384, 0.895764985235119, 0.28652177329318634, -0.15453056358240919, -0.27057221904207623, -0.12860244437893978, -0.9250967675394242, -0.6190688800898223, 0.15246485786188163, 0.007038577805617376, -0.12816963153364827, 0.9850100396973442, -0.4243818513139143, -0.783826283894851, 0.8986031908236644, -0.24113502919452584, -0.21283343148751863, 0.8763992779361497, 0.15729286886747684, 0.3414084886027682, -0.46742245941089755, 0.2669999690750462, -0.4496200847187876, 0.6348294790442364, -0.14318128004375846, 0.12122491344317803, -0.9500436244326266, -0.6511561877061532, -0.12593876422683067, 0.15733909110415922, -0.18926696373988952, -0.31832669469375807, -0.09765821893472049, -0.6958956628487323, 0.4960914314004851, 0.6030126266925939, -0.456976405317699, -0.8246386219798025, 0.8055348417649721, 0.7970416526266249, 0.9145788009136359, 0.21078815345509183, -0.3799963245529015, 0.2493724467452321, 0.21494753936759955, 0.002539070673050085, 0.012550633976593062, 0.4014812771555534, -0.417780008095594, 0.9447144110954253, 0.5434352505422206, -0.11617927478534114, -0.3199355495369056, -0.9625985928983506, -0.8324680571698814, -0.671032378694855, -0.009538337154191185, -0.6783462909582608, 0.09255788151228614, -0.3808834590268456, 0.9341693862234086, -0.7633814211542195, -0.26239775837125046, 0.6040817639429695, 0.1251701342967458, 0.43378350349388867, -0.6658311163698337, -0.8310437821051516, 0.47980747312968036, 0.5618333888161386, 0.5964154186888946, 0.8586686807400236, 0.3223065678400654, -0.012255427035679563, -0.13030989881088084, -0.13526690151160015, -0.9529225775385275, -0.11245177085376157, -0.44697298385939654, -0.07120958673721925, 0.2648096992864064, 0.7467209232089318, 0.9076781166635218, 0.3306800262578501, 0.7429829561349107, -0.3409191484122935, 0.9157920174811198, 0.13843497543557895, -0.04383103990119125, -0.2758648980190229, -0.681690150846312, -0.5789228380005716, 0.22735199093581585, -0.36771921130416324, -1.0166443838709922, -0.18597899558743755, 0.6247826353949505, -0.8234385470362537, -0.8268904184080538, -0.9562524901918054, 0.5788949475279732, -0.3584142863130451, -0.2953048193586909, -0.7010235652963817, -0.7057022921164331, -0.7491649661890221, 0.5043717155402432, -0.29934190866924965, 0.42861688427256983, 0.6892656871116232, 0.8204012808638989, -0.8106364541510227, -0.8159551825761945, -0.9431925740330024, -0.757204122040826, 0.8896359090719328, 0.23220090698782214, -0.38346682235993446, 0.7907718156342362, 0.15927909832624879, -0.18243718931326355, 0.6595112820321657, 0.003338997229166145, 0.13643316370626513, 0.8023181036471039, 0.16856155395608663, 0.5388804626047045, -0.6046000652663266, 0.7919691037611631, 0.9970824578862647, -0.3647209891179988, 0.7818387948250167, -0.9063343454238195, 0.5570375674124519, -0.594676988538525, 0.13579551948905944, 0.08383824523332906, 0.23701122585919407, 0.3697081676125583, -0.9272637280000443, -0.8474425432674609, -0.6620309800174758, -0.9307946248312998, -0.6993426128159024, 0.43211905002918666, 0.5096932200021846, -0.5335219151668208, 0.2120510158575522, 0.7764450472864874, -0.3418904595659019, 0.8933834527235317, -0.6670762631067346, 0.7384033463206222, -0.34184277177379757, 0.8475690085232745, -0.2442752412434073, -0.8341444063043928, 0.40110802291986625, 0.5657591840302243, -0.2805886238847164, -0.5578281845636661, -0.7030610538040825, 0.6459795181967911, -0.25491593689230707, 0.8254412305666596, 0.27344252776876465, 0.14612598799613297, 0.4747138266813565, -0.9502344066910222, 0.25956809120934027, -0.38388030128771705, -0.7503605992545325, 0.7350397301067656, 0.8506729550134278, 0.596039446202496, -0.7547808357252169, 0.656128161472357, 0.2528435723429721, 0.8547810978439723, -0.8246549844732487, 0.5312763360597788, -0.3395879769386867, -0.284590084841728, 0.17605959496723345, 0.8027864085479339, 0.6852910810500421, -0.9010861582563081, 0.06716004825771416]
